{"learner":{"attributes":{"best_iteration":"11","best_score":"0.5709517310407979","scikit_learn":"{\"_estimator_type\": \"classifier\"}"},"feature_names":[],"feature_types":[],"gradient_booster":{"model":{"gbtree_model_param":{"num_parallel_tree":"1","num_trees":"22"},"iteration_indptr":[0,1,2,3,4,5,6,7,8,9,10,11,12,13,14,15,16,17,18,19,20,21,22],"tree_info":[0,0,0,0,0,0,0,0,0,0,0,0,0,0,0,0,0,0,0,0,0,0],"trees":[{"base_weights":[2.2472002E-1,-7.247398E-1,1.056271E0,-1.3621088E0,1.272092E-1,-8.6502254E-1,1.1334383E0,-2.1176605E0,-3.5887507E-1,4.1911554E-1,-1.8040586E0,-2.8982162E0,9.393832E-1,-4.2718968E-1,1.1550115E0,-2.6094897E0,-3.249062E-1,-2.187907E0,5.4816272E-2,-1.2553486E0,6.688456E-1,8.2682693E-1,-2.9588888E0,-1.0712273E0,-6.671245E-2,3.1615832E-1,4.4255856E-2,1.1695238E0,-3.4113288E-1,-2.9446394E0,1.8843327E-1,5.994306E-1,-2.5395503E0,6.6277254E-1,-3.1608188E0,-1.9730822E0,4.103442E-1,3.606091E-1,-1.019693E0,-1.7430251E0,8.0748665E-1,2.8828397E-1,4.4255856E-2,-3.530058E0,2.0770796E-1,-4.9576125E-1,1.187493E0,-5.062975E-1,-1.1337683E0,-6.710703E-1,3.2157457E-1,3.0213207E-1,-4.8154965E-1,-1.0028869E0,7.049775E-2,4.4255856E-2,2.4073993E-1,-1.0866891E0,4.4255856E-2,-9.951077E-1,1.18009135E-1,-5.86349E-1,2.0291676E-1,3.2472128E-1,-5.437312E-1,-9.5418483E-1,2.312072E-1,2.7352506E-1,-4.874873E-1,-1.6171418E-1,-1.2008009E0,2.312072E-1,-5.5070573E-1,-2.0392266E-1,3.5956272E-1],"categories":[],"categories_nodes":[],"categories_segments":[],"categories_sizes":[],"default_left":[0,0,0,0,0,0,0,0,0,0,0,0,0,0,0,0,0,0,0,0,0,0,0,0,0,0,0,0,0,0,0,0,0,0,0,0,0,0,0,0,0,0,0,0,0,0,0,0,0,0,0,0,0,0,0,0,0,0,0,0,0,0,0,0,0,0,0,0,0,0,0,0,0,0,0],"id":0,"left_children":[1,3,5,7,9,11,13,15,17,19,21,23,25,-1,27,29,31,33,35,37,39,41,43,-1,-1,-1,-1,45,-1,47,49,51,53,55,57,59,61,63,-1,65,67,-1,-1,69,-1,71,73,-1,-1,-1,-1,-1,-1,-1,-1,-1,-1,-1,-1,-1,-1,-1,-1,-1,-1,-1,-1,-1,-1,-1,-1,-1,-1,-1,-1],"loss_changes":[4.1330704E2,1.3296881E2,4.2339813E1,1.05345245E2,6.027394E1,4.4321484E1,1.6464996E1,6.937579E1,4.6531815E1,3.9529976E1,4.513567E1,9.24099E0,4.5757437E-1,0E0,1.0209015E1,5.9026733E1,3.8959084E1,3.354277E1,3.757891E1,4.402633E1,2.8548954E1,3.1995606E-1,2.3263298E1,0E0,0E0,0E0,0E0,8.540741E0,0E0,5.210196E1,1.87042E1,1.3940134E1,1.3215427E1,1.4878976E-1,1.370546E1,2.6046741E1,2.9143074E1,1.4429858E1,0E0,1.9539598E1,2.112144E1,0E0,0E0,1.0277008E1,0E0,7.4259233E0,6.244934E0,0E0,0E0,0E0,0E0,0E0,0E0,0E0,0E0,0E0,0E0,0E0,0E0,0E0,0E0,0E0,0E0,0E0,0E0,0E0,0E0,0E0,0E0,0E0,0E0,0E0,0E0,0E0,0E0],"parents":[2147483647,0,0,1,1,2,2,3,3,4,4,5,5,6,6,7,7,8,8,9,9,10,10,11,11,12,12,14,14,15,15,16,16,17,17,18,18,19,19,20,20,21,21,22,22,27,27,29,29,30,30,31,31,32,32,33,33,34,34,35,35,36,36,37,37,39,39,40,40,43,43,45,45,46,46],"right_children":[2,4,6,8,10,12,14,16,18,20,22,24,26,-1,28,30,32,34,36,38,40,42,44,-1,-1,-1,-1,46,-1,48,50,52,54,56,58,60,62,64,-1,66,68,-1,-1,70,-1,72,74,-1,-1,-1,-1,-1,-1,-1,-1,-1,-1,-1,-1,-1,-1,-1,-1,-1,-1,-1,-1,-1,-1,-1,-1,-1,-1,-1,-1],"split_conditions":[7.9078004E-2,-1.0680665E-4,-4.7560767E-4,2.6918227E-2,1.2086171E-1,1.11113805E-2,6.0074534E-2,2.4210933E-1,-3.8627154E-4,-1.1669446E-3,-6.62933E-4,6.423289E-2,1.0080596E-1,-4.2718968E-1,1.9212595E-1,6.946959E-2,1.4087461E-1,6.94936E-2,-5.921079E-4,-1.1372909E-4,-7.674109E-4,3.2832512E-1,7.317162E-2,-1.0712273E0,-6.671245E-2,3.1615832E-1,4.4255856E-2,-1.6568209E-3,-3.4113288E-1,5.9588887E-3,-4.6395368E-4,-2.2780745E-4,3.527896E-2,2.6537558E-1,2.0191263E-2,2.9993165E-2,-7.0623093E-4,9.934673E-3,-1.019693E0,9.355272E-2,2.5621936E-1,2.8828397E-1,4.4255856E-2,7.0840485E-2,2.0770796E-1,3.5856735E-2,9.57829E-3,-5.062975E-1,-1.1337683E0,-6.710703E-1,3.2157457E-1,3.0213207E-1,-4.8154965E-1,-1.0028869E0,7.049775E-2,4.4255856E-2,2.4073993E-1,-1.0866891E0,4.4255856E-2,-9.951077E-1,1.18009135E-1,-5.86349E-1,2.0291676E-1,3.2472128E-1,-5.437312E-1,-9.5418483E-1,2.312072E-1,2.7352506E-1,-4.874873E-1,-1.6171418E-1,-1.2008009E0,2.312072E-1,-5.5070573E-1,-2.0392266E-1,3.5956272E-1],"split_indices":[11260,397,1431,4675,4580,15066,5317,15912,15627,1133,6728,13147,0,0,9913,375,2992,5350,2756,6213,12594,1,14427,0,0,0,0,6947,0,4105,2107,6210,4470,0,2270,1464,6898,9464,0,696,11118,0,0,14396,0,1980,13057,0,0,0,0,0,0,0,0,0,0,0,0,0,0,0,0,0,0,0,0,0,0,0,0,0,0,0,0],"split_type":[0,0,0,0,0,0,0,0,0,0,0,0,0,0,0,0,0,0,0,0,0,0,0,0,0,0,0,0,0,0,0,0,0,0,0,0,0,0,0,0,0,0,0,0,0,0,0,0,0,0,0,0,0,0,0,0,0,0,0,0,0,0,0,0,0,0,0,0,0,0,0,0,0,0,0],"sum_hessian":[5.2151917E2,2.435564E2,2.7796277E2,1.3898138E2,1.0457501E2,1.0338859E1,2.676239E2,7.864312E1,6.0338257E1,9.152432E1,1.3050691E1,4.576216E0,5.7626424E0,1.6948949E0,2.6592902E2,6.1355194E1,1.7287928E1,1.0338859E1,4.9999397E1,1.1355796E1,8.0168526E1,4.0677476E0,8.982943E0,3.3897898E0,1.1864264E0,4.7457056E0,1.0169369E0,2.6474258E2,1.1864264E0,5.4745106E1,6.6100903E0,1.2711712E1,4.576216E0,2.7118318E0,7.627027E0,6.7795796E0,4.321982E1,6.949069E0,4.406727E0,3.7287688E0,7.643976E1,3.0508108E0,1.0169369E0,7.7965164E0,1.1864264E0,2.5423424E0,2.6220023E2,2.305057E1,3.1694534E1,1.3559159E0,5.254174E0,1.1186306E1,1.5254054E0,3.3897898E0,1.1864264E0,1.0169369E0,1.6948949E0,6.6100903E0,1.0169369E0,4.0677476E0,2.7118318E0,3.7287688E0,3.949105E1,5.593153E0,1.3559159E0,2.2033634E0,1.5254054E0,7.3897415E1,2.5423424E0,1.3559159E0,6.4406004E0,1.5254054E0,1.0169369E0,1.1864264E0,2.6101382E2],"tree_param":{"num_deleted":"0","num_feature":"16384","num_nodes":"75","size_leaf_vector":"1"}},{"base_weights":[2.1802789E-1,-4.201696E-1,9.4453025E-1,1.6850096E-1,-7.9677844E-1,-4.629059E-1,1.0395329E0,-1.8823609E0,2.9464102E-1,-1.5477606E0,-3.770228E-1,-1.8145895E0,8.32418E-1,-2.0258668E-1,1.0889455E0,2.1293782E-1,-7.7805114E-1,-1.7336895E0,4.0089226E-1,-1.8214189E0,3.3310142E-1,-9.890916E-1,1.184211E-1,4.9570766E-3,-6.7285246E-1,3.15056E-1,-1.16658054E-1,3.0478063E-1,-2.0302787E0,-4.641069E-1,1.1102548E0,-6.5514374E-1,-3.400945E-2,-5.1749647E-1,6.12494E-1,-1.9502552E0,2.5698203E-1,-3.6054763E-1,3.1187293E-1,-1.9180171E0,-1.7217393E-1,-1.5236617E0,4.1920626E-1,-8.273772E-1,-5.1930577E-2,-4.2846718E-1,2.1077193E-1,-1.0890804E-1,1.1194826E0,2.0516868E-1,-4.9544185E-1,2.1487229E-1,-3.0830264E-1,2.4553904E-1,-6.245254E-1,-6.7224896E-1,8.058853E-2,6.2405918E-2,-5.688737E-1,-5.9638906E-1,2.089303E-1,-4.886234E-1,1.8669985E-1,3.3870703E-1,-1.0196522E-1],"categories":[],"categories_nodes":[],"categories_segments":[],"categories_sizes":[],"default_left":[0,0,0,0,0,0,0,0,0,0,0,0,0,0,0,0,0,0,0,0,0,0,0,0,0,0,0,0,0,0,0,0,0,0,0,0,0,0,0,0,0,0,0,0,0,0,0,0,0,0,0,0,0,0,0,0,0,0,0,0,0,0,0,0,0],"id":1,"left_children":[1,3,5,7,9,11,13,15,17,19,21,23,25,27,29,-1,-1,31,33,35,37,39,41,-1,-1,-1,-1,-1,43,45,47,-1,-1,49,51,53,-1,-1,-1,55,57,59,61,-1,-1,-1,-1,-1,63,-1,-1,-1,-1,-1,-1,-1,-1,-1,-1,-1,-1,-1,-1,-1,-1],"loss_changes":[2.2620578E2,5.7767017E1,3.0975449E1,2.700633E1,4.944641E1,2.7971016E1,1.3352051E1,1.3011679E1,2.1640759E1,2.9730057E1,3.13903E1,6.083061E0,2.6431541E0,2.2170107E1,7.330124E0,0E0,0E0,3.4178057E0,1.8421913E1,1.8766525E1,9.959369E0,3.4760105E1,2.9229946E1,0E0,0E0,0E0,0E0,0E0,4.853821E0,4.931733E0,3.1720428E0,0E0,0E0,2.5635439E1,1.3698481E1,1.9026718E1,0E0,0E0,0E0,1.580555E1,1.7241974E1,1.0844652E1,2.1692427E1,0E0,0E0,0E0,0E0,0E0,3.2019653E0,0E0,0E0,0E0,0E0,0E0,0E0,0E0,0E0,0E0,0E0,0E0,0E0,0E0,0E0,0E0,0E0],"parents":[2147483647,0,0,1,1,2,2,3,3,4,4,5,5,6,6,7,7,8,8,9,9,10,10,11,11,12,12,13,13,14,14,17,17,18,18,19,19,20,20,21,21,22,22,28,28,29,29,30,30,33,33,34,34,35,35,39,39,40,40,41,41,42,42,48,48],"right_children":[2,4,6,8,10,12,14,16,18,20,22,24,26,28,30,-1,-1,32,34,36,38,40,42,-1,-1,-1,-1,-1,44,46,48,-1,-1,50,52,54,-1,-1,-1,56,58,60,62,-1,-1,-1,-1,-1,64,-1,-1,-1,-1,-1,-1,-1,-1,-1,-1,-1,-1,-1,-1,-1,-1],"split_conditions":[7.9078004E-2,1.1419621E-1,-3.0807612E-4,1.3591505E-2,-3.5590777E-4,5.292542E-2,3.5112053E-3,8.194698E-3,-2.632849E-5,6.787515E-2,-5.1798874E-5,-7.8089535E-4,7.5235665E-2,2.8701395E-2,-1.6568209E-3,2.1293782E-1,-7.7805114E-1,1.0778602E-2,-4.323518E-4,3.715152E-2,1.04454264E-1,-1.12105794E-4,-8.8037644E-4,4.9570766E-3,-6.7285246E-1,3.15056E-1,-1.16658054E-1,3.0478063E-1,1.2414717E-1,1.2760352E-1,-1.2598915E-3,-6.5514374E-1,-3.400945E-2,-5.155767E-4,2.8441839E-2,-2.2993707E-3,2.5698203E-1,-3.6054763E-1,3.1187293E-1,3.7947774E-2,1.7067702E-1,5.925515E-2,6.8553393E-3,-8.273772E-1,-5.1930577E-2,-4.2846718E-1,2.1077193E-1,-1.0890804E-1,1.5254635E-1,2.0516868E-1,-4.9544185E-1,2.1487229E-1,-3.0830264E-1,2.4553904E-1,-6.245254E-1,-6.7224896E-1,8.058853E-2,6.2405918E-2,-5.688737E-1,-5.9638906E-1,2.089303E-1,-4.886234E-1,1.8669985E-1,3.3870703E-1,-1.0196522E-1],"split_indices":[11260,9885,10071,13056,317,7202,14852,10888,14272,14666,9540,4780,334,10171,6947,0,0,13251,4689,11541,5371,10742,2700,0,0,0,0,0,805,2985,419,0,0,5512,7061,13549,0,0,0,2654,13068,12039,10689,0,0,0,0,0,1640,0,0,0,0,0,0,0,0,0,0,0,0,0,0,0,0],"split_type":[0,0,0,0,0,0,0,0,0,0,0,0,0,0,0,0,0,0,0,0,0,0,0,0,0,0,0,0,0,0,0,0,0,0,0,0,0,0,0,0,0,0,0,0,0,0,0,0,0,0,0,0,0,0,0,0,0,0,0,0,0,0,0,0,0],"sum_hessian":[4.860224E2,2.5896005E2,2.2706235E2,1.0125023E2,1.5770984E2,1.4112799E1,2.1294955E2,5.0599356E0,9.619029E1,5.558169E1,1.0212814E2,6.7099853E0,7.402814E0,8.028614E0,2.0492093E2,1.0897256E0,3.9702098E0,4.025566E0,9.216473E1,4.8549526E1,7.0321655E0,4.5241123E1,5.688702E1,1.4540777E0,5.255907E0,6.401451E0,1.0013632E0,5.0835533E0,2.9450612E0,2.492395E0,2.0242854E2,2.8782358E0,1.14733E0,1.6988037E1,7.517669E1,4.6580364E1,1.9691641E0,1.9954917E0,5.036674E0,2.0538599E1,2.4702526E1,8.177547E0,4.8709473E1,1.7675307E0,1.1775305E0,1.2419219E0,1.2504731E0,1.0213598E0,2.0140718E2,8.441543E0,8.5464945E0,7.123417E1,3.9425178E0,1.875095E0,4.470527E1,1.7874954E1,2.6636434E0,2.0959799E1,3.7427275E0,6.8496084E0,1.327939E0,3.7620075E0,4.4947468E1,2.003239E2,1.0832899E0],"tree_param":{"num_deleted":"0","num_feature":"16384","num_nodes":"65","size_leaf_vector":"1"}},{"base_weights":[1.8991464E-1,-4.489501E-1,7.1042705E-1,-6.9093764E-1,2.638289E-1,-3.778566E-1,8.5844594E-1,-1.057769E0,-1.3793604E-1,6.23842E-1,-7.145828E-1,2.816549E-1,-1.273918E0,1.7677754E-1,9.680207E-1,-8.727633E-2,-1.3484563E0,-9.4567925E-1,3.429502E-1,7.915872E-1,-1.3897699E0,-1.500632E0,7.809134E-1,-4.4505402E-1,3.3199513E-1,4.775961E-1,-1.8329724E0,-7.209205E-1,7.73704E-1,-2.7109578E-1,9.892817E-1,5.7509464E-1,-1.5162399E0,-1.501836E0,6.0570914E-1,-1.5675981E0,4.7390056E-1,7.594646E-1,-6.597272E-1,-3.705967E-1,9.2277145E-1,-5.629392E-1,-4.796352E-2,-1.8183328E0,1.3141806E-1,-2.7643902E-2,2.9923567E-1,5.7841057E-1,-1.22789E0,2.2443698E-1,-4.355456E-2,-5.947085E-1,-1.10180326E-1,-1.9553782E0,3.5058025E-1,-3.7347898E-1,9.5951754E-1,-1.699282E-1,1.0263184E0,2.991986E-1,-4.1505167E-1,-5.0138477E-2,-5.8699363E-1,1.8146114E-1,-4.8797065E-1,3.0440083E-1,-1.7590244E-1,1.19819276E-1,-5.2597773E-1,-3.177371E-1,2.7843904E-1,-4.423182E-1,2.7400425E-1,-4.2264038E-1,2.1232256E-1,-2.5374162E-1,3.1547672E-1,-1.6191599E-1,-5.8740914E-1,2.892469E-1,-1.4734398E-1,-1.1981863E-2,-4.3753844E-1,-6.8615586E-1,-9.299576E-2,-3.7454346E-1,2.9911634E-1,3.3329386E-1,-2.3025359E-1,-3.9212117E-1,2.640209E-1,-2.0605603E-1,3.1452528E-1],"categories":[],"categories_nodes":[],"categories_segments":[],"categories_sizes":[],"default_left":[0,0,0,0,0,0,0,0,0,0,0,0,0,0,0,0,0,0,0,0,0,0,0,0,0,0,0,0,0,0,0,0,0,0,0,0,0,0,0,0,0,0,0,0,0,0,0,0,0,0,0,0,0,0,0,0,0,0,0,0,0,0,0,0,0,0,0,0,0,0,0,0,0,0,0,0,0,0,0,0,0,0,0,0,0,0,0,0,0,0,0,0,0],"id":2,"left_children":[1,3,5,7,9,11,13,15,17,19,21,23,25,27,29,31,33,35,37,39,41,43,45,47,-1,49,51,53,55,-1,57,59,61,63,65,67,69,71,73,-1,75,-1,-1,77,-1,-1,-1,79,81,-1,-1,-1,-1,83,85,-1,87,89,91,-1,-1,-1,-1,-1,-1,-1,-1,-1,-1,-1,-1,-1,-1,-1,-1,-1,-1,-1,-1,-1,-1,-1,-1,-1,-1,-1,-1,-1,-1,-1,-1,-1,-1],"loss_changes":[1.4411536E2,3.3773907E1,3.8770844E1,2.9404137E1,1.8087452E1,1.7656048E1,1.5544434E1,2.4545937E1,2.3336163E1,1.3647143E1,1.7556278E1,1.1091755E1,1.3203838E1,1.6826765E1,8.098206E0,2.0956589E1,2.10532E1,2.0496218E1,1.6316113E1,1.0426912E1,1.6270723E0,6.6343803E0,1.1240683E0,8.812562E0,0E0,7.555056E-1,1.4069824E0,1.7408846E1,8.215242E0,0E0,7.880234E0,1.3969889E1,3.8295593E0,1.7434174E1,3.3267047E0,6.4667625E0,6.264012E0,1.0703427E1,1.2929653E1,0E0,8.49332E0,0E0,0E0,4.3250465E-1,0E0,0E0,0E0,2.562229E0,1.5989313E0,0E0,0E0,0E0,0E0,2.581396E0,9.118106E0,0E0,5.4838066E0,8.809683E0,7.3102875E0,0E0,0E0,0E0,0E0,0E0,0E0,0E0,0E0,0E0,0E0,0E0,0E0,0E0,0E0,0E0,0E0,0E0,0E0,0E0,0E0,0E0,0E0,0E0,0E0,0E0,0E0,0E0,0E0,0E0,0E0,0E0,0E0,0E0,0E0],"parents":[2147483647,0,0,1,1,2,2,3,3,4,4,5,5,6,6,7,7,8,8,9,9,10,10,11,11,12,12,13,13,14,14,15,15,16,16,17,17,18,18,19,19,20,20,21,21,22,22,23,23,25,25,26,26,27,27,28,28,30,30,31,31,32,32,33,33,34,34,35,35,36,36,37,37,38,38,40,40,43,43,47,47,48,48,53,53,54,54,56,56,57,57,58,58],"right_children":[2,4,6,8,10,12,14,16,18,20,22,24,26,28,30,32,34,36,38,40,42,44,46,48,-1,50,52,54,56,-1,58,60,62,64,66,68,70,72,74,-1,76,-1,-1,78,-1,-1,-1,80,82,-1,-1,-1,-1,84,86,-1,88,90,92,-1,-1,-1,-1,-1,-1,-1,-1,-1,-1,-1,-1,-1,-1,-1,-1,-1,-1,-1,-1,-1,-1,-1,-1,-1,-1,-1,-1,-1,-1,-1,-1,-1,-1],"split_conditions":[2.7259784E-2,3.4047707E-3,1.24747995E-2,7.415246E-4,1.4103001E-1,3.1224955E-2,1.9287392E-3,-2.835723E-4,3.3587985E-2,4.0161513E-2,1.8235305E-1,-4.9601094E-4,-4.4367983E-4,2.601222E-2,-8.0181926E-4,7.094315E-2,2.4875598E-1,7.280743E-2,-7.8203005E-4,-1.7129306E-3,3.8627937E-2,1.4903265E-1,-5.3425384E-4,-3.2866313E-4,3.3199513E-1,2.0251125E-2,9.754017E-2,4.6666022E-2,-4.4900188E-4,-2.7109578E-1,2.2373695E-2,4.5178674E-2,6.661066E-2,-5.528727E-4,-1.1407078E-3,-8.4845995E-4,-3.900459E-4,-6.124423E-4,4.209862E-2,-3.705967E-1,2.1558795E-2,-5.629392E-1,-4.796352E-2,-4.0176834E-4,1.3141806E-1,-2.7643902E-2,2.9923567E-1,1.4443314E-2,8.268778E-2,2.2443698E-1,-4.355456E-2,-5.947085E-1,-1.10180326E-1,-6.146263E-5,-2.9305922E-4,-3.7347898E-1,7.623516E-2,2.0775944E-2,-6.8133965E-4,2.991986E-1,-4.1505167E-1,-5.0138477E-2,-5.8699363E-1,1.8146114E-1,-4.8797065E-1,3.0440083E-1,-1.7590244E-1,1.19819276E-1,-5.2597773E-1,-3.177371E-1,2.7843904E-1,-4.423182E-1,2.7400425E-1,-4.2264038E-1,2.1232256E-1,-2.5374162E-1,3.1547672E-1,-1.6191599E-1,-5.8740914E-1,2.892469E-1,-1.4734398E-1,-1.1981863E-2,-4.3753844E-1,-6.8615586E-1,-9.299576E-2,-3.7454346E-1,2.9911634E-1,3.3329386E-1,-2.3025359E-1,-3.9212117E-1,2.640209E-1,-2.0605603E-1,3.1452528E-1],"split_indices":[11260,13792,1484,13302,806,10171,10923,2379,8423,10932,14823,4305,8230,4288,6878,9441,13083,9432,7064,739,265,8238,6433,14497,0,437,8403,4600,4082,0,13056,8456,1291,14181,6817,15878,8819,3332,5664,0,14308,0,0,8378,0,0,0,1452,2179,0,0,0,0,10757,6759,0,4055,8241,3183,0,0,0,0,0,0,0,0,0,0,0,0,0,0,0,0,0,0,0,0,0,0,0,0,0,0,0,0,0,0,0,0,0,0],"split_type":[0,0,0,0,0,0,0,0,0,0,0,0,0,0,0,0,0,0,0,0,0,0,0,0,0,0,0,0,0,0,0,0,0,0,0,0,0,0,0,0,0,0,0,0,0,0,0,0,0,0,0,0,0,0,0,0,0,0,0,0,0,0,0,0,0,0,0,0,0,0,0,0,0,0,0,0,0,0,0,0,0,0,0,0,0,0,0,0,0,0,0,0,0],"sum_hessian":[4.3142224E2,1.9375247E2,2.3766977E2,1.4466838E2,4.9084076E1,2.8269596E1,2.0940018E2,8.642557E1,5.824282E1,3.614623E1,1.293785E1,1.6679193E1,1.1590403E1,2.9360535E1,1.8003964E2,2.021978E1,6.620579E1,2.1374165E1,3.6868656E1,3.3926815E1,2.2194123E0,8.478188E0,4.4596624E0,9.11269E0,7.566504E0,2.8396142E0,8.750789E0,1.1643115E1,1.771742E1,1.556019E0,1.7848363E2,1.4224027E1,5.995754E0,6.160219E1,4.603598E0,1.4790269E1,6.5838957E0,2.6219557E1,1.0649098E1,1.5506861E0,3.237613E1,1.2134926E0,1.0059198E0,7.337798E0,1.1403897E0,1.0004442E0,3.4592185E0,4.062539E0,5.050151E0,1.8393537E0,1.0002606E0,7.621485E0,1.1293036E0,5.0268598E0,6.6162553E0,1.0129616E0,1.6704458E1,5.414899E0,1.7306873E2,1.2105191E1,2.1188352E0,1.8150687E0,4.180685E0,3.2282648E0,5.8373924E1,3.5384536E0,1.0651447E0,1.1763324E0,1.3613936E1,1.2005041E0,5.3833914E0,1.136735E0,2.508282E1,6.860707E0,3.788392E0,1.820195E0,3.0555933E1,1.2017752E0,6.1360226E0,3.0581396E0,1.0043998E0,1.011568E0,4.038583E0,3.8586693E0,1.1681902E0,1.6366872E0,4.979568E0,1.56855345E1,1.0189235E0,2.4820354E0,2.9328635E0,1.820989E0,1.7124773E2],"tree_param":{"num_deleted":"0","num_feature":"16384","num_nodes":"93","size_leaf_vector":"1"}},{"base_weights":[1.6515781E-1,-2.3915084E-1,8.0362606E-1,2.5630423E-1,-4.7597042E-1,-7.675212E-1,8.732817E-1,3.0337765E-3,9.43961E-1,-6.749215E-1,2.7518544E-1,-4.3472996E-1,1.6350208E-1,-4.6214947E-1,9.156825E-1,6.523649E-1,-4.0637055E-1,-1.8474218E-1,3.2898808E-1,-8.4097046E-1,1.8173409E-1,-1.1110954E0,5.3172904E-1,-3.4336942E-1,2.0548399E-1,-8.096947E-2,9.6488947E-1,9.8679334E-1,-9.140517E-1,-9.645581E-1,5.139983E-1,8.311072E-1,-9.336345E-1,-5.584595E-1,7.1256673E-1,-4.9492136E-1,1.7438702E-1,-9.510714E-1,7.772447E-1,-1.285275E0,2.6848638E-1,-3.2176232E-1,9.9361694E-1,3.4107858E-1,-7.845513E-2,3.681442E-2,-3.8729513E-1,-4.2137513E-1,6.1820496E-2,-3.0003592E-1,2.5837713E-1,-8.911912E-2,3.3733836E-1,-2.983583E-1,2.797561E-1,1.6826281E-1,-4.1533765E-1,-2.5080118E-1,2.995273E-1,-4.5192242E-1,1.0496246E-1,-1.8915507E-1,2.80194E-1,-4.3521274E-2,-4.9770227E-1,2.0178695E-1,-4.3185323E-1,3.696968E-2,3.0981007E-1],"categories":[],"categories_nodes":[],"categories_segments":[],"categories_sizes":[],"default_left":[0,0,0,0,0,0,0,0,0,0,0,0,0,0,0,0,0,0,0,0,0,0,0,0,0,0,0,0,0,0,0,0,0,0,0,0,0,0,0,0,0,0,0,0,0,0,0,0,0,0,0,0,0,0,0,0,0,0,0,0,0,0,0,0,0,0,0,0,0],"id":3,"left_children":[1,3,5,7,9,11,13,15,17,19,21,-1,-1,23,25,27,29,-1,-1,31,33,35,37,-1,-1,39,41,43,45,47,49,51,53,55,57,-1,-1,59,61,63,-1,65,67,-1,-1,-1,-1,-1,-1,-1,-1,-1,-1,-1,-1,-1,-1,-1,-1,-1,-1,-1,-1,-1,-1,-1,-1,-1,-1],"loss_changes":[9.6578316E1,2.7036938E1,1.65391E1,1.3030608E1,2.3432186E1,6.7726536E0,8.311546E0,1.507092E1,5.4711514E0,1.7687668E1,1.242765E1,0E0,0E0,4.6601725E0,6.716568E0,1.2385132E1,1.8360619E1,0E0,0E0,1.680214E1,8.585122E0,5.9920096E0,1.1210017E1,0E0,0E0,9.719748E0,5.0904236E0,3.7728996E0,1.8684263E0,1.161857E1,8.1069565E0,2.3065877E0,1.2117546E1,9.340742E0,6.400778E0,0E0,0E0,3.8037734E0,6.1550055E0,1.3250308E0,0E0,4.9409127E0,4.175812E0,0E0,0E0,0E0,0E0,0E0,0E0,0E0,0E0,0E0,0E0,0E0,0E0,0E0,0E0,0E0,0E0,0E0,0E0,0E0,0E0,0E0,0E0,0E0,0E0,0E0,0E0],"parents":[2147483647,0,0,1,1,2,2,3,3,4,4,5,5,6,6,7,7,8,8,9,9,10,10,13,13,14,14,15,15,16,16,19,19,20,20,21,21,22,22,25,25,26,26,27,27,28,28,29,29,30,30,31,31,32,32,33,33,34,34,37,37,38,38,39,39,41,41,42,42],"right_children":[2,4,6,8,10,12,14,16,18,20,22,-1,-1,24,26,28,30,-1,-1,32,34,36,38,-1,-1,40,42,44,46,48,50,52,54,56,58,-1,-1,60,62,64,-1,66,68,-1,-1,-1,-1,-1,-1,-1,-1,-1,-1,-1,-1,-1,-1,-1,-1,-1,-1,-1,-1,-1,-1,-1,-1,-1,-1],"split_conditions":[6.6656284E-2,8.632012E-2,2.067199E-2,1.12102404E-1,6.868796E-2,7.155625E-2,-1.2797029E-3,3.0546155E-2,-3.1264604E-4,2.2371584E-1,-8.91299E-5,-4.3472996E-1,1.6350208E-1,-2.856126E-4,-9.428616E-6,-2.3827317E-5,4.0748242E-2,-1.8474218E-1,3.2898808E-1,-2.1068377E-3,-9.525531E-4,1.6525494E-1,-3.4172906E-4,-3.4336942E-1,2.0548399E-1,1.6451193E-2,-2.066366E-4,6.951742E-2,-2.7443175E-4,1.5930969E-1,4.340262E-2,-2.4652965E-3,3.4272742E-1,-7.9306064E-4,-4.1711653E-4,-4.9492136E-1,1.7438702E-1,-1.9553806E-4,-1.2731917E-3,1.0956323E-1,2.6848638E-1,1.900216E-1,8.6880475E-3,3.4107858E-1,-7.845513E-2,3.681442E-2,-3.8729513E-1,-4.2137513E-1,6.1820496E-2,-3.0003592E-1,2.5837713E-1,-8.911912E-2,3.3733836E-1,-2.983583E-1,2.797561E-1,1.6826281E-1,-4.1533765E-1,-2.5080118E-1,2.995273E-1,-4.5192242E-1,1.0496246E-1,-1.8915507E-1,2.80194E-1,-4.3521274E-2,-4.9770227E-1,2.0178695E-1,-4.3185323E-1,3.696968E-2,3.0981007E-1],"split_indices":[11252,9917,13580,11591,3073,4423,5599,9471,11248,3579,6593,0,0,417,4672,4430,13132,0,0,14105,12072,7825,13806,0,0,10926,14790,8396,15679,5339,5763,948,2757,4787,2171,0,0,2559,11540,8250,0,4922,14279,0,0,0,0,0,0,0,0,0,0,0,0,0,0,0,0,0,0,0,0,0,0,0,0,0,0],"split_type":[0,0,0,0,0,0,0,0,0,0,0,0,0,0,0,0,0,0,0,0,0,0,0,0,0,0,0,0,0,0,0,0,0,0,0,0,0,0,0,0,0,0,0,0,0,0,0,0,0,0,0,0,0,0,0,0,0,0,0,0,0,0,0,0,0,0,0,0,0],"sum_hessian":[3.7238962E2,2.283885E2,1.4400111E2,7.383485E1,1.5455367E2,5.6878433E0,1.3831326E2,5.4694687E1,1.9140156E1,1.2227057E2,3.2283092E1,3.6752713E0,2.012572E0,3.9517467E0,1.3436153E2,2.0920507E1,3.377418E1,1.4359133E0,1.7704243E1,1.0243375E2,1.9836824E1,4.5211573E0,2.7761934E1,2.4791124E0,1.4726341E0,6.291251E0,1.2807027E2,1.754475E1,3.3757558E0,2.09938E1,1.2780383E1,4.960207E0,9.747354E1,8.262935E0,1.157389E1,3.4487193E0,1.0724381E0,3.5354838E0,2.422645E1,2.6742287E0,3.6170225E0,2.574235E0,1.2549603E2,1.5740817E1,1.8039341E0,1.0798962E0,2.2958598E0,1.5113096E1,5.8807025E0,2.0335693E0,1.0746814E1,1.0210068E0,3.9392E0,9.484577E1,2.6277697E0,3.6447716E0,4.618163E0,1.5036498E0,1.007024E1,2.367103E0,1.1683809E0,2.1242352E0,2.2102215E1,1.002849E0,1.6713796E0,1.5730405E0,1.0011945E0,5.571513E0,1.1992452E2],"tree_param":{"num_deleted":"0","num_feature":"16384","num_nodes":"69","size_leaf_vector":"1"}},{"base_weights":[1.4764607E-1,-2.1830855E-1,6.8143356E-1,-3.5857278E-1,9.470419E-1,1.5749061E-2,8.7980103E-1,1.2716036E-1,-5.5355644E-1,-2.0883325E-1,3.2236254E-1,-9.0633935E-1,4.6240965E-1,-7.033327E-1,9.296112E-1,4.6421382E-1,-4.0326977E-1,6.1901335E-2,-7.42212E-1,1.8842825E-1,-1.3136075E0,-3.9817318E-1,7.966712E-1,-3.218829E-1,2.9528737E-2,-4.4369036E-1,9.8697275E-1,-3.0983013E-1,6.898285E-1,-7.575361E-1,2.6856422E-1,-7.11181E-1,6.1314625E-1,-1.0177212E0,-2.822122E-1,-4.859285E-1,2.8762119E-2,-1.5179505E0,5.2888453E-1,9.895942E-1,-3.0495322E-1,-9.371978E-1,1.819944E-1,-1.0250572E-1,1.0169541E0,-2.6595443E-1,2.4171427E-1,1.5671453E-1,-3.5545725E-1,-4.1458058E-1,9.810605E-2,2.461951E-1,-3.0035278E-1,2.0566909E-2,-3.512522E-1,8.362655E-2,-2.673435E-1,-9.3704335E-2,-5.9763753E-1,-6.449789E-2,2.4150665E-1,3.10169E-1,5.6022484E-2,-7.707631E-2,-3.3115244E-1,3.1262156E-1,-4.87282E-2],"categories":[],"categories_nodes":[],"categories_segments":[],"categories_sizes":[],"default_left":[0,0,0,0,0,0,0,0,0,0,0,0,0,0,0,0,0,0,0,0,0,0,0,0,0,0,0,0,0,0,0,0,0,0,0,0,0,0,0,0,0,0,0,0,0,0,0,0,0,0,0,0,0,0,0,0,0,0,0,0,0,0,0,0,0,0,0],"id":4,"left_children":[1,3,5,7,9,11,13,15,17,-1,-1,19,21,23,25,27,29,31,33,-1,35,37,39,-1,-1,41,43,-1,45,47,-1,49,51,53,55,-1,-1,57,59,61,-1,63,-1,-1,65,-1,-1,-1,-1,-1,-1,-1,-1,-1,-1,-1,-1,-1,-1,-1,-1,-1,-1,-1,-1,-1,-1],"loss_changes":[6.4147354E1,3.223421E1,1.761454E1,1.6634062E1,5.1972485E0,1.3461243E1,8.762718E0,9.288698E0,1.4557343E1,0E0,0E0,7.4939375E0,6.6442733E0,1.2038373E0,8.325256E0,1.1382672E1,1.0023238E1,1.3325211E1,1.1845711E1,0E0,3.9339314E0,7.882561E0,6.664034E0,0E0,0E0,3.0070403E0,4.188408E0,0E0,5.839183E0,9.644561E0,0E0,9.54128E0,6.9157734E0,9.975384E0,1.2970811E1,0E0,0E0,1.2912931E0,1.0918083E0,3.4494305E-1,0E0,1.2377143E-1,0E0,0E0,2.9699936E0,0E0,0E0,0E0,0E0,0E0,0E0,0E0,0E0,0E0,0E0,0E0,0E0,0E0,0E0,0E0,0E0,0E0,0E0,0E0,0E0,0E0,0E0],"parents":[2147483647,0,0,1,1,2,2,3,3,4,4,5,5,6,6,7,7,8,8,11,11,12,12,13,13,14,14,15,15,16,16,17,17,18,18,20,20,21,21,22,22,25,25,26,26,28,28,29,29,31,31,32,32,33,33,34,34,37,37,38,38,39,39,41,41,44,44],"right_children":[2,4,6,8,10,12,14,16,18,-1,-1,20,22,24,26,28,30,32,34,-1,36,38,40,-1,-1,42,44,-1,46,48,-1,50,52,54,56,-1,-1,58,60,62,-1,64,-1,-1,66,-1,-1,-1,-1,-1,-1,-1,-1,-1,-1,-1,-1,-1,-1,-1,-1,-1,-1,-1,-1,-1,-1],"split_conditions":[2.7468696E-2,9.595722E-2,8.2008705E-2,5.5582E-2,-3.350806E-4,9.7845895E-3,4.3730065E-3,1.5286007E-3,-1.5454544E-3,-2.0883325E-1,3.2236254E-1,3.591368E-3,-1.2557376E-4,-1.7453464E-4,-9.847018E-4,-3.8658082E-4,1.497528E-2,-3.8810613E-4,5.2275404E-2,1.8842825E-1,6.107388E-2,9.081339E-2,9.652944E-2,-3.218829E-1,2.9528737E-2,1.4463969E-1,-7.078022E-4,-3.0983013E-1,-7.86475E-4,1.3790827E-2,2.6856422E-1,5.6991667E-2,-2.2072025E-4,-5.5075524E-4,4.009596E-2,-4.859285E-1,2.8762119E-2,1.6404542E-1,6.852493E-2,7.299516E-2,-3.0495322E-1,1.9721245E-2,1.819944E-1,-1.0250572E-1,1.3232201E-1,-2.6595443E-1,2.4171427E-1,1.5671453E-1,-3.5545725E-1,-4.1458058E-1,9.810605E-2,2.461951E-1,-3.0035278E-1,2.0566909E-2,-3.512522E-1,8.362655E-2,-2.673435E-1,-9.3704335E-2,-5.9763753E-1,-6.449789E-2,2.4150665E-1,3.10169E-1,5.6022484E-2,-7.707631E-2,-3.3115244E-1,3.1262156E-1,-4.87282E-2],"split_indices":[14975,12208,13062,13117,4732,4456,13135,4040,14886,0,0,2015,4128,8130,6756,7504,430,10912,5519,0,2093,5776,11119,0,0,5878,13901,0,6870,5679,0,16158,5284,12228,10780,0,0,15409,815,1788,0,1531,0,0,1640,0,0,0,0,0,0,0,0,0,0,0,0,0,0,0,0,0,0,0,0,0,0],"split_type":[0,0,0,0,0,0,0,0,0,0,0,0,0,0,0,0,0,0,0,0,0,0,0,0,0,0,0,0,0,0,0,0,0,0,0,0,0,0,0,0,0,0,0,0,0,0,0,0,0,0,0,0,0,0,0,0,0,0,0,0,0,0,0,0,0,0,0],"sum_hessian":[3.266233E2,1.9412552E2,1.3249777E2,1.7388824E2,2.0237278E1,3.0666403E1,1.01831375E2,4.9907967E1,1.2398028E2,1.1361011E0,1.9101177E1,9.671455E0,2.0994947E1,2.705982E0,9.91254E1,3.0592978E1,1.9314991E1,2.9245033E1,9.4735245E1,1.9148407E0,7.7566147E0,5.8199143E0,1.5175033E1,1.6206396E0,1.0853425E0,3.704335E0,9.542106E1,3.5383077E0,2.705467E1,1.5502131E1,3.812859E0,1.2052339E1,1.7192696E1,5.849075E1,3.6244495E1,6.249884E0,1.5067304E0,2.347284E0,3.4726303E0,1.4126222E1,1.0488113E0,2.593488E0,1.110847E0,1.8762482E0,9.354481E1,1.3973402E0,2.565733E1,3.824497E0,1.1677634E1,7.120734E0,4.9316044E0,1.5670112E1,1.522583E0,7.2943783E0,5.119637E1,1.914748E1,1.7097015E1,1.130831E0,1.2164531E0,1.0000523E0,2.472578E0,1.3114753E1,1.0114685E0,1.0104288E0,1.5830592E0,9.170809E1,1.8367201E0],"tree_param":{"num_deleted":"0","num_feature":"16384","num_nodes":"67","size_leaf_vector":"1"}},{"base_weights":[1.261796E-1,-1.4734192E-1,7.066534E-1,-2.9238343E-1,5.231119E-1,8.594957E-2,9.2013425E-1,-5.095732E-1,7.99764E-2,7.473557E-1,-8.3255833E-1,6.018923E-1,-6.3292944E-1,-2.6310915E-1,9.758312E-1,9.233252E-1,-5.962239E-1,3.2380342E-1,-8.5240114E-1,8.899011E-1,-3.9242744E-1,-3.8247597E-1,1.4401136E-1,-5.4893404E-1,9.040843E-1,1.8467258E-1,-1.0532988E0,-1.7056501E-1,1.0175631E0,3.3710298E-1,-1.00459885E-2,-6.789206E-1,6.5551883E-1,4.529898E-1,-7.83061E-1,-1.2313181E0,3.9297318E-1,-2.2763963E-1,9.993659E-1,-3.6951932E-1,1.9052666E-1,1.2511253E-1,-3.306172E-1,-6.639783E-2,3.084152E-1,-1.3297169E0,7.327692E-2,-8.771449E-2,3.144755E-1,9.202455E-2,-2.3237333E-1,-8.8442326E-2,2.9057524E-1,-1.9911088E-1,1.7557436E-1,-3.525599E-1,1.255301E-1,-4.0384388E-1,-3.9655138E-2,-8.4562555E-2,2.2473057E-1,-3.0623698E-1,1.7850082E-1,3.1729397E-1,-6.1171565E-2,-4.4726506E-1,-7.039067E-2],"categories":[],"categories_nodes":[],"categories_segments":[],"categories_sizes":[],"default_left":[0,0,0,0,0,0,0,0,0,0,0,0,0,0,0,0,0,0,0,0,0,0,0,0,0,0,0,0,0,0,0,0,0,0,0,0,0,0,0,0,0,0,0,0,0,0,0,0,0,0,0,0,0,0,0,0,0,0,0,0,0,0,0,0,0,0,0],"id":5,"left_children":[1,3,5,7,9,11,13,15,17,19,21,23,25,-1,27,29,31,33,35,37,39,-1,-1,41,43,-1,45,-1,47,-1,-1,49,51,53,55,57,59,61,63,-1,-1,-1,-1,-1,-1,65,-1,-1,-1,-1,-1,-1,-1,-1,-1,-1,-1,-1,-1,-1,-1,-1,-1,-1,-1,-1,-1],"loss_changes":[4.557622E1,1.916379E1,1.2098644E1,1.3091024E1,1.1301468E1,9.513293E0,7.690384E0,1.3221922E1,1.398732E1,5.332199E0,3.7817614E0,5.6595826E0,6.303577E0,0E0,4.877365E0,1.2284575E0,1.0469833E1,7.2947116E0,6.513735E0,3.5997715E0,4.3209286E0,0E0,0E0,2.4418652E0,1.920784E0,0E0,3.3483343E0,0E0,2.931717E0,0E0,0E0,8.849091E0,2.2224493E0,6.900918E0,3.0543659E0,1.0891094E0,1.109743E0,2.7434473E0,1.9893837E0,0E0,0E0,0E0,0E0,0E0,0E0,9.040909E-1,0E0,0E0,0E0,0E0,0E0,0E0,0E0,0E0,0E0,0E0,0E0,0E0,0E0,0E0,0E0,0E0,0E0,0E0,0E0,0E0,0E0],"parents":[2147483647,0,0,1,1,2,2,3,3,4,4,5,5,6,6,7,7,8,8,9,9,10,10,11,11,12,12,14,14,15,15,16,16,17,17,18,18,19,19,20,20,23,23,24,24,26,26,28,28,31,31,32,32,33,33,34,34,35,35,36,36,37,37,38,38,45,45],"right_children":[2,4,6,8,10,12,14,16,18,20,22,24,26,-1,28,30,32,34,36,38,40,-1,-1,42,44,-1,46,-1,48,-1,-1,50,52,54,56,58,60,62,64,-1,-1,-1,-1,-1,-1,66,-1,-1,-1,-1,-1,-1,-1,-1,-1,-1,-1,-1,-1,-1,-1,-1,-1,-1,-1,-1,-1],"split_conditions":[1.11630216E-1,6.2410735E-2,1.0763438E-2,-3.5279882E-4,3.0700892E-1,-5.180929E-4,-8.2917913E-4,-2.5113055E-3,1.5633687E-1,5.719669E-2,-8.455052E-5,-6.647147E-4,4.0023338E-2,-2.6310915E-1,-1.0512385E-3,-8.023526E-4,1.0364171E-1,1.3055462E-1,1.04390055E-1,-5.5799406E-4,2.0826371E-1,-3.8247597E-1,1.4401136E-1,1.0695624E-1,3.6923356E-2,1.8467258E-1,1.8485275E-1,-1.7056501E-1,-8.7871135E-4,3.3710298E-1,-1.00459885E-2,2.3541104E-2,-1.6091327E-3,3.6861807E-2,8.6048886E-2,1.409176E-1,-5.3054694E-4,1.6325028E-1,1.3869041E-1,-3.6951932E-1,1.9052666E-1,1.2511253E-1,-3.306172E-1,-6.639783E-2,3.084152E-1,7.587256E-3,7.327692E-2,-8.771449E-2,3.144755E-1,9.202455E-2,-2.3237333E-1,-8.8442326E-2,2.9057524E-1,-1.9911088E-1,1.7557436E-1,-3.525599E-1,1.255301E-1,-4.0384388E-1,-3.9655138E-2,-8.4562555E-2,2.2473057E-1,-3.0623698E-1,1.7850082E-1,3.1729397E-1,-6.1171565E-2,-4.4726506E-1,-7.039067E-2],"split_indices":[1536,6727,11236,13819,6006,8762,13914,15073,1958,9344,8132,2137,10812,0,1169,185,4700,8228,14583,3063,7308,0,0,2977,2236,0,10191,0,15651,0,0,11328,3053,14564,2381,10340,3282,87,4607,0,0,0,0,0,0,4419,0,0,0,0,0,0,0,0,0,0,0,0,0,0,0,0,0,0,0,0,0],"split_type":[0,0,0,0,0,0,0,0,0,0,0,0,0,0,0,0,0,0,0,0,0,0,0,0,0,0,0,0,0,0,0,0,0,0,0,0,0,0,0,0,0,0,0,0,0,0,0,0,0,0,0,0,0,0,0,0,0,0,0,0,0,0,0,0,0,0,0],"sum_hessian":[2.853986E2,1.9449701E2,9.090158E1,1.6036798E2,3.4129036E1,2.3622074E1,6.72795E1,1.01055756E2,5.931222E1,2.9669989E1,4.459047E0,1.3846857E1,9.775218E0,1.5791415E0,6.570036E1,5.2119913E0,9.5843765E1,4.753421E1,1.1778009E1,2.65667E1,3.1032898E0,3.3565507E0,1.1024963E0,2.7099915E0,1.1136866E1,2.3452916E0,7.4299264E0,1.3964846E0,6.430388E1,4.1653852E0,1.0466064E0,9.033348E1,5.5102897E0,4.3095158E1,4.439054E0,9.039072E0,2.7389374E0,2.2737832E0,2.4292915E1,1.59869E0,1.5045998E0,1.0763224E0,1.633669E0,1.027101E0,1.0109764E1,6.1046634E0,1.3252628E0,1.276782E0,6.3027096E1,7.7959313E0,8.2537544E1,1.3798866E0,4.130403E0,4.138065E0,3.8957092E1,3.363255E0,1.0757992E0,7.980595E0,1.0584769E0,1.0181291E0,1.7208081E0,1.0350109E0,1.2387724E0,2.3286076E1,1.0068406E0,5.0064173E0,1.0982462E0],"tree_param":{"num_deleted":"0","num_feature":"16384","num_nodes":"67","size_leaf_vector":"1"}},{"base_weights":[1.1050542E-1,-7.6669335E-2,7.7167374E-1,-2.0595005E-1,6.2974095E-1,-2.4802336E-1,8.342624E-1,-2.669653E-1,6.726453E-1,-1.7790726E-1,8.713402E-1,9.21779E-1,-4.4225183E-1,-1.6526823E-1,-8.7164587E-1,-1.556928E-1,9.338048E-1,-7.65993E-1,2.2782537E-1,9.7740144E-1,-1.0325325E-1,-2.1413976E-1,9.698268E-1,-2.8646144E-1,1.6471812E-1,3.1215453E-1,-3.529414E-1,2.1071804E-1,-1.1145018E0,3.3109117E-2,3.051407E-1,-3.5672876E-1,1.3837752E-1,1.0433049E0,-5.524542E-4,-2.2830251E-1,1.7550959E-1,1.8430094E-1,1.0181073E0,1.8755503E-1,-9.634385E-2,1.6643593E-1,-1.3703571E-1,-3.903226E-1,1.2569861E-1,5.44132E-2,3.2354444E-1,-2.2674648E-1,2.1847962E-1,2.1103326E-2,3.1120712E-1],"categories":[],"categories_nodes":[],"categories_segments":[],"categories_sizes":[],"default_left":[0,0,0,0,0,0,0,0,0,0,0,0,0,0,0,0,0,0,0,0,0,0,0,0,0,0,0,0,0,0,0,0,0,0,0,0,0,0,0,0,0,0,0,0,0,0,0,0,0,0,0],"id":6,"left_children":[1,3,5,7,9,-1,11,13,15,17,19,21,23,25,27,-1,29,31,-1,33,35,-1,37,-1,-1,39,41,-1,43,-1,-1,-1,-1,45,-1,-1,-1,47,49,-1,-1,-1,-1,-1,-1,-1,-1,-1,-1,-1,-1],"loss_changes":[3.1483715E1,1.8286219E1,6.303711E0,9.229049E0,6.204438E0,0E0,6.49609E0,9.6066675E0,3.9844275E0,4.9744716E0,2.5851688E0,4.725811E0,2.644581E0,1.2382504E1,9.419844E0,0E0,5.4521656E-1,3.349655E0,0E0,1.4068718E0,1.9225482E0,0E0,1.7194824E0,0E0,0E0,7.9678307E0,9.565509E0,0E0,6.2561398E0,0E0,0E0,0E0,0E0,4.22884E-1,0E0,0E0,0E0,2.6639094E0,7.872963E-1,0E0,0E0,0E0,0E0,0E0,0E0,0E0,0E0,0E0,0E0,0E0,0E0],"parents":[2147483647,0,0,1,1,2,2,3,3,4,4,6,6,7,7,8,8,9,9,10,10,11,11,12,12,13,13,14,14,16,16,17,17,19,19,20,20,22,22,25,25,26,26,28,28,33,33,37,37,38,38],"right_children":[2,4,6,8,10,-1,12,14,16,18,20,22,24,26,28,-1,30,32,-1,34,36,-1,38,-1,-1,40,42,-1,44,-1,-1,-1,-1,46,-1,-1,-1,48,50,-1,-1,-1,-1,-1,-1,-1,-1,-1,-1,-1,-1],"split_conditions":[2.1774752E-1,1.0059729E-2,-8.2917913E-4,3.3739373E-2,-5.3235836E-4,-2.4802336E-1,2.828292E-1,-2.4360306E-4,-3.702782E-4,1.07814275E-1,1.0810701E-1,8.6880475E-3,5.0904147E-2,6.799954E-2,-4.7018102E-4,-1.556928E-1,-7.354298E-4,3.3787265E-3,2.2782537E-1,1.398339E-1,-6.917244E-4,-2.1413976E-1,-3.737705E-4,-2.8646144E-1,1.6471812E-1,-5.9999607E-4,7.8801766E-2,2.1071804E-1,-7.319731E-5,3.3109117E-2,3.051407E-1,-3.5672876E-1,1.3837752E-1,-2.9106459E-4,-5.524542E-4,-2.2830251E-1,1.7550959E-1,3.0427298E-2,3.204299E-2,1.8755503E-1,-9.634385E-2,1.6643593E-1,-1.3703571E-1,-3.903226E-1,1.2569861E-1,5.44132E-2,3.2354444E-1,-2.2674648E-1,2.1847962E-1,2.1103326E-2,3.1120712E-1],"split_indices":[9759,7091,13914,14777,16332,0,5413,11562,5638,13224,14182,14279,11510,5746,10786,0,10837,2165,0,14303,390,0,14146,0,0,8499,9906,0,389,0,0,0,0,5809,0,0,0,5769,8774,0,0,0,0,0,0,0,0,0,0,0,0],"split_type":[0,0,0,0,0,0,0,0,0,0,0,0,0,0,0,0,0,0,0,0,0,0,0,0,0,0,0,0,0,0,0,0,0,0,0,0,0,0,0,0,0,0,0,0,0,0,0,0,0,0,0],"sum_hessian":[2.5292754E2,1.9781169E2,5.511585E1,1.6780923E2,3.0002449E1,1.6167718E0,5.3499077E1,1.575632E2,1.0246044E1,6.9690537E0,2.3033396E1,5.0326626E1,3.1724524E0,1.3596884E2,2.1594349E1,1.6644188E0,8.581625E0,4.39462E0,2.5744333E0,2.0770178E1,2.2632182E0,1.0408105E0,4.9285816E1,2.1153429E0,1.0571096E0,3.817979E1,9.7789055E1,2.6334922E0,1.8960857E1,1.0022458E0,7.579379E0,3.291087E0,1.1035331E0,1.9399183E1,1.3709944E0,1.1032481E0,1.1599699E0,3.1327713E0,4.6153046E1,2.5559177E1,1.2620613E1,9.592885E0,8.8196175E1,1.7039326E1,1.9215304E0,1.0020577E0,1.8397125E1,1.0055064E0,2.1272647E0,1.0113893E0,4.5141655E1],"tree_param":{"num_deleted":"0","num_feature":"16384","num_nodes":"51","size_leaf_vector":"1"}},{"base_weights":[9.896628E-2,-5.3868145E-2,7.426349E-1,-1.6759273E-1,5.115281E-1,-4.2122453E-1,8.818303E-1,-2.3536941E-1,5.544601E-1,-2.022047E-1,7.73395E-1,1.7596056E-1,-8.248267E-1,-2.877514E-1,9.664756E-1,-8.120993E-1,-1.1725866E-1,-2.2150071E-1,8.0640817E-1,5.755353E-1,-7.768566E-1,-1.847E-1,9.204898E-1,-1.402763E-2,-3.175494E-1,-2.592853E-1,1.6483085E-1,-8.55464E-3,1.0102985E0,-1.0748752E0,2.4210814E-1,-3.7094343E-1,1.3458759E-1,-4.3461774E-2,9.675525E-1,-5.1200863E-2,2.5109497E-1,-3.607149E-1,1.859414E-1,-1.1795438E-1,1.0060334E0,3.0841994E-1,5.9461832E-2,-3.643164E-1,-7.91844E-3,-1.829601E-1,2.2706023E-1,1.02394745E-1,-1.6628498E-1,1.417862E-1,-8.8149875E-2,4.244629E-2,3.1474978E-1,2.447703E-2,3.153205E-1],"categories":[],"categories_nodes":[],"categories_segments":[],"categories_sizes":[],"default_left":[0,0,0,0,0,0,0,0,0,0,0,0,0,0,0,0,0,0,0,0,0,0,0,0,0,0,0,0,0,0,0,0,0,0,0,0,0,0,0,0,0,0,0,0,0,0,0,0,0,0,0,0,0,0,0],"id":7,"left_children":[1,3,5,7,9,11,13,15,17,19,21,-1,23,25,27,29,31,-1,33,35,37,-1,39,-1,-1,-1,-1,-1,41,43,45,47,49,-1,51,-1,-1,-1,-1,-1,53,-1,-1,-1,-1,-1,-1,-1,-1,-1,-1,-1,-1,-1,-1],"loss_changes":[2.2810732E1,1.2173185E1,7.5777664E0,7.826554E0,6.086219E0,2.6917264E0,4.2434254E0,9.745602E0,5.0879455E0,4.607456E0,5.3515816E0,0E0,7.3078513E-1,2.151523E0,1.6674347E0,7.0162563E0,7.78562E0,0E0,1.982934E0,1.026593E0,4.1797233E0,0E0,2.8202343E0,0E0,0E0,0E0,0E0,0E0,3.160019E-1,2.8504505E0,2.953631E0,8.100794E0,9.044383E0,0E0,5.533762E-1,0E0,0E0,0E0,0E0,0E0,7.6929855E-1,0E0,0E0,0E0,0E0,0E0,0E0,0E0,0E0,0E0,0E0,0E0,0E0,0E0,0E0],"parents":[2147483647,0,0,1,1,2,2,3,3,4,4,5,5,6,6,7,7,8,8,9,9,10,10,12,12,13,13,14,14,15,15,16,16,18,18,19,19,20,20,22,22,28,28,29,29,30,30,31,31,32,32,34,34,40,40],"right_children":[2,4,6,8,10,12,14,16,18,20,22,-1,24,26,28,30,32,-1,34,36,38,-1,40,-1,-1,-1,-1,-1,42,44,46,48,50,-1,52,-1,-1,-1,-1,-1,54,-1,-1,-1,-1,-1,-1,-1,-1,-1,-1,-1,-1,-1,-1],"split_conditions":[1.2980695E-1,2.7725542E-2,1.3318655E-1,1.4751633E-1,-4.209613E-4,3.923621E-2,-8.251697E-5,-3.8658082E-4,-2.3586992E-5,2.5286071E-2,-1.1860224E-3,1.7596056E-1,-1.1562898E-3,6.2323827E-2,-2.6214338E-4,9.0013355E-2,3.161269E-3,-2.2150071E-1,-5.583422E-4,6.1388865E-2,1.2149546E-1,-1.847E-1,2.7184892E-2,-1.402763E-2,-3.175494E-1,-2.592853E-1,1.6483085E-1,-8.55464E-3,1.7970185E-1,5.3569384E-2,1.11080825E-1,-2.3139884E-4,-7.927292E-5,-4.3461774E-2,-2.3674585E-4,-5.1200863E-2,2.5109497E-1,-3.607149E-1,1.859414E-1,-1.1795438E-1,-1.1082473E-3,3.0841994E-1,5.9461832E-2,-3.643164E-1,-7.91844E-3,-1.829601E-1,2.2706023E-1,1.02394745E-1,-1.6628498E-1,1.417862E-1,-8.8149875E-2,4.244629E-2,3.1474978E-1,2.447703E-2,3.153205E-1],"split_indices":[14878,16331,1358,7360,9275,10017,8447,7504,5296,14329,4297,0,14078,2710,14794,13950,13772,0,6894,3581,14341,0,9436,0,0,0,0,0,694,4791,10520,6,15952,0,1757,0,0,0,0,0,8747,0,0,0,0,0,0,0,0,0,0,0,0,0,0],"split_type":[0,0,0,0,0,0,0,0,0,0,0,0,0,0,0,0,0,0,0,0,0,0,0,0,0,0,0,0,0,0,0,0,0,0,0,0,0,0,0,0,0,0,0,0,0,0,0,0,0,0,0,0,0,0,0],"sum_hessian":[2.3046931E2,1.8698694E2,4.3482376E1,1.5626013E2,3.0726797E1,4.428453E0,3.905392E1,1.4346736E2,1.2792773E1,8.308729E0,2.2418068E1,1.1367745E0,3.2916784E0,2.4737353E0,3.658019E1,2.338817E1,1.2007919E2,1.771638E0,1.1021135E1,3.5298524E0,4.7788773E0,1.8416152E0,2.0576452E1,1.0374224E0,2.254256E0,1.4457481E0,1.0279871E0,1.557889E0,3.5022297E1,1.8705866E1,4.6823034E0,5.9585655E1,6.0493538E1,1.6111332E0,9.410003E0,1.0059527E0,2.5238998E0,3.769508E0,1.0093694E0,1.0381165E0,1.9538336E1,3.401219E1,1.0101051E0,1.6369476E1,2.3363905E0,1.6939293E0,2.9883745E0,1.2021504E1,4.756415E1,3.3756084E1,2.6737453E1,1.0918881E0,8.318114E0,1.0382198E0,1.8500116E1],"tree_param":{"num_deleted":"0","num_feature":"16384","num_nodes":"55","size_leaf_vector":"1"}},{"base_weights":[8.485938E-2,-7.301616E-2,5.825351E-1,-2.1333781E-1,3.2302278E-1,6.743584E-1,-6.5466565E-1,-3.2446313E-1,2.7241597E-1,6.0615057E-1,-3.9593884E-1,-1.8709615E-1,8.1895435E-1,-3.843664E-1,1.6069439E-1,-1.05234936E-1,-6.3327456E-1,7.552042E-1,-3.6782947E-1,7.3199236E-1,-7.506275E-1,5.03618E-1,-8.137318E-1,-6.605024E-1,2.1641776E-1,-8.306585E-2,8.7979996E-1,-3.036276E-1,6.106359E-1,3.1061852E-1,-8.0465645E-1,1.0006765E0,-1.9901311E-1,-9.646469E-1,4.6475664E-1,-1.9509642E-1,8.374124E-1,-4.6157238E-1,1.0807579E-1,2.586604E-1,-1.054326E-1,1.442778E-1,-1.1273562E0,-2.999662E-1,1.201486E-1,9.2691237E-1,-1.3367002E-1,-1.2930872E-1,2.5949878E-1,2.5816366E-1,-1.3984175E-1,2.5365436E-1,-2.1920829E-1,1.7055589E-1,-2.787194E-1,4.58175E-2,3.2265264E-1,-2.1902211E-1,1.5700209E-1,-3.8958114E-1,9.2026755E-2,-1.6724217E-1,2.5904885E-1,-3.8244173E-2,2.8671947E-1,-3.6342624E-1,-8.753444E-2,2.939422E-1,-4.6852592E-2],"categories":[],"categories_nodes":[],"categories_segments":[],"categories_sizes":[],"default_left":[0,0,0,0,0,0,0,0,0,0,0,0,0,0,0,0,0,0,0,0,0,0,0,0,0,0,0,0,0,0,0,0,0,0,0,0,0,0,0,0,0,0,0,0,0,0,0,0,0,0,0,0,0,0,0,0,0,0,0,0,0,0,0,0,0,0,0,0,0],"id":8,"left_children":[1,3,5,7,9,11,13,15,17,19,21,23,25,-1,-1,27,29,31,33,35,37,39,41,43,-1,-1,45,47,49,51,53,55,57,59,61,-1,63,-1,-1,-1,-1,-1,65,-1,-1,67,-1,-1,-1,-1,-1,-1,-1,-1,-1,-1,-1,-1,-1,-1,-1,-1,-1,-1,-1,-1,-1,-1,-1],"loss_changes":[1.6518078E1,8.964987E0,6.1910667E0,6.501271E0,8.845915E0,6.0832424E0,3.67257E0,6.5097656E0,7.28263E0,5.795865E0,5.1264014E0,3.769361E0,2.9740543E0,0E0,0E0,8.424112E0,6.741747E0,3.3020763E0,5.6234183E0,4.7160406E0,3.2693377E0,1.7127602E0,4.177013E0,2.4009094E0,0E0,0E0,2.8504333E0,7.2348332E0,3.8778563E0,4.454553E0,6.377983E0,5.1485825E-1,1.7418525E0,3.1121078E0,2.5288947E0,0E0,3.2082386E0,0E0,0E0,0E0,0E0,0E0,1.7372322E-1,0E0,0E0,2.3311958E0,0E0,0E0,0E0,0E0,0E0,0E0,0E0,0E0,0E0,0E0,0E0,0E0,0E0,0E0,0E0,0E0,0E0,0E0,0E0,0E0,0E0,0E0,0E0],"parents":[2147483647,0,0,1,1,2,2,3,3,4,4,5,5,6,6,7,7,8,8,9,9,10,10,11,11,12,12,15,15,16,16,17,17,18,18,19,19,20,20,21,21,22,22,23,23,26,26,27,27,28,28,29,29,30,30,31,31,32,32,33,33,34,34,36,36,42,42,45,45],"right_children":[2,4,6,8,10,12,14,16,18,20,22,24,26,-1,-1,28,30,32,34,36,38,40,42,44,-1,-1,46,48,50,52,54,56,58,60,62,-1,64,-1,-1,-1,-1,-1,66,-1,-1,68,-1,-1,-1,-1,-1,-1,-1,-1,-1,-1,-1,-1,-1,-1,-1,-1,-1,-1,-1,-1,-1,-1,-1],"split_conditions":[1.1545316E-1,1.1100976E-2,1.7446245E-1,2.0570774E-2,3.083329E-1,-1.9235857E-4,4.877164E-2,9.331962E-2,-1.2142165E-3,6.2179647E-2,-4.89913E-4,4.3372273E-2,-1.3427075E-3,-3.843664E-1,1.6069439E-1,6.87179E-2,-2.6061526E-4,9.285376E-2,3.706607E-2,3.3720978E-2,-4.0507316E-6,-5.677699E-4,1.0642941E-1,1.9905436E-1,2.1641776E-1,-8.306585E-2,2.6918295E-1,1.4320928E-1,7.640002E-2,1.546067E-2,-3.4676152E-3,-7.503296E-4,1.9895646E-1,7.658209E-2,-1.6695337E-4,-1.9509642E-1,2.7744442E-2,-4.6157238E-1,1.0807579E-1,2.586604E-1,-1.054326E-1,1.442778E-1,3.7906896E-2,-2.999662E-1,1.201486E-1,8.108844E-2,-1.3367002E-1,-1.2930872E-1,2.5949878E-1,2.5816366E-1,-1.3984175E-1,2.5365436E-1,-2.1920829E-1,1.7055589E-1,-2.787194E-1,4.58175E-2,3.2265264E-1,-2.1902211E-1,1.5700209E-1,-3.8958114E-1,9.2026755E-2,-1.6724217E-1,2.5904885E-1,-3.8244173E-2,2.8671947E-1,-3.6342624E-1,-8.753444E-2,2.939422E-1,-4.6852592E-2],"split_indices":[1536,10087,6471,13290,8044,15664,1599,5742,10413,5305,16326,8147,4296,0,0,4608,13900,14345,3715,4548,8000,16087,9891,787,0,0,5404,16153,14148,8802,10405,3191,3553,3673,7995,0,11376,0,0,0,0,0,2372,0,0,14658,0,0,0,0,0,0,0,0,0,0,0,0,0,0,0,0,0,0,0,0,0,0,0],"split_type":[0,0,0,0,0,0,0,0,0,0,0,0,0,0,0,0,0,0,0,0,0,0,0,0,0,0,0,0,0,0,0,0,0,0,0,0,0,0,0,0,0,0,0,0,0,0,0,0,0,0,0,0,0,0,0,0,0,0,0,0,0,0,0,0,0,0,0,0,0],"sum_hessian":[2.0869035E2,1.5907953E2,4.9610832E1,1.1780207E2,4.1277454E1,4.660668E1,3.0041513E0,9.614022E1,2.1661846E1,2.9727602E1,1.154985E1,6.6563606E0,3.995032E1,1.9181207E0,1.0860306E0,5.7009445E1,3.913078E1,1.2247129E1,9.414716E0,2.762579E1,2.1018121E0,3.5978456E0,7.9520054E0,4.5554943E0,2.1008663E0,1.9147477E0,3.8035572E1,4.5089455E1,1.19199915E1,5.888298E0,3.324248E1,9.702478E0,2.5446506E0,5.3914104E0,4.0233054E0,1.5912864E0,2.6034504E1,1.004392E0,1.0974201E0,2.528941E0,1.0689045E0,1.4466622E0,6.505343E0,3.4951015E0,1.0603929E0,3.702026E1,1.0153117E0,4.1226204E1,3.8632479E0,9.83759E0,2.0824018E0,4.0142894E0,1.8740084E0,2.4649868E0,3.0777494E1,1.0334114E0,8.669067E0,1.4603448E0,1.0843058E0,4.2529116E0,1.1384985E0,1.0172744E0,3.0060313E0,2.8352883E0,2.3199215E1,5.501998E0,1.0033449E0,3.5387398E1,1.6328629E0],"tree_param":{"num_deleted":"0","num_feature":"16384","num_nodes":"69","size_leaf_vector":"1"}},{"base_weights":[7.528691E-2,-1.1136699E-1,4.3901718E-1,-2.6071095E-1,2.0871443E-1,6.206806E-1,-2.4895287E-1,-6.1805815E-1,-1.12982355E-2,-4.9884358E-1,4.6036E-1,-2.756446E-1,7.081667E-1,4.6733496E-1,-5.8674574E-1,-7.9718746E-2,-9.5034873E-1,1.8501459E-1,-6.658725E-1,-9.378592E-1,2.2199796E-1,6.297352E-1,-5.680747E-1,1.7045134E-1,-8.629084E-1,7.6808476E-1,-1.8195456E-1,2.4472584E-1,-1.1979384E-1,1.381289E-1,-8.256159E-1,-6.054346E-1,7.0696706E-1,-1.0731136E0,1.8873805E-1,-5.803627E-1,3.188412E-1,1.7537528E-1,-9.4789386E-1,-1.2140486E0,2.9952874E-2,-2.3668857E-1,7.448861E-1,-2.6258358E-1,8.172769E-2,-3.044426E-1,-7.6623395E-2,-1.956114E-1,8.2108146E-1,-3.102011E-1,5.8248755E-2,1.6830775E-1,-2.6474738E-1,-6.982463E-2,2.9789963E-1,2.8911503E-2,-3.5045475E-1,-2.849265E-1,1.8475899E-1,1.8731967E-1,-4.8707772E-2,-3.1789503E-1,2.99932E-3,-3.3067416E-2,-4.1899562E-1,-1.3484986E-1,2.500382E-1,2.5975764E-1,-1.18393406E-1],"categories":[],"categories_nodes":[],"categories_segments":[],"categories_sizes":[],"default_left":[0,0,0,0,0,0,0,0,0,0,0,0,0,0,0,0,0,0,0,0,0,0,0,0,0,0,0,0,0,0,0,0,0,0,0,0,0,0,0,0,0,0,0,0,0,0,0,0,0,0,0,0,0,0,0,0,0,0,0,0,0,0,0,0,0,0,0,0,0],"id":9,"left_children":[1,3,5,7,9,11,13,15,17,19,21,23,25,27,29,31,33,35,37,39,-1,41,43,-1,45,47,-1,-1,-1,-1,49,51,53,55,-1,57,59,-1,61,63,-1,-1,65,-1,-1,-1,-1,-1,67,-1,-1,-1,-1,-1,-1,-1,-1,-1,-1,-1,-1,-1,-1,-1,-1,-1,-1,-1,-1],"loss_changes":[1.2639191E1,5.950972E0,8.039899E0,7.529056E0,7.3160534E0,4.1316795E0,3.635901E0,6.138323E0,6.6531363E0,6.63371E0,5.562228E0,3.0591145E0,4.090683E0,1.8382565E0,2.852687E0,6.362737E0,4.822344E0,4.2693152E0,4.765361E0,2.5586743E0,0E0,4.855975E0,1.4650799E0,0E0,5.9503317E-2,3.8808708E0,0E0,0E0,0E0,0E0,1.9872737E0,3.4490335E0,1.9001656E0,2.3601284E0,0E0,3.3638968E0,5.1866503E0,0E0,1.0945196E0,1.2152491E0,0E0,0E0,2.9856243E0,0E0,0E0,0E0,0E0,0E0,2.6985455E0,0E0,0E0,0E0,0E0,0E0,0E0,0E0,0E0,0E0,0E0,0E0,0E0,0E0,0E0,0E0,0E0,0E0,0E0,0E0,0E0],"parents":[2147483647,0,0,1,1,2,2,3,3,4,4,5,5,6,6,7,7,8,8,9,9,10,10,11,11,12,12,13,13,14,14,15,15,16,16,17,17,18,18,19,19,21,21,22,22,24,24,25,25,30,30,31,31,32,32,33,33,35,35,36,36,38,38,39,39,42,42,48,48],"right_children":[2,4,6,8,10,12,14,16,18,20,22,24,26,28,30,32,34,36,38,40,-1,42,44,-1,46,48,-1,-1,-1,-1,50,52,54,56,-1,58,60,-1,62,64,-1,-1,66,-1,-1,-1,-1,-1,68,-1,-1,-1,-1,-1,-1,-1,-1,-1,-1,-1,-1,-1,-1,-1,-1,-1,-1,-1,-1],"split_conditions":[3.8658887E-2,6.950754E-2,2.0355403E-1,-5.8193633E-5,1.3888761E-2,4.668845E-2,-1.223343E-3,3.3557132E-2,1.6079918E-1,3.9062228E-2,1.9293441E-1,-1.07528416E-4,1.7988902E-1,-1.8739402E-5,1.565731E-1,-6.7575404E-4,1.15783595E-1,-6.1771803E-4,-2.7698954E-3,-1.19555705E-4,2.2199796E-1,-2.0022737E-4,6.076657E-2,1.7045134E-1,2.5871927E-2,1.0179652E-2,-1.8195456E-1,2.4472584E-1,-1.1979384E-1,1.381289E-1,1.0507305E-1,-9.6210383E-4,1.2234129E-2,-2.930581E-4,1.8873805E-1,2.7270088E-2,1.635005E-2,1.7537528E-1,5.189213E-2,-7.40706E-4,2.9952874E-2,-2.3668857E-1,-1.516253E-4,-2.6258358E-1,8.172769E-2,-3.044426E-1,-7.6623395E-2,-1.956114E-1,1.8267138E-1,-3.102011E-1,5.8248755E-2,1.6830775E-1,-2.6474738E-1,-6.982463E-2,2.9789963E-1,2.8911503E-2,-3.5045475E-1,-2.849265E-1,1.8475899E-1,1.8731967E-1,-4.8707772E-2,-3.1789503E-1,2.99932E-3,-3.3067416E-2,-4.1899562E-1,-1.3484986E-1,2.500382E-1,2.5975764E-1,-1.18393406E-1],"split_indices":[4472,8439,11748,16376,8224,13057,14952,6649,10262,9578,15928,5536,6471,5508,7460,14744,9066,8825,6498,5510,0,10711,4467,0,13947,7544,0,0,0,0,2250,5537,16060,14151,0,9251,12095,0,2692,16331,0,0,4476,0,0,0,0,0,15128,0,0,0,0,0,0,0,0,0,0,0,0,0,0,0,0,0,0,0,0],"split_type":[0,0,0,0,0,0,0,0,0,0,0,0,0,0,0,0,0,0,0,0,0,0,0,0,0,0,0,0,0,0,0,0,0,0,0,0,0,0,0,0,0,0,0,0,0,0,0,0,0,0,0,0,0,0,0,0,0,0,0,0,0,0,0,0,0,0,0,0,0],"sum_hessian":[1.8444688E2,1.2235322E2,6.209366E1,8.3553986E1,3.879923E1,4.9199886E1,1.2893771E1,3.3737858E1,4.9816128E1,9.921206E0,2.8878023E1,4.183884E0,4.5016003E1,4.0090685E0,8.884703E0,1.3349853E1,2.0388006E1,3.8874622E1,1.0941505E1,7.5046725E0,2.416534E0,2.512741E1,3.7506123E0,1.7302576E0,2.4536264E0,4.3451424E1,1.5645803E0,2.9013622E0,1.1077063E0,1.4779652E0,7.406738E0,8.140336E0,5.2095165E0,1.9215101E1,1.1729052E0,5.2890368E0,3.3585587E1,1.816127E0,9.125378E0,5.7929196E0,1.7117531E0,1.4471022E0,2.368031E1,2.7163904E0,1.0342219E0,1.4264725E0,1.0271538E0,1.1565536E0,4.229487E1,6.1384254E0,1.2683125E0,1.3656679E0,6.774668E0,1.2591252E0,3.950391E0,1.4435576E0,1.7771544E1,4.198568E0,1.090469E0,2.0359753E1,1.3225836E1,8.076831E0,1.0485471E0,1.0499114E0,4.743008E0,1.3535478E0,2.2326761E1,4.1069977E1,1.2248927E0],"tree_param":{"num_deleted":"0","num_feature":"16384","num_nodes":"69","size_leaf_vector":"1"}},{"base_weights":[5.718771E-2,-4.4772387E-2,6.452474E-1,-1.5627164E-1,3.6350313E-1,-2.427922E-1,7.6160735E-1,-2.0841078E-1,6.795601E-1,5.167173E-1,-3.5895866E-1,9.3054557E-1,-4.799171E-3,4.985048E-3,-4.552751E-1,-5.772931E-2,2.60246E-1,-5.139185E-1,6.339939E-1,1.742484E-1,-6.966745E-1,4.879603E-2,2.9219085E-1,-5.3629595E-1,1.9796354E-1,-4.130287E-1,3.3209494E-1,-6.816298E-1,2.7128264E-2,2.8929561E-2,-2.5705847E-1,-1.4513746E-1,7.23617E-1,-2.7826932E-1,1.9882662E-2,-2.353592E-1,5.416965E-3,-1.8403175E-1,1.3568284E-1,1.9163117E-1,-6.6627145E-2,-2.3830938E-1,1.379634E-1,-1.21494465E-1,1.9482248E-1,-1.310836E-1,2.441429E-1],"categories":[],"categories_nodes":[],"categories_segments":[],"categories_sizes":[],"default_left":[0,0,0,0,0,0,0,0,0,0,0,0,0,0,0,0,0,0,0,0,0,0,0,0,0,0,0,0,0,0,0,0,0,0,0,0,0,0,0,0,0,0,0,0,0,0,0],"id":10,"left_children":[1,3,5,7,9,-1,11,13,15,17,19,21,23,25,27,-1,-1,29,31,-1,33,-1,-1,35,-1,37,39,41,43,-1,-1,-1,45,-1,-1,-1,-1,-1,-1,-1,-1,-1,-1,-1,-1,-1,-1],"loss_changes":[9.829505E0,6.4407988E0,4.715292E0,4.972624E0,3.5487099E0,0E0,2.9745245E0,5.53949E0,1.2720361E0,3.4052858E0,2.2791755E0,4.6850204E-1,2.1690304E0,7.9812183E0,5.3411207E0,0E0,0E0,7.430657E-1,2.6865015E0,0E0,9.069505E-1,0E0,0E0,4.8296255E-1,0E0,4.722017E0,5.7056384E0,4.6397257E0,4.7075877E0,0E0,0E0,0E0,2.6575737E0,0E0,0E0,0E0,0E0,0E0,0E0,0E0,0E0,0E0,0E0,0E0,0E0,0E0,0E0],"parents":[2147483647,0,0,1,1,2,2,3,3,4,4,6,6,7,7,8,8,9,9,10,10,11,11,12,12,13,13,14,14,17,17,18,18,20,20,23,23,25,25,26,26,27,27,28,28,32,32],"right_children":[2,4,6,8,10,-1,12,14,16,18,20,22,24,26,28,-1,-1,30,32,-1,34,-1,-1,36,-1,38,40,42,44,-1,-1,-1,46,-1,-1,-1,-1,-1,-1,-1,-1,-1,-1,-1,-1,-1,-1],"split_conditions":[2.351033E-1,6.22482E-2,-7.831504E-4,3.7907958E-2,1.1168042E-1,-2.427922E-1,1.3827597E-1,1.2679589E-2,1.8704478E-3,-9.7257005E-5,5.081905E-2,4.431253E-2,4.7314346E-2,-1.4546422E-4,2.5254097E-2,-5.772931E-2,2.60246E-1,3.4554273E-2,-1.7815509E-3,1.742484E-1,1.9217776E-3,4.879603E-2,2.9219085E-1,1.04248784E-1,1.9796354E-1,1.22070566E-1,1.0011282E-1,2.1032728E-1,-1.6851853E-5,2.8929561E-2,-2.5705847E-1,-1.4513746E-1,-3.6873686E-4,-2.7826932E-1,1.9882662E-2,-2.353592E-1,5.416965E-3,-1.8403175E-1,1.3568284E-1,1.9163117E-1,-6.6627145E-2,-2.3830938E-1,1.379634E-1,-1.21494465E-1,1.9482248E-1,-1.310836E-1,2.441429E-1],"split_indices":[591,4476,13921,14777,11518,0,10285,5681,2023,1974,9437,699,14115,7545,2691,0,0,5550,9580,0,15648,0,0,5814,0,8773,13213,15872,14939,0,0,0,6906,0,0,0,0,0,0,0,0,0,0,0,0,0,0],"split_type":[0,0,0,0,0,0,0,0,0,0,0,0,0,0,0,0,0,0,0,0,0,0,0,0,0,0,0,0,0,0,0,0,0,0,0,0,0,0,0,0,0,0,0,0,0,0,0],"sum_hessian":[1.6245631E2,1.3923848E2,2.3217848E1,1.0985463E2,2.9383844E1,1.2786695E0,2.1939178E1,1.0411085E2,5.7437773E0,2.4477604E1,4.90624E0,1.7801126E1,4.138052E0,5.6366238E1,4.7744614E1,1.0141388E0,4.729638E0,2.1552243E0,2.232238E1,1.1066928E0,3.7995472E0,1.2067698E0,1.6594357E1,2.406716E0,1.7313358E0,2.4629517E1,3.173672E1,3.221542E1,1.5529196E1,1.0339212E0,1.1213032E0,1.3304794E0,2.09919E1,2.751198E0,1.0483491E0,1.3755401E0,1.031176E0,2.0234207E1,4.395309E0,2.0332483E1,1.1404236E1,2.9596582E1,2.6188364E0,9.371114E0,6.1580825E0,1.2365032E0,1.9755398E1],"tree_param":{"num_deleted":"0","num_feature":"16384","num_nodes":"47","size_leaf_vector":"1"}},{"base_weights":[5.051634E-2,-9.046561E-2,4.046059E-1,-2.6100653E-1,2.367271E-1,-3.2022622E-1,5.304643E-1,-3.616E-1,4.1240355E-1,-4.063872E-1,4.0834978E-1,2.6341748E-1,-2.7565643E-1,-2.5921187E-1,6.401785E-1,4.8490736E-1,-4.3808484E-1,6.873843E-1,-1.5695125E-1,4.4779468E-1,-8.002073E-1,-1.8746981E-1,5.091561E-1,2.0795512E-1,-1.2150355E-1,-3.7343946E-1,2.1158254E-1,-1.04503185E-1,7.489202E-1,8.1860983E-1,-8.622463E-2,-1.6149232E-1,-7.831015E-1,-5.525664E-2,2.6120192E-1,1.9696456E-1,-2.1142077E-3,-3.0527022E-1,2.1967083E-2,6.8194777E-1,-1.823365E-1,1.6694084E-1,-2.0886225E-1,8.398019E-1,-8.922889E-2,2.788026E-1,7.339864E-2,-1.17514044E-1,1.2979887E-1,-2.6632494E-1,8.2579166E-2,-9.9163E-2,2.3598492E-1,-2.0315735E-1,1.401511E-1,-3.7030596E-2,2.7026322E-1,-1.7130491E-1,1.6325895E-1],"categories":[],"categories_nodes":[],"categories_segments":[],"categories_sizes":[],"default_left":[0,0,0,0,0,0,0,0,0,0,0,0,0,0,0,0,0,0,0,0,0,0,0,0,0,0,0,0,0,0,0,0,0,0,0,0,0,0,0,0,0,0,0,0,0,0,0,0,0,0,0,0,0,0,0,0,0,0,0],"id":11,"left_children":[1,3,5,7,9,11,13,15,17,19,21,23,-1,25,27,29,31,33,-1,35,37,-1,39,-1,-1,-1,-1,41,43,45,-1,47,49,-1,-1,-1,-1,-1,-1,51,53,-1,-1,55,57,-1,-1,-1,-1,-1,-1,-1,-1,-1,-1,-1,-1,-1,-1],"loss_changes":[7.4755545E0,6.05459E0,4.05778E0,4.9638305E0,4.2853804E0,2.6628988E0,3.3446703E0,4.250642E0,2.8562543E0,3.1716523E0,3.4387083E0,1.5118508E0,0E0,5.809031E0,2.7102108E0,1.6896505E0,5.382456E0,1.4275482E0,0E0,3.160895E-1,1.2293427E0,0E0,3.4516864E0,0E0,0E0,0E0,0E0,2.350311E0,2.244565E0,3.957677E-2,0E0,4.7246265E0,3.0605555E0,0E0,0E0,0E0,0E0,0E0,0E0,2.64353E0,2.3593972E0,0E0,0E0,1.6285973E0,1.4369364E0,0E0,0E0,0E0,0E0,0E0,0E0,0E0,0E0,0E0,0E0,0E0,0E0,0E0,0E0],"parents":[2147483647,0,0,1,1,2,2,3,3,4,4,5,5,6,6,7,7,8,8,9,9,10,10,11,11,13,13,14,14,15,15,16,16,17,17,19,19,20,20,22,22,27,27,28,28,29,29,31,31,32,32,39,39,40,40,43,43,44,44],"right_children":[2,4,6,8,10,12,14,16,18,20,22,24,-1,26,28,30,32,34,-1,36,38,-1,40,-1,-1,-1,-1,42,44,46,-1,48,50,-1,-1,-1,-1,-1,-1,52,54,-1,-1,56,58,-1,-1,-1,-1,-1,-1,-1,-1,-1,-1,-1,-1,-1,-1],"split_conditions":[2.5736967E-2,-3.0276085E-5,4.4416513E-2,5.2630357E-2,2.461707E-2,1.0088508E-1,-6.9626403E-4,-1.8878501E-3,1.91589E-1,1.1104566E-2,-9.383647E-5,1.3318275E-1,-2.7565643E-1,2.247565E-1,5.1505484E-2,-2.6517733E-5,4.198816E-2,-3.5468535E-4,-1.5695125E-1,3.1099468E-4,-6.631054E-4,-1.8746981E-1,1.3181615E-1,2.0795512E-1,-1.2150355E-1,-3.7343946E-1,2.1158254E-1,-5.832528E-4,4.5072183E-1,3.1638816E-1,-8.622463E-2,-1.2967696E-4,6.819081E-2,-5.525664E-2,2.6120192E-1,1.9696456E-1,-2.1142077E-3,-3.0527022E-1,2.1967083E-2,5.05339E-2,2.0884803E-2,1.6694084E-1,-2.0886225E-1,-2.7605038E-4,7.14233E-2,2.788026E-1,7.339864E-2,-1.17514044E-1,1.2979887E-1,-2.6632494E-1,8.2579166E-2,-9.9163E-2,2.3598492E-1,-2.0315735E-1,1.401511E-1,-3.7030596E-2,2.7026322E-1,-1.7130491E-1,1.6325895E-1],"split_indices":[4726,13284,10815,3584,8248,14805,11514,3442,11733,727,13200,9898,0,8107,13188,4995,8425,13806,0,13281,4761,0,8959,0,0,0,0,6214,4514,9146,0,8382,4659,0,0,0,0,0,0,5364,10697,0,0,14150,6305,0,0,0,0,0,0,0,0,0,0,0,0,0,0],"split_type":[0,0,0,0,0,0,0,0,0,0,0,0,0,0,0,0,0,0,0,0,0,0,0,0,0,0,0,0,0,0,0,0,0,0,0,0,0,0,0,0,0,0,0,0,0,0,0,0,0,0,0,0,0,0,0,0,0,0,0],"sum_hessian":[1.4801674E2,1.06398384E2,4.1618366E1,7.0075554E1,3.6322823E1,5.928893E0,3.5689472E1,6.1371033E1,8.704527E0,7.363181E0,2.8959642E1,3.2855508E0,2.643342E0,4.1874423E0,3.150203E1,4.643084E0,5.6727947E1,6.9322925E0,1.7722343E0,2.28028E0,5.082901E0,2.1120846E0,2.6847557E1,1.9772471E0,1.3083038E0,1.9273235E0,2.2601187E0,4.018899E0,2.7483131E1,3.2003543E0,1.4427298E0,3.2300995E1,2.4426952E1,1.2036754E0,5.728617E0,1.2589904E0,1.0212897E0,3.9379008E0,1.1450005E0,2.1491114E1,5.356444E0,1.926462E0,2.092437E0,2.4792835E1,2.690296E0,2.1636999E0,1.0366546E0,2.352596E1,8.775034E0,2.2375711E1,2.051241E0,1.8113531E0,1.967976E1,3.0159721E0,2.3404715E0,1.417414E0,2.3375422E1,1.584012E0,1.1062838E0],"tree_param":{"num_deleted":"0","num_feature":"16384","num_nodes":"59","size_leaf_vector":"1"}},{"base_weights":[4.3264676E-2,-2.1983122E-2,6.7103726E-1,-7.497568E-2,5.692979E-1,-1.7063549E-1,8.40088E-1,-8.8603055E-1,-2.7552266E-2,-2.906869E-1,2.6440322E-1,-7.783789E-3,2.8095198E-1,-1.27066E0,4.9723357E-2,-4.2758092E-1,5.715524E-2,-2.1111117E-1,1.02061436E-1,-1.1466661E-1,-4.2350313E-1,-7.064739E-1,3.8169715E-1,-4.378558E-1,1.5262888E-1,6.388248E-2,-2.617514E-1,-1.2927884E-1,2.2507887E-1,-2.098904E-1,8.449655E-2,-9.542161E-2,7.9863355E-2],"categories":[],"categories_nodes":[],"categories_segments":[],"categories_sizes":[],"default_left":[0,0,0,0,0,0,0,0,0,0,0,0,0,0,0,0,0,0,0,0,0,0,0,0,0,0,0,0,0,0,0,0,0],"id":12,"left_children":[1,3,5,7,9,-1,11,13,15,17,-1,-1,-1,19,-1,21,23,-1,-1,-1,-1,25,27,29,31,-1,-1,-1,-1,-1,-1,-1,-1],"loss_changes":[5.5240045E0,3.8906167E0,3.1386008E0,4.3445377E0,2.9980714E0,0E0,9.908638E-1,2.7360392E0,3.6957808E0,1.1441739E0,0E0,0E0,0E0,4.756546E-2,0E0,4.569575E0,4.3341913E0,0E0,0E0,0E0,0E0,2.4021835E0,1.9801749E0,2.9955833E0,4.1712236E0,0E0,0E0,0E0,0E0,0E0,0E0,0E0,0E0],"parents":[2147483647,0,0,1,1,2,2,3,3,4,4,6,6,7,7,8,8,9,9,13,13,15,15,16,16,21,21,22,22,23,23,24,24],"right_children":[2,4,6,8,10,-1,12,14,16,18,-1,-1,-1,20,-1,22,24,-1,-1,-1,-1,26,28,30,32,-1,-1,-1,-1,-1,-1,-1,-1],"split_conditions":[2.212047E-1,5.347853E-2,1.0288747E-1,-2.4790622E-4,-5.7643664E-4,-1.7063549E-1,8.455643E-2,7.3602423E-3,-3.446633E-4,9.137639E-2,2.6440322E-1,-7.783789E-3,2.8095198E-1,-8.5087586E-4,4.9723357E-2,2.0939319E-1,9.280009E-3,-2.1111117E-1,1.02061436E-1,-1.1466661E-1,-4.2350313E-1,-1.4793617E-3,7.8487575E-2,3.213076E-2,4.5146443E-2,6.388248E-2,-2.617514E-1,-1.2927884E-1,2.2507887E-1,-2.098904E-1,8.449655E-2,-9.542161E-2,7.9863355E-2],"split_indices":[12963,3067,15395,1962,5263,0,3559,5534,7504,13196,0,0,0,4349,0,3922,7613,0,0,0,0,6913,3732,3586,791,0,0,0,0,0,0,0,0],"split_type":[0,0,0,0,0,0,0,0,0,0,0,0,0,0,0,0,0,0,0,0,0,0,0,0,0,0,0,0,0,0,0,0,0],"sum_hessian":[1.3350072E2,1.2180576E2,1.1694949E1,1.1258842E2,9.217347E0,1.1195514E0,1.05753975E1,5.2426715E0,1.0734574E2,2.4722872E0,6.74506E0,1.132666E0,9.442732E0,3.6864445E0,1.556227E0,1.8051298E1,8.929445E1,1.4243901E0,1.047897E0,1.013245E0,2.6731997E0,1.3519312E1,4.5319858E0,1.385791E1,7.543654E1,2.0247073E0,1.1494605E1,1.3613117E0,3.170674E0,1.0181289E1,3.6766214E0,1.4314575E1,6.112196E1],"tree_param":{"num_deleted":"0","num_feature":"16384","num_nodes":"33","size_leaf_vector":"1"}},{"base_weights":[3.0608445E-2,-1.3690271E-2,2.5076273E-1,-6.394477E-2,5.6566155E-1,1.0884947E-1,-2.859617E-1,7.5129163E-1,-8.416417E-2,3.1017682E-1,-1.3988024E-1,-4.66312E-1,1.2374119E-1,-3.717337E-2,2.6941743E-1,-6.648898E-1,4.044322E-1,4.2655334E-1,-3.5382655E-1,-7.010619E-1,5.90933E-2,3.9506987E-1,-4.0887251E-1,3.7459421E-3,-2.9027507E-1,-1.7219509E-1,1.519363E-1,-9.29671E-2,2.2136465E-1,6.460303E-2,-1.8968719E-1,-2.4256544E-1,9.140278E-2,-1.4801934E-1,1.4491402E-1,-1.0469992E-1,1.6772966E-1,1.2882292E-1,-2.0966475E-1],"categories":[],"categories_nodes":[],"categories_segments":[],"categories_sizes":[],"default_left":[0,0,0,0,0,0,0,0,0,0,0,0,0,0,0,0,0,0,0,0,0,0,0,0,0,0,0,0,0,0,0,0,0,0,0,0,0,0,0],"id":13,"left_children":[1,3,-1,5,7,9,11,13,-1,15,17,19,21,-1,-1,23,25,27,29,31,33,35,37,-1,-1,-1,-1,-1,-1,-1,-1,-1,-1,-1,-1,-1,-1,-1,-1],"loss_changes":[4.512E0,3.5465488E0,0E0,4.321824E0,1.7384355E0,3.2291434E0,3.6949883E0,1.170682E0,0E0,3.5288064E0,3.683271E0,4.2829895E0,2.45007E0,0E0,0E0,7.3068476E-1,3.581315E0,2.1647916E0,3.5760224E0,2.8243723E0,2.9419098E0,1.5376734E0,1.7189178E0,0E0,0E0,0E0,0E0,0E0,0E0,0E0,0E0,0E0,0E0,0E0,0E0,0E0,0E0,0E0,0E0],"parents":[2147483647,0,0,1,1,3,3,4,4,5,5,6,6,7,7,9,9,10,10,11,11,12,12,15,15,16,16,17,17,18,18,19,19,20,20,21,21,22,22],"right_children":[2,4,-1,6,8,10,12,14,-1,16,18,20,22,-1,-1,24,26,28,30,32,34,36,38,-1,-1,-1,-1,-1,-1,-1,-1,-1,-1,-1,-1,-1,-1,-1,-1],"split_conditions":[1.9521376E-1,9.631423E-2,2.5076273E-1,1.9312838E-1,1.3455006E-1,8.8518046E-2,2.1522395E-1,1.8443499E-2,-8.416417E-2,3.5792638E-2,5.5349626E-2,1.1446079E-1,9.576082E-2,-3.717337E-2,2.6941743E-1,-2.0938794E-4,3.1821217E-2,4.923247E-2,5.9174486E-2,1.1047608E-1,7.000924E-3,-2.6389966E-3,-1.1949057E-3,3.7459421E-3,-2.9027507E-1,-1.7219509E-1,1.519363E-1,-9.29671E-2,2.2136465E-1,6.460303E-2,-1.8968719E-1,-2.4256544E-1,9.140278E-2,-1.4801934E-1,1.4491402E-1,-1.0469992E-1,1.6772966E-1,1.2882292E-1,-2.0966475E-1],"split_indices":[5470,4700,0,3556,5541,9196,15920,14591,0,5352,3006,7373,9422,0,0,14163,14590,14577,789,5683,8191,1328,1080,0,0,0,0,0,0,0,0,0,0,0,0,0,0,0,0],"split_type":[0,0,0,0,0,0,0,0,0,0,0,0,0,0,0,0,0,0,0,0,0,0,0,0,0,0,0,0,0,0,0,0,0,0,0,0,0,0,0],"sum_hessian":[1.2516387E2,1.1956923E2,5.5946474E0,1.10843956E2,8.725269E0,6.2618294E1,4.8225666E1,7.247563E0,1.4777064E0,3.4470257E1,2.8148037E1,3.3389507E1,1.4836159E1,1.0631965E0,6.184366E0,2.5047393E0,3.1965517E1,7.44453E0,2.0703506E1,2.2847134E1,1.0542374E1,1.0000076E1,4.8360825E0,1.069695E0,1.4350444E0,2.5815706E0,2.9383947E1,2.2133956E0,5.2311344E0,6.8759665E0,1.3827539E1,2.081822E1,2.028913E0,4.506176E0,6.036197E0,1.602614E0,8.397462E0,1.1194901E0,3.7165923E0],"tree_param":{"num_deleted":"0","num_feature":"16384","num_nodes":"39","size_leaf_vector":"1"}},{"base_weights":[2.4894254E-2,-5.2310925E-2,4.3990922E-1,4.8541952E-2,-3.6707965E-1,-3.9679584E-1,6.145877E-1,-8.216166E-2,3.7642932E-1,-6.219278E-1,1.24800414E-1,-1.9768736E-1,4.9572658E-2,-1.2322991E-1,7.726418E-1,-4.183783E-1,1.7368813E-1,5.4093383E-2,8.361799E-1,2.2984973E-1,-7.699646E-1,6.867028E-1,-3.875153E-1,-9.1649175E-2,8.820175E-1,-6.047417E-1,3.6326444E-1,-5.7017374E-1,3.0614868E-1,4.2435524E-1,-4.2538127E-1,3.156035E-2,2.755259E-1,-6.787152E-2,1.7164417E-1,-8.885035E-1,6.036417E-2,2.4260353E-1,3.5718102E-2,9.869212E-2,-2.3682894E-1,3.0762741E-2,2.8190944E-1,-2.4305885E-1,1.1902873E-1,2.2329415E-1,-1.5658855E-1,-2.6841536E-1,8.3754525E-2,1.7788775E-1,-2.151687E-2,-1.3717212E-1,1.9542114E-1,-2.0580418E-1,1.0938119E-1,-2.903015E-1,-6.2338267E-3],"categories":[],"categories_nodes":[],"categories_segments":[],"categories_sizes":[],"default_left":[0,0,0,0,0,0,0,0,0,0,0,0,0,0,0,0,0,0,0,0,0,0,0,0,0,0,0,0,0,0,0,0,0,0,0,0,0,0,0,0,0,0,0,0,0,0,0,0,0,0,0,0,0,0,0,0,0],"id":14,"left_children":[1,3,5,7,9,11,13,15,17,19,21,-1,-1,-1,23,25,27,29,31,33,35,37,39,-1,41,43,45,47,49,51,53,-1,-1,-1,-1,55,-1,-1,-1,-1,-1,-1,-1,-1,-1,-1,-1,-1,-1,-1,-1,-1,-1,-1,-1,-1,-1],"loss_changes":[3.7619715E0,3.16957E0,2.934495E0,3.2911665E0,3.1122293E0,6.6691554E-1,2.8491435E0,4.822142E0,3.1944625E0,2.2087865E0,2.8842406E0,0E0,0E0,0E0,1.9065561E0,3.7379751E0,3.3335483E0,2.6517947E0,4.4086695E-1,6.221381E-1,1.7855988E0,2.2901702E-1,1.8137372E0,0E0,4.8190117E-1,4.4116035E0,2.1677222E0,1.6819329E0,3.0624669E0,1.9702857E0,1.6018257E0,0E0,0E0,0E0,0E0,8.471012E-1,0E0,0E0,0E0,0E0,0E0,0E0,0E0,0E0,0E0,0E0,0E0,0E0,0E0,0E0,0E0,0E0,0E0,0E0,0E0,0E0,0E0],"parents":[2147483647,0,0,1,1,2,2,3,3,4,4,5,5,6,6,7,7,8,8,9,9,10,10,14,14,15,15,16,16,17,17,18,18,19,19,20,20,21,21,22,22,24,24,25,25,26,26,27,27,28,28,29,29,30,30,35,35],"right_children":[2,4,6,8,10,12,14,16,18,20,22,-1,-1,-1,24,26,28,30,32,34,36,38,40,-1,42,44,46,48,50,52,54,-1,-1,-1,-1,56,-1,-1,-1,-1,-1,-1,-1,-1,-1,-1,-1,-1,-1,-1,-1,-1,-1,-1,-1,-1,-1],"split_conditions":[1.4970219E-1,1.480711E-1,-7.1559567E-4,1.6855814E-1,1.14886016E-1,3.0737245E-1,-4.2672723E-4,-4.5596456E-4,3.1145675E-2,-5.831499E-4,-2.383469E-4,-1.9768736E-1,4.9572658E-2,-1.2322991E-1,-1.4195902E-3,7.461084E-2,-4.2182996E-4,1.0989605E-1,4.786268E-2,-5.6172075E-4,1.9364965E-1,-8.707382E-4,-1.9882086E-3,-9.1649175E-2,-1.2428829E-3,1.7410396E-1,1.08631685E-1,1.1471005E-2,1.5428007E-2,-1.1553767E-3,1.4353369E-1,3.156035E-2,2.755259E-1,-6.787152E-2,1.7164417E-1,4.222951E-2,6.036417E-2,2.4260353E-1,3.5718102E-2,9.869212E-2,-2.3682894E-1,3.0762741E-2,2.8190944E-1,-2.4305885E-1,1.1902873E-1,2.2329415E-1,-1.5658855E-1,-2.6841536E-1,8.3754525E-2,1.7788775E-1,-2.151687E-2,-1.3717212E-1,1.9542114E-1,-2.0580418E-1,1.0938119E-1,-2.903015E-1,-6.2338267E-3],"split_indices":[11335,10533,15668,14835,14357,9130,13074,13819,1464,6816,13311,0,0,0,7836,3594,1995,3945,11460,401,1933,12901,5094,0,8099,5363,2986,10933,2540,6244,13066,0,0,0,0,1469,0,0,0,0,0,0,0,0,0,0,0,0,0,0,0,0,0,0,0,0,0],"split_type":[0,0,0,0,0,0,0,0,0,0,0,0,0,0,0,0,0,0,0,0,0,0,0,0,0,0,0,0,0,0,0,0,0,0,0,0,0,0,0,0,0,0,0,0,0,0,0,0,0,0,0,0,0,0,0,0,0],"sum_hessian":[1.1569185E2,9.828235E1,1.7409498E1,7.507415E1,2.3208204E1,2.7872198E0,1.4622279E1,5.4212994E1,2.086115E1,1.5113404E1,8.0948E0,1.7830669E0,1.004153E0,1.7393812E0,1.2882898E1,2.3152563E1,3.1060432E1,1.2920271E1,7.94088E0,2.155927E0,1.2957478E1,3.6982307E0,4.3965693E0,1.0214226E0,1.1861475E1,1.887791E1,4.2746525E0,4.1954527E0,2.686498E1,7.355294E0,5.564977E0,1.033544E0,6.9073358E0,1.069693E0,1.0862341E0,1.1623837E1,1.3336399E0,2.6945882E0,1.0036424E0,1.6451894E0,2.7513797E0,1.008654E0,1.0852821E1,1.5822925E1,3.0549858E0,3.0995991E0,1.1750531E0,2.9969075E0,1.1985452E0,1.494914E1,1.1915841E1,1.2987188E0,6.0565753E0,4.283404E0,1.281573E0,1.0546433E1,1.0774041E0],"tree_param":{"num_deleted":"0","num_feature":"16384","num_nodes":"57","size_leaf_vector":"1"}},{"base_weights":[2.3033848E-2,-2.7137822E-2,6.548402E-1,-8.4994406E-2,4.9934146E-1,-5.027751E-2,2.516584E-1,-1.3250001E-2,-5.578765E-1,-1.24565646E-1,6.674477E-1,-1.0926035E-1,3.2403404E-1,-7.538062E-1,9.69933E-2,-3.1999413E-2,7.8668845E-1,-7.2189564E-1,-3.0163383E-2,-1.917652E-1,4.6636164E-1,2.0194426E-2,-8.886531E-1,-1.4520365E-1,1.5331694E-1,3.6324438E-2,2.620314E-1,6.7807555E-2,-2.7537158E-1,-1.8953788E-1,1.3439696E-2,-1.22397326E-1,1.8299678E-1,-6.9073156E-2,-2.8583822E-1],"categories":[],"categories_nodes":[],"categories_segments":[],"categories_sizes":[],"default_left":[0,0,0,0,0,0,0,0,0,0,0,0,0,0,0,0,0,0,0,0,0,0,0,0,0,0,0,0,0,0,0,0,0,0,0],"id":15,"left_children":[1,3,5,7,9,-1,-1,11,13,-1,15,17,19,21,23,-1,25,27,29,-1,31,-1,33,-1,-1,-1,-1,-1,-1,-1,-1,-1,-1,-1,-1],"loss_changes":[3.3532076E0,3.0410151E0,1.3181727E0,3.0307262E0,1.7980351E0,0E0,0E0,2.586435E0,1.5835814E0,0E0,8.9066076E-1,2.9859686E0,2.7258039E0,1.0757456E0,1.1126975E0,0E0,3.384328E-1,1.51808E0,2.5545914E0,0E0,2.25897E0,0E0,1.1641884E-1,0E0,0E0,0E0,0E0,0E0,0E0,0E0,0E0,0E0,0E0,0E0,0E0],"parents":[2147483647,0,0,1,1,2,2,3,3,4,4,7,7,8,8,10,10,11,11,12,12,13,13,14,14,16,16,17,17,18,18,20,20,22,22],"right_children":[2,4,6,8,10,-1,-1,12,14,-1,16,18,20,22,24,-1,26,28,30,-1,32,-1,34,-1,-1,-1,-1,-1,-1,-1,-1,-1,-1,-1,-1],"split_conditions":[4.0734652E-2,1.0238017E-1,8.088105E-3,1.7742214E-1,-1.8328676E-4,-5.027751E-2,2.516584E-1,4.195664E-3,2.8292166E-2,-1.24565646E-1,-7.0764414E-5,-9.621146E-5,-1.0922226E-3,-8.707889E-4,-1.3843551E-6,-3.1999413E-2,-6.6955225E-4,-6.4404844E-4,-1.2864855E-3,-1.917652E-1,3.3260915E-2,2.0194426E-2,-5.453061E-6,-1.4520365E-1,1.5331694E-1,3.6324438E-2,2.620314E-1,6.7807555E-2,-2.7537158E-1,-1.8953788E-1,1.3439696E-2,-1.22397326E-1,1.8299678E-1,-6.9073156E-2,-2.8583822E-1],"split_indices":[14779,8387,5639,8918,12544,0,0,13264,6887,0,4476,4475,11002,7240,4628,0,4707,175,7836,0,699,0,2015,0,0,0,0,0,0,0,0,0,0,0,0],"split_type":[0,0,0,0,0,0,0,0,0,0,0,0,0,0,0,0,0,0,0,0,0,0,0,0,0,0,0,0,0,0,0,0,0,0,0],"sum_hessian":[1.0422288E2,9.744206E1,6.7808166E0,8.8549614E1,8.892454E0,1.2561371E0,5.524679E0,7.777744E1,1.0772164E1,1.1524918E0,7.739962E0,6.10696E1,1.6707846E1,8.175169E0,2.5969954E0,1.0471727E0,6.692789E0,6.053818E0,5.501578E1,1.7014596E0,1.5006387E1,1.2238158E0,6.951353E0,1.0103536E0,1.5866417E0,1.0479437E0,5.6448455E0,1.0110674E0,5.042751E0,5.2724295E0,4.9743355E1,1.8575674E0,1.3148819E1,1.0244979E0,5.926855E0],"tree_param":{"num_deleted":"0","num_feature":"16384","num_nodes":"35","size_leaf_vector":"1"}},{"base_weights":[1.3060894E-2,-5.058228E-2,4.7505775E-1,4.2747468E-2,-4.550186E-1,-9.091952E-2,7.3347497E-1,-1.2036441E-1,2.8842133E-1,-6.2565154E-1,4.7561806E-1,9.340581E-2,-1.3784218E-1,-1.0848909E-2,2.6383483E-1,2.9222178E-1,-2.7021757E-1,-2.7710396E-1,4.6933904E-1,1.5819748E-1,-7.9550916E-1,4.4804618E-2,1.6751312E-1,5.8593994E-1,-2.2051924E-1,2.1647184E-1,-5.3863484E-1,-6.231153E-1,2.8824484E-1,6.1799973E-1,-3.302896E-1,5.913838E-2,-9.106045E-1,2.2511724E-1,-4.5363594E-2,1.3617904E-1,-1.66006E-1,1.5503564E-1,-1.4360224E-1,9.7052574E-2,-2.0199102E-1,-2.3941663E-1,1.1802912E-2,-6.262551E-2,1.7772281E-1,2.152456E-1,-5.2536577E-2,-1.9958769E-1,9.771289E-2,-3.095599E-1,4.3143205E-2],"categories":[],"categories_nodes":[],"categories_segments":[],"categories_sizes":[],"default_left":[0,0,0,0,0,0,0,0,0,0,0,0,0,0,0,0,0,0,0,0,0,0,0,0,0,0,0,0,0,0,0,0,0,0,0,0,0,0,0,0,0,0,0,0,0,0,0,0,0,0,0],"id":16,"left_children":[1,3,5,7,9,11,13,15,17,19,21,-1,-1,-1,-1,23,25,27,29,-1,31,-1,-1,33,35,37,39,41,43,45,47,-1,49,-1,-1,-1,-1,-1,-1,-1,-1,-1,-1,-1,-1,-1,-1,-1,-1,-1,-1],"loss_changes":[2.937582E0,3.3409672E0,1.8355143E0,2.9364188E0,2.931224E0,8.3701396E-1,9.7700167E-1,2.8132045E0,3.1163647E0,3.2488523E0,1.333952E-3,0E0,0E0,0E0,0E0,1.9760634E0,4.42244E0,1.6864698E0,2.8769503E0,0E0,1.6636686E0,0E0,0E0,1.0917904E0,1.416884E0,2.8422434E0,2.7176251E0,6.2183595E-1,6.691315E-1,1.6491413E0,1.13454E0,0E0,1.659565E0,0E0,0E0,0E0,0E0,0E0,0E0,0E0,0E0,0E0,0E0,0E0,0E0,0E0,0E0,0E0,0E0,0E0,0E0],"parents":[2147483647,0,0,1,1,2,2,3,3,4,4,5,5,6,6,7,7,8,8,9,9,10,10,15,15,16,16,17,17,18,18,20,20,23,23,24,24,25,25,26,26,27,27,28,28,29,29,30,30,32,32],"right_children":[2,4,6,8,10,12,14,16,18,20,22,-1,-1,-1,-1,24,26,28,30,-1,32,-1,-1,34,36,38,40,42,44,46,48,-1,50,-1,-1,-1,-1,-1,-1,-1,-1,-1,-1,-1,-1,-1,-1,-1,-1,-1,-1],"split_conditions":[1.2980695E-1,5.4357644E-2,1.0993579E-2,3.0135764E-2,3.0641852E-2,-2.9232446E-4,3.1527504E-2,-4.07329E-4,-4.5641276E-4,-7.351396E-4,3.8299315E-2,9.340581E-2,-1.3784218E-1,-1.0848909E-2,2.6383483E-1,7.056866E-2,6.1418127E-2,-3.7266023E-4,6.43918E-2,1.5819748E-1,7.924171E-3,4.4804618E-2,1.6751312E-1,-4.2369016E-4,-1.423951E-3,8.072272E-2,1.12919845E-2,1.8364224E-1,-4.2042127E-5,-8.1045124E-5,2.120372E-2,5.913838E-2,9.9566154E-2,2.2511724E-1,-4.5363594E-2,1.3617904E-1,-1.66006E-1,1.5503564E-1,-1.4360224E-1,9.7052574E-2,-2.0199102E-1,-2.3941663E-1,1.1802912E-2,-6.262551E-2,1.7772281E-1,2.152456E-1,-5.2536577E-2,-1.9958769E-1,9.771289E-2,-3.095599E-1,4.3143205E-2],"split_indices":[14878,15005,10925,10895,13794,8718,14852,6816,15629,8215,9437,0,0,0,0,4447,12512,9242,16069,0,1922,0,0,8556,7842,2838,6614,1944,5686,3277,13164,0,11331,0,0,0,0,0,0,0,0,0,0,0,0,0,0,0,0,0,0],"split_type":[0,0,0,0,0,0,0,0,0,0,0,0,0,0,0,0,0,0,0,0,0,0,0,0,0,0,0,0,0,0,0,0,0,0,0,0,0,0,0,0,0,0,0,0,0,0,0,0,0,0,0],"sum_hessian":[9.809051E1,8.699665E1,1.109386E1,7.1411644E1,1.5585003E1,3.6806917E0,7.4131675E0,4.3223827E1,2.8187817E1,1.3447171E1,2.137832E0,1.834053E0,1.8466387E0,1.3018001E0,6.1113677E0,1.1263185E1,3.1960642E1,6.7031097E0,2.1484707E1,1.4564466E0,1.1990725E1,1.0000101E0,1.1378218E0,7.070287E0,4.1928973E0,1.1429821E1,2.0530823E1,4.09479E0,2.6083195E0,1.8308144E1,3.1765642E0,1.1718026E0,1.0818922E1,5.765995E0,1.3042921E0,1.2652277E0,2.9276698E0,8.160808E0,3.2690132E0,2.584255E0,1.7946568E1,3.0774248E0,1.0173656E0,1.1093538E0,1.4989657E0,1.6352345E1,1.9557986E0,2.0933669E0,1.0831972E0,9.722215E0,1.0967072E0],"tree_param":{"num_deleted":"0","num_feature":"16384","num_nodes":"51","size_leaf_vector":"1"}},{"base_weights":[1.5963728E-2,-1.9743644E-2,2.2145306E-1,-1.11643136E-1,2.805484E-1,-5.5855197E-1,-3.494914E-2,-2.046962E-1,4.8632252E-1,-8.6103594E-1,2.7642795E-1,-1.6433384E-1,3.0962896E-1,1.456588E-1,-5.2500015E-1,6.10858E-1,-6.411452E-2,-6.07319E-3,-3.1323165E-1,-6.903547E-2,1.7963316E-1,-2.7184072E-1,4.4766688E-1,-1.6660151E-1,4.4586474E-1,-2.3740773E-1,3.0817168E-2,7.15998E-1,-5.3685986E-2,4.5255944E-2,-1.3353196E-1,1.9158371E-1,-4.645574E-2,2.0084375E-1,-4.5795042E-2,2.4332522E-1,-5.3085913E-3],"categories":[],"categories_nodes":[],"categories_segments":[],"categories_sizes":[],"default_left":[0,0,0,0,0,0,0,0,0,0,0,0,0,0,0,0,0,0,0,0,0,0,0,0,0,0,0,0,0,0,0,0,0,0,0,0,0],"id":17,"left_children":[1,3,-1,5,7,9,11,13,15,17,19,21,23,-1,25,27,-1,-1,-1,-1,-1,29,31,-1,33,-1,-1,35,-1,-1,-1,-1,-1,-1,-1,-1,-1],"loss_changes":[2.3368866E0,2.426277E0,0E0,2.2825398E0,2.1584911E0,2.7058575E0,2.6542246E0,1.7680178E0,1.4187198E0,1.1203032E0,6.8566966E-1,2.9578145E0,2.1668725E0,0E0,9.432478E-1,1.1913519E0,0E0,0E0,0E0,0E0,0E0,2.7980063E0,8.8335633E-1,0E0,2.0596328E0,0E0,0E0,8.165946E-1,0E0,0E0,0E0,0E0,0E0,0E0,0E0,0E0,0E0],"parents":[2147483647,0,0,1,1,3,3,4,4,5,5,6,6,7,7,8,8,9,9,10,10,11,11,12,12,14,14,15,15,21,21,22,22,24,24,27,27],"right_children":[2,4,-1,6,8,10,12,14,16,18,20,22,24,-1,26,28,-1,-1,-1,-1,-1,30,32,-1,34,-1,-1,36,-1,-1,-1,-1,-1,-1,-1,-1,-1],"split_conditions":[3.3965027E-1,8.160126E-3,2.2145306E-1,-2.3508946E-4,-1.8183804E-4,2.618303E-2,1.5462888E-2,2.793039E-2,5.61468E-2,-1.7481892E-4,-7.053856E-6,9.772806E-2,-9.383647E-5,1.456588E-1,2.0542469E-2,1.714482E-1,-6.411452E-2,-6.07319E-3,-3.1323165E-1,-6.903547E-2,1.7963316E-1,-1.1559252E-3,2.3277361E-2,-1.6660151E-1,1.5932398E-1,-2.3740773E-1,3.0817168E-2,1.06764466E-1,-5.3685986E-2,4.5255944E-2,-1.3353196E-1,1.9158371E-1,-4.645574E-2,2.0084375E-1,-4.5795042E-2,2.4332522E-1,-5.3085913E-3],"split_indices":[2227,13792,0,10770,14167,13899,138,7411,146,13149,1416,12919,13200,0,13133,2787,0,0,0,0,0,6825,8831,0,14833,0,0,9461,0,0,0,0,0,0,0,0,0],"split_type":[0,0,0,0,0,0,0,0,0,0,0,0,0,0,0,0,0,0,0,0,0,0,0,0,0,0,0,0,0,0,0,0,0,0,0,0,0],"sum_hessian":[8.905283E1,8.578419E1,3.2686453E0,6.6163994E1,1.9620195E1,8.771005E0,5.739299E1,5.844135E0,1.377606E1,6.4156384E0,2.3553662E0,4.210586E1,1.52871275E1,1.688891E0,4.155244E0,1.180361E1,1.97245E0,1.3457105E0,5.0699277E0,1.0272484E0,1.3281177E0,3.6287285E1,5.8185773E0,1.6615521E0,1.3625576E1,2.7343228E0,1.420921E0,1.0499385E1,1.3042248E0,1.0587558E1,2.5699726E1,4.372863E0,1.4457147E0,9.83318E0,3.7923958E0,9.201409E0,1.297976E0],"tree_param":{"num_deleted":"0","num_feature":"16384","num_nodes":"37","size_leaf_vector":"1"}},{"base_weights":[1.5823696E-2,2.401644E-1,-9.682509E-2,-4.848355E-1,3.525266E-1,-1.9697034E-1,2.9879817E-1,-2.3066364E-1,6.174431E-2,-1.21097915E-1,5.7723856E-1,6.839913E-2,-3.7311855E-1,-1.2380029E-1,4.6517497E-1,-4.0222624E-1,4.597882E-1,7.66553E-1,-5.7695184E-2,4.874047E-1,-1.7936397E-1,-4.8792097E-1,2.1801761E-1,-5.9026487E-2,6.2442225E-1,-6.923319E-1,7.602947E-2,2.1129252E-2,1.784473E-1,-1.7565837E-2,8.6303806E-1,1.6278735E-1,-4.279015E-1,7.7707314E-1,-1.7683887E-1,-6.011104E-1,2.8152773E-1,-6.308752E-1,6.619951E-2,-1.421425E-1,1.8051647E-1,7.7240443E-1,-2.6295513E-2,-1.9595537E-2,-2.5856867E-1,2.797923E-1,1.7965237E-2,3.4297116E-2,-2.0524023E-1,2.631773E-1,5.2533984E-2,-1.6111428E-1,7.899825E-2,-2.297092E-1,5.308005E-2,-7.63039E-2,1.873416E-1,-2.2073743E-1,6.573858E-2,1.1640743E-1,-1.7300549E-1,2.6210463E-1,3.6844045E-2],"categories":[],"categories_nodes":[],"categories_segments":[],"categories_sizes":[],"default_left":[0,0,0,0,0,0,0,0,0,0,0,0,0,0,0,0,0,0,0,0,0,0,0,0,0,0,0,0,0,0,0,0,0,0,0,0,0,0,0,0,0,0,0,0,0,0,0,0,0,0,0,0,0,0,0,0,0,0,0,0,0,0,0],"id":18,"left_children":[1,3,5,7,9,11,13,-1,-1,15,17,19,21,-1,23,25,27,29,31,33,35,37,39,-1,41,43,-1,-1,-1,-1,45,-1,47,49,51,53,55,57,59,-1,-1,61,-1,-1,-1,-1,-1,-1,-1,-1,-1,-1,-1,-1,-1,-1,-1,-1,-1,-1,-1,-1,-1],"loss_changes":[2.1416447E0,2.476976E0,2.298022E0,9.860154E-1,2.7400632E0,2.161868E0,1.5903568E0,0E0,0E0,1.6382844E0,2.1103783E0,2.0680606E0,1.9810522E0,0E0,1.1816738E0,1.4176452E0,1.3524175E-1,1.1102262E0,1.3162851E0,1.5532526E0,2.6417904E0,1.8985825E0,1.6610936E0,0E0,9.461405E-1,4.5353818E-1,0E0,0E0,0E0,0E0,6.139059E-1,0E0,5.7510114E-1,1.6656947E-1,6.248596E-1,1.0268965E0,1.400986E0,1.8314195E0,1.4055942E0,0E0,0E0,3.534813E-1,0E0,0E0,0E0,0E0,0E0,0E0,0E0,0E0,0E0,0E0,0E0,0E0,0E0,0E0,0E0,0E0,0E0,0E0,0E0,0E0,0E0],"parents":[2147483647,0,0,1,1,2,2,3,3,4,4,5,5,6,6,9,9,10,10,11,11,12,12,14,14,15,15,16,16,17,17,18,18,19,19,20,20,21,21,22,22,24,24,25,25,30,30,32,32,33,33,34,34,35,35,36,36,37,37,38,38,41,41],"right_children":[2,4,6,8,10,12,14,-1,-1,16,18,20,22,-1,24,26,28,30,32,34,36,38,40,-1,42,44,-1,-1,-1,-1,46,-1,48,50,52,54,56,58,60,-1,-1,62,-1,-1,-1,-1,-1,-1,-1,-1,-1,-1,-1,-1,-1,-1,-1,-1,-1,-1,-1,-1,-1],"split_conditions":[1.05770335E-1,-3.906769E-4,-1.5612837E-4,5.007518E-2,1.3868388E-2,8.060189E-3,3.7960995E-2,-2.3066364E-1,6.174431E-2,-1.23613045E-5,1.5053542E-1,-9.888737E-4,3.933745E-2,-1.2380029E-1,3.4297146E-2,3.3135325E-2,1.2707062E-2,-1.5330108E-4,2.320911E-2,1.17015146E-1,-1.1157017E-3,5.2357156E-2,2.3205843E-2,-5.9026487E-2,2.088495E-3,-2.3870717E-4,7.602947E-2,2.1129252E-2,1.784473E-1,-1.7565837E-2,1.5265223E-1,1.6278735E-1,2.0143276E-2,4.2549774E-2,3.094318E-2,7.494295E-2,-1.278324E-4,2.0494837E-1,-1.6847234E-5,-1.421425E-1,1.8051647E-1,1.2529849E-1,-2.6295513E-2,-1.9595537E-2,-2.5856867E-1,2.797923E-1,1.7965237E-2,3.4297116E-2,-2.0524023E-1,2.631773E-1,5.2533984E-2,-1.6111428E-1,7.899825E-2,-2.297092E-1,5.308005E-2,-7.63039E-2,1.873416E-1,-2.2073743E-1,6.573858E-2,1.1640743E-1,-1.7300549E-1,2.6210463E-1,3.6844045E-2],"split_indices":[9892,8783,10855,14908,9425,2015,8860,0,0,7062,14829,4400,13778,0,15893,14144,14541,13946,11517,782,1003,16274,6392,0,10696,2720,0,0,0,0,11720,0,1788,8802,9471,8395,1444,10531,13306,0,0,2990,0,0,0,0,0,0,0,0,0,0,0,0,0,0,0,0,0,0,0,0,0],"split_type":[0,0,0,0,0,0,0,0,0,0,0,0,0,0,0,0,0,0,0,0,0,0,0,0,0,0,0,0,0,0,0,0,0,0,0,0,0,0,0,0,0,0,0,0,0,0,0,0,0,0,0,0,0,0,0,0,0,0,0,0,0,0,0],"sum_hessian":[8.282459E1,2.7308193E1,5.55164E1,3.2195573E0,2.4088636E1,4.470278E1,1.0813617E1,2.20106E0,1.0184973E0,7.899657E0,1.618898E1,1.8078695E1,2.6624086E1,1.7689323E0,9.044684E0,5.5306044E0,2.3690524E0,1.2310988E1,3.8779917E0,6.358415E0,1.1720281E1,2.2440586E1,4.1835003E0,1.70832E0,7.3363643E0,3.7953565E0,1.7352477E0,1.0018709E0,1.3671815E0,1.3300467E0,1.0980942E1,1.3016022E0,2.5763893E0,4.3093143E0,2.0491006E0,5.961176E0,5.7591047E0,1.7728422E1,4.712164E0,1.4087206E0,2.7747796E0,6.0039144E0,1.3324499E0,1.1027637E0,2.6925929E0,9.95684E0,1.0241027E0,1.0045161E0,1.5718733E0,3.3023643E0,1.0069501E0,1.0058585E0,1.0432421E0,4.93343E0,1.0277456E0,2.3482099E0,3.4108949E0,1.590022E1,1.8282021E0,3.4043784E0,1.3077857E0,4.8956604E0,1.108254E0],"tree_param":{"num_deleted":"0","num_feature":"16384","num_nodes":"63","size_leaf_vector":"1"}},{"base_weights":[1.780587E-2,-3.5589114E-2,4.5501035E-1,-1.5760842E-1,1.6691865E-1,6.101832E-1,-8.477226E-2,1.5268058E-1,-3.1619337E-1,-4.4928055E-2,4.5489034E-1,-1.7832257E-2,2.3343532E-1,3.2528594E-1,-1.8371563E-1,-4.6361476E-1,2.2239608E-1,3.1451297E-1,-3.3081114E-1,-1.9901994E-1,6.430892E-1,-2.933656E-1,5.337813E-1,1.9594209E-1,-5.842122E-1,5.3284925E-1,-3.1367013E-1,-9.698249E-2,4.7764716E-1,-5.7707375E-1,2.035919E-1,8.502338E-2,-1.6519238E-1,-4.25306E-2,7.650431E-1,9.8928064E-2,-1.922997E-1,-5.130014E-2,2.158357E-1,-1.405084E-1,1.6631472E-1,-2.1432106E-1,5.1811425E-4,-2.2189658E-2,2.1524443E-1,2.0591458E-2,-1.5780656E-1,-1.8194929E-2,1.9406073E-1,6.03728E-2,-2.2545806E-1,1.709317E-1,-9.478887E-2,2.5329998E-2,2.558442E-1],"categories":[],"categories_nodes":[],"categories_segments":[],"categories_sizes":[],"default_left":[0,0,0,0,0,0,0,0,0,0,0,0,0,0,0,0,0,0,0,0,0,0,0,0,0,0,0,0,0,0,0,0,0,0,0,0,0,0,0,0,0,0,0,0,0,0,0,0,0,0,0,0,0,0,0],"id":19,"left_children":[1,3,5,7,9,11,-1,13,15,17,19,-1,-1,21,-1,23,25,27,29,31,33,35,37,39,41,43,45,-1,47,49,51,-1,-1,-1,53,-1,-1,-1,-1,-1,-1,-1,-1,-1,-1,-1,-1,-1,-1,-1,-1,-1,-1,-1,-1],"loss_changes":[1.7754387E0,1.708694E0,1.1194576E0,2.1642036E0,1.61179E0,8.506017E-1,0E0,2.2088284E0,2.388401E0,1.7419261E0,1.4996784E0,0E0,0E0,1.8424296E0,0E0,1.9376435E0,1.3089719E0,9.424277E-1,1.350006E0,7.081529E-1,9.595144E-1,1.0648146E0,1.4486291E0,1.2816408E0,1.4986281E0,5.8136356E-1,2.9148272E-1,0E0,6.2538683E-1,1.0571411E0,8.8272583E-1,0E0,0E0,0E0,3.9705324E-1,0E0,0E0,0E0,0E0,0E0,0E0,0E0,0E0,0E0,0E0,0E0,0E0,0E0,0E0,0E0,0E0,0E0,0E0,0E0,0E0],"parents":[2147483647,0,0,1,1,2,2,3,3,4,4,5,5,7,7,8,8,9,9,10,10,13,13,15,15,16,16,17,17,18,18,19,19,20,20,21,21,22,22,23,23,24,24,25,25,26,26,28,28,29,29,30,30,34,34],"right_children":[2,4,6,8,10,12,-1,14,16,18,20,-1,-1,22,-1,24,26,28,30,32,34,36,38,40,42,44,46,-1,48,50,52,-1,-1,-1,54,-1,-1,-1,-1,-1,-1,-1,-1,-1,-1,-1,-1,-1,-1,-1,-1,-1,-1,-1,-1],"split_conditions":[3.1212028E-2,6.9374666E-2,9.269969E-2,6.492899E-2,2.0177066E-2,-6.21514E-5,-8.477226E-2,1.49678E-1,1.193959E-1,1.00124404E-1,-1.8783408E-4,-1.7832257E-2,2.3343532E-1,1.2715473E-2,-1.8371563E-1,-1.84233E-4,5.5267245E-2,4.2902883E-2,1.14886016E-1,1.4402866E-1,9.271507E-2,1.170497E-2,2.1032212E-2,-4.8187588E-4,1.4210719E-1,-2.6569687E-4,9.0404436E-2,-9.698249E-2,-4.838393E-4,-7.19237E-4,1.15314335E-1,8.502338E-2,-1.6519238E-1,-4.25306E-2,-5.726425E-4,9.8928064E-2,-1.922997E-1,-5.130014E-2,2.158357E-1,-1.405084E-1,1.6631472E-1,-2.1432106E-1,5.1811425E-4,-2.2189658E-2,2.1524443E-1,2.0591458E-2,-1.5780656E-1,-1.8194929E-2,1.9406073E-1,6.03728E-2,-2.2545806E-1,1.709317E-1,-9.478887E-2,2.5329998E-2,2.558442E-1],"split_indices":[14777,16188,14783,3580,12380,330,0,5789,8772,3965,10770,0,0,7390,0,8405,9454,14551,14357,4525,5799,4130,6630,11533,4539,15889,13081,0,4726,6080,2944,0,0,0,7180,0,0,0,0,0,0,0,0,0,0,0,0,0,0,0,0,0,0,0,0],"split_type":[0,0,0,0,0,0,0,0,0,0,0,0,0,0,0,0,0,0,0,0,0,0,0,0,0,0,0,0,0,0,0,0,0,0,0,0,0,0,0,0,0,0,0,0,0,0,0,0,0,0,0,0,0,0,0],"sum_hessian":[7.436008E1,6.7085625E1,7.2744465E0,4.2000378E1,2.5085249E1,6.152759E0,1.1216878E0,1.4218176E1,2.7782202E1,1.4939196E1,1.0146053E1,1.3631938E0,4.789565E0,1.2069925E1,2.148251E0,2.1921192E1,5.86101E0,6.573803E0,8.365393E0,2.2546415E0,7.8914113E0,2.9398077E0,9.130117E0,3.2920341E0,1.8629158E1,3.715339E0,2.1456711E0,1.139026E0,5.434777E0,5.671853E0,2.6935399E0,1.0322971E0,1.2223444E0,1.0394372E0,6.851974E0,1.0711704E0,1.8686373E0,1.9202243E0,7.2098927E0,1.0462804E0,2.2457538E0,1.5063023E1,3.5661356E0,1.0065583E0,2.7087805E0,1.0078874E0,1.1377836E0,1.453326E0,3.981451E0,1.0104048E0,4.6614485E0,1.5232813E0,1.1702585E0,1.0068038E0,5.8451705E0],"tree_param":{"num_deleted":"0","num_feature":"16384","num_nodes":"55","size_leaf_vector":"1"}},{"base_weights":[1.6963813E-2,-7.225141E-2,2.6846808E-1,-1.6307081E-1,2.6245022E-1,5.284683E-1,-2.1861835E-1,2.5888458E-2,-3.9253992E-1,5.591658E-1,-2.8404284E-1,-5.9117258E-2,6.560671E-1,-4.356895E-1,1.2709168E-1,1.8197662E-1,-5.553954E-1,5.8408227E-2,-5.8207697E-1,-4.1738097E-2,6.8672425E-1,8.576662E-2,-1.7478478E-1,7.8003573E-1,1.862028E-2,-6.4639324E-1,5.1807668E-2,3.653174E-1,-2.4752463E-1,-2.1333644E-1,1.2881133E-2,1.5216088E-1,-3.0334887E-1,-7.4293286E-1,2.8136423E-2,3.1129679E-2,2.3583795E-1,2.84506E-2,2.5746068E-1,-2.2803469E-1,-4.3434966E-2,1.61548E-1,-5.7816207E-2,6.032654E-2,-2.0662211E-1,-1.7590748E-1,8.7782025E-2,-2.5801578E-1,4.4327243E-3,1.340999E-1,-1.4313638E-1],"categories":[],"categories_nodes":[],"categories_segments":[],"categories_sizes":[],"default_left":[0,0,0,0,0,0,0,0,0,0,0,0,0,0,0,0,0,0,0,0,0,0,0,0,0,0,0,0,0,0,0,0,0,0,0,0,0,0,0,0,0,0,0,0,0,0,0,0,0,0,0],"id":20,"left_children":[1,3,5,7,9,11,13,15,17,19,21,-1,23,25,-1,27,29,31,33,-1,35,-1,-1,37,-1,39,-1,41,43,-1,-1,-1,45,47,49,-1,-1,-1,-1,-1,-1,-1,-1,-1,-1,-1,-1,-1,-1,-1,-1],"loss_changes":[1.5474827E0,1.5948368E0,2.400706E0,1.7782929E0,1.9880176E0,1.2454886E0,1.1586878E0,2.2151923E0,1.6132321E0,7.7677107E-1,9.5488775E-1,0E0,7.2365713E-1,8.442391E-1,0E0,1.596166E0,5.131066E-1,1.1891274E0,1.3067694E0,0E0,3.0291724E-1,0E0,0E0,3.78582E-1,0E0,1.441251E-1,0E0,1.437883E0,1.3887839E0,0E0,0E0,0E0,8.725954E-1,9.3596697E-1,9.955542E-1,0E0,0E0,0E0,0E0,0E0,0E0,0E0,0E0,0E0,0E0,0E0,0E0,0E0,0E0,0E0,0E0],"parents":[2147483647,0,0,1,1,2,2,3,3,4,4,5,5,6,6,7,7,8,8,9,9,10,10,12,12,13,13,15,15,16,16,17,17,18,18,20,20,23,23,25,25,27,27,28,28,32,32,33,33,34,34],"right_children":[2,4,6,8,10,12,14,16,18,20,22,-1,24,26,-1,28,30,32,34,-1,36,-1,-1,38,-1,40,-1,42,44,-1,-1,-1,46,48,50,-1,-1,-1,-1,-1,-1,-1,-1,-1,-1,-1,-1,-1,-1,-1,-1],"split_conditions":[1.2345132E-1,3.931355E-2,1.317409E-1,-1.8682046E-4,1.5201689E-2,-5.4496893E-4,3.1058997E-1,1.4239192E-1,5.77874E-2,-3.5374984E-4,-5.8390223E-4,-5.9117258E-2,1.9082087E-1,-4.832523E-4,1.2709168E-1,1.7086834E-1,7.922283E-2,2.6343204E-2,8.356127E-2,-4.1738097E-2,-1.3220414E-4,8.576662E-2,-1.7478478E-1,2.146439E-2,1.862028E-2,-8.0345763E-4,5.1807668E-2,-2.7143845E-4,6.1322607E-2,-2.1333644E-1,1.2881133E-2,1.5216088E-1,7.824602E-3,1.22864544E-1,7.007567E-2,3.1129679E-2,2.3583795E-1,2.84506E-2,2.5746068E-1,-2.2803469E-1,-4.3434966E-2,1.61548E-1,-5.7816207E-2,6.032654E-2,-2.0662211E-1,-1.7590748E-1,8.7782025E-2,-2.5801578E-1,4.4327243E-3,1.340999E-1,-1.4313638E-1],"split_indices":[13059,3587,5725,6211,16079,4713,5414,3382,9202,2025,3311,0,14802,15706,0,215,8817,5669,8784,0,14786,0,0,1128,0,13405,0,1687,3006,0,0,0,4716,9421,6814,0,0,0,0,0,0,0,0,0,0,0,0,0,0,0,0],"split_type":[0,0,0,0,0,0,0,0,0,0,0,0,0,0,0,0,0,0,0,0,0,0,0,0,0,0,0,0,0,0,0,0,0,0,0,0,0,0,0,0,0,0,0,0,0,0,0,0,0,0,0],"sum_hessian":[6.710255E1,5.0058273E1,1.7044273E1,3.9777626E1,1.0280647E1,1.1057154E1,5.987119E0,2.2300869E1,1.7476755E1,6.647975E0,3.6326725E0,1.5723615E0,9.484792E0,4.715122E0,1.271997E0,1.812171E1,4.179158E0,5.376583E0,1.2100172E1,1.0128182E0,5.6351566E0,1.263439E0,2.3692334E0,7.587976E0,1.8968161E0,3.455784E0,1.2593379E0,1.2805063E1,5.316647E0,3.1665144E0,1.0126437E0,2.2201805E0,3.1564026E0,9.403783E0,2.69639E0,1.1186384E0,4.516518E0,1.0036161E0,6.5843596E0,2.396998E0,1.0587863E0,9.799126E0,3.005938E0,2.906082E0,2.4105651E0,2.1510222E0,1.0053804E0,8.027842E0,1.3759412E0,1.5372769E0,1.1591129E0],"tree_param":{"num_deleted":"0","num_feature":"16384","num_nodes":"51","size_leaf_vector":"1"}},{"base_weights":[1.1162175E-2,-3.4838006E-1,7.152341E-2,1.0509804E-1,-5.6455994E-1,2.6491907E-1,-6.6596374E-2,-7.103786E-1,2.4904603E-2,1.1555714E-2,5.0358546E-1,-1.6141783E-1,4.840967E-1,-2.4774651E-1,-5.1165786E-2,2.6974759E-1,-5.2447456E-1,-4.5290742E-2,6.0279435E-1,-2.499196E-1,2.892921E-1,-1.0642013E-2,2.0473649E-1,-6.740511E-2,5.784565E-1,1.5044922E-2,-2.2029014E-1,-1.5974222E-2,7.080178E-1,-3.342601E-1,2.9525453E-1,5.3915125E-1,-9.521031E-2,-1.1469231E-1,1.2259177E-1,2.1408807E-1,3.219692E-2,2.362828E-1,1.7608598E-2,5.624509E-2,-1.3167723E-1,1.7436698E-1,-3.7516538E-2,2.0184039E-1,2.234347E-2],"categories":[],"categories_nodes":[],"categories_segments":[],"categories_sizes":[],"default_left":[0,0,0,0,0,0,0,0,0,0,0,0,0,0,0,0,0,0,0,0,0,0,0,0,0,0,0,0,0,0,0,0,0,0,0,0,0,0,0,0,0,0,0,0,0],"id":21,"left_children":[1,3,5,-1,7,9,11,13,-1,15,17,19,21,-1,-1,23,25,-1,27,29,31,-1,-1,33,35,-1,-1,-1,37,39,41,43,-1,-1,-1,-1,-1,-1,-1,-1,-1,-1,-1,-1,-1],"loss_changes":[1.3673884E0,1.5666316E0,1.4546201E0,0E0,7.4867773E-1,1.3616253E0,1.7585965E0,2.3719597E-1,0E0,1.8012462E0,8.456559E-1,1.1973379E0,5.371785E-1,0E0,0E0,9.5016336E-1,5.478424E-1,0E0,7.4816084E-1,1.2073559E0,9.430644E-1,0E0,0E0,9.177637E-1,2.2108746E-1,0E0,0E0,0E0,4.157586E-1,1.2481844E0,5.247879E-1,1.9691682E-1,0E0,0E0,0E0,0E0,0E0,0E0,0E0,0E0,0E0,0E0,0E0,0E0,0E0],"parents":[2147483647,0,0,1,1,2,2,4,4,5,5,6,6,7,7,9,9,10,10,11,11,12,12,15,15,16,16,18,18,19,19,20,20,23,23,24,24,28,28,29,29,30,30,31,31],"right_children":[2,4,6,-1,8,10,12,14,-1,16,18,20,22,-1,-1,24,26,-1,28,30,32,-1,-1,34,36,-1,-1,-1,38,40,42,44,-1,-1,-1,-1,-1,-1,-1,-1,-1,-1,-1,-1,-1],"split_conditions":[2.903882E-2,3.723225E-2,2.482023E-3,1.0509804E-1,6.872893E-3,-5.6488643E-4,1.5080011E-1,8.051735E-2,2.4904603E-2,-1.074466E-3,-3.1602025E-4,1.5382942E-2,-5.4609444E-4,-2.4774651E-1,-5.1165786E-2,4.8289232E-2,4.477944E-2,-4.5290742E-2,-7.6113814E-5,1.1096151E-1,1.7054623E-1,-1.0642013E-2,2.0473649E-1,7.7781364E-2,4.916379E-2,1.5044922E-2,-2.2029014E-1,-1.5974222E-2,1.7546928E-1,-1.1565998E-4,1.7787889E-2,1.8291244E-1,-9.521031E-2,-1.1469231E-1,1.2259177E-1,2.1408807E-1,3.219692E-2,2.362828E-1,1.7608598E-2,5.624509E-2,-1.3167723E-1,1.7436698E-1,-3.7516538E-2,2.0184039E-1,2.234347E-2],"split_indices":[4545,5773,5525,0,9607,12066,14900,14568,0,3682,14199,13298,6750,0,0,14499,11114,0,4476,4613,813,0,0,2233,16135,0,0,0,5770,1544,14690,11738,0,0,0,0,0,0,0,0,0,0,0,0,0],"split_type":[0,0,0,0,0,0,0,0,0,0,0,0,0,0,0,0,0,0,0,0,0,0,0,0,0,0,0,0,0,0,0,0,0,0,0,0,0,0,0,0,0,0,0,0,0],"sum_hessian":[6.0858135E1,8.062457E0,5.279568E1,1.7584627E0,6.303994E0,2.1613861E1,3.1181818E1,5.0662193E0,1.2377747E0,1.0992678E1,1.0621184E1,2.720448E1,3.977339E0,3.737214E0,1.3290051E0,7.754368E0,3.2383096E0,1.3292712E0,9.291913E0,2.3111738E1,4.092742E0,1.3257909E0,2.6515481E0,4.080048E0,3.6743197E0,1.0697396E0,2.16857E0,1.3526206E0,7.939292E0,2.0350338E1,2.7614E0,2.9776464E0,1.1150959E0,2.5741556E0,1.5058924E0,2.4552073E0,1.2191124E0,6.88267E0,1.0566223E0,3.268042E0,1.7082296E1,1.4154893E0,1.3459107E0,1.9646639E0,1.0129824E0],"tree_param":{"num_deleted":"0","num_feature":"16384","num_nodes":"45","size_leaf_vector":"1"}}]},"name":"gbtree"},"learner_model_param":{"base_score":"7.8374374E-1","boost_from_average":"1","num_class":"0","num_feature":"16384","num_target":"1"},"objective":{"name":"binary:logistic","reg_loss_param":{"scale_pos_weight":"1"}}},"version":[2,0,2]}