{"learner":{"attributes":{"best_iteration":"15","best_score":"0.09647705866755522","scikit_learn":"{\"_estimator_type\": \"classifier\"}"},"feature_names":[],"feature_types":[],"gradient_booster":{"model":{"gbtree_model_param":{"num_parallel_tree":"1","num_trees":"26"},"iteration_indptr":[0,1,2,3,4,5,6,7,8,9,10,11,12,13,14,15,16,17,18,19,20,21,22,23,24,25,26],"tree_info":[0,0,0,0,0,0,0,0,0,0,0,0,0,0,0,0,0,0,0,0,0,0,0,0,0,0],"trees":[{"base_weights":[1.3262922E-2,-2.2040813E0,1.247998E0,1.0044787E0,-2.430526E0,-2.2822003E0,1.3960899E0,-5.681126E-1,1.4154841E0,-1.9895516E-1,-2.4931116E0,-7.643851E-1,2.0488362E-1,1.4571908E0,-1.0987918E0,-2.1155631E-2,4.5184356E-1,3.9503974E-1,-5.8780456E-1,-2.5357509E0,6.614375E-1,-1.1160512E0,1.4905695E0,4.7430915E-1,-2.1789894E0,3.096435E-1,-2.5608013E0,-9.799005E-2,3.4223688E-1,3.3289272E-1,-6.684996E-1,-1.2030927E0,1.5059066E0,3.8810626E-1,-4.7333905E-1,-7.0728624E-1,-1.5973613E-1,1.3427474E-1,-7.77685E-1,-5.033269E-1,-2.1155631E-2,4.5639458E-1,-2.3081806E-1],"categories":[],"categories_nodes":[],"categories_segments":[],"categories_sizes":[],"default_left":[0,0,0,0,0,0,0,0,0,0,0,0,0,0,0,0,0,0,0,0,0,0,0,0,0,0,0,0,0,0,0,0,0,0,0,0,0,0,0,0,0,0,0],"id":0,"left_children":[1,3,5,7,9,11,13,-1,15,17,19,-1,-1,21,23,-1,-1,-1,-1,25,27,29,31,33,35,-1,37,-1,-1,-1,-1,39,41,-1,-1,-1,-1,-1,-1,-1,-1,-1,-1],"loss_changes":[2.630712E3,2.5215063E2,3.258454E2,3.0511375E1,4.4381226E1,2.1619446E1,9.199109E1,0E0,2.9400597E0,2.8869816E1,4.3706787E1,0E0,0E0,5.141284E1,2.6088627E1,0E0,0E0,0E0,0E0,3.0216797E1,2.7220068E0,2.2249794E1,2.5451782E1,1.351546E1,1.3684578E0,0E0,3.0202637E1,0E0,0E0,0E0,0E0,1.9221349E0,2.1134033E1,0E0,0E0,0E0,0E0,0E0,0E0,0E0,0E0,0E0,0E0],"parents":[2147483647,0,0,1,1,2,2,3,3,4,4,5,5,6,6,8,8,9,9,10,10,13,13,14,14,19,19,20,20,21,21,22,22,23,23,24,24,26,26,31,31,32,32],"right_children":[2,4,6,8,10,12,14,-1,16,18,20,-1,-1,22,24,-1,-1,-1,-1,26,28,30,32,34,36,-1,38,-1,-1,-1,-1,40,42,-1,-1,-1,-1,-1,-1,-1,-1,-1,-1],"split_conditions":[2.1063295E-1,2.5744813E-2,8.122111E-2,9.557611E-2,2.6925402E-2,1.1476859E-1,1.3539472E-1,-5.681126E-1,-5.1302406E-5,1.0170125E-1,1.7625152E-1,-7.643851E-1,2.0488362E-1,9.422266E-2,1.0677057E-1,-2.1155631E-2,4.5184356E-1,3.9503974E-1,-5.8780456E-1,8.056341E-3,1.5843105E-1,9.911628E-3,8.141529E-4,1.4359723E-1,2.0149156E-1,3.096435E-1,-1.2201843E-3,-9.799005E-2,3.4223688E-1,3.3289272E-1,-6.684996E-1,3.7134163E-2,1.6012347E-1,3.8810626E-1,-4.7333905E-1,-7.0728624E-1,-1.5973613E-1,1.3427474E-1,-7.77685E-1,-5.033269E-1,-2.1155631E-2,4.5639458E-1,-2.3081806E-1],"split_indices":[6297,8367,14252,1829,4414,15822,4749,0,66,8954,9746,0,0,9229,708,0,0,0,0,14832,1,8736,8449,6456,43,0,15119,0,0,0,0,29,8377,0,0,0,0,0,0,0,0,0,0],"split_type":[0,0,0,0,0,0,0,0,0,0,0,0,0,0,0,0,0,0,0,0,0,0,0,0,0,0,0,0,0,0,0,0,0,0,0,0,0,0,0,0,0,0,0],"sum_hessian":[9.588692E2,3.4268625E2,6.161829E2,2.2364296E1,3.2032196E2,2.4227987E1,5.9195496E2,2.3296142E0,2.0034681E1,8.852533E0,3.1146942E2,2.2364296E1,1.8636913E0,5.782102E2,1.3744723E1,1.1648071E0,1.8869875E1,4.89219E0,3.960344E0,3.0750906E2,3.960344E0,6.9888425E0,5.712214E2,5.8240356E0,7.920688E0,1.8636913E0,3.056454E2,1.3977685E0,2.5625756E0,2.3296142E0,4.6592283E0,2.795537E0,5.6842584E2,4.4262667E0,1.3977685E0,6.7558813E0,1.1648071E0,3.0284984E0,3.0261688E2,1.6307299E0,1.1648071E0,5.6493146E2,3.4944212E0],"tree_param":{"num_deleted":"0","num_feature":"16384","num_nodes":"43","size_leaf_vector":"1"}},{"base_weights":[4.5142688E-2,-1.3488156E0,1.1352133E0,-1.5910126E0,3.196607E-1,-1.4627699E0,1.2160274E0,-1.6270227E0,6.650738E-1,-4.9468002E-1,8.3267504E-1,4.4569835E-1,-5.391238E-1,-4.549106E-1,1.2627856E0,-1.6553384E0,5.5718094E-1,-3.2123965E-1,3.9828056E-1,1.1212343E0,-4.1359437E-1,2.1556577E-1,-1.0080919E-2,-1.5613599E0,7.00793E-1,1.2906946E0,-6.481835E-1,-1.8396291E-1,-1.6958598E0,-1.0275429E-1,3.232585E-1,-3.6231148E-1,1.2897193E0,-5.357038E-1,-6.364779E-2,-3.0837095E-1,3.6185193E-1,1.3042635E0,-1.1075176E0,2.9796433E-1,-5.166466E-1,4.1183826E-1,-4.4705495E-1,-5.163023E-1,1.216993E-1,-3.9737314E-2,4.0633884E-1,-7.822267E-2,3.9643428E-1,-1.5974497E-2,-4.9091473E-1],"categories":[],"categories_nodes":[],"categories_segments":[],"categories_sizes":[],"default_left":[0,0,0,0,0,0,0,0,0,0,0,0,0,0,0,0,0,0,0,0,0,0,0,0,0,0,0,0,0,0,0,0,0,0,0,0,0,0,0,0,0,0,0,0,0,0,0,0,0,0,0],"id":1,"left_children":[1,3,5,7,9,11,13,15,17,-1,19,21,-1,23,25,27,29,-1,-1,31,-1,-1,-1,33,35,37,39,41,43,-1,-1,-1,45,-1,-1,-1,-1,47,49,-1,-1,-1,-1,-1,-1,-1,-1,-1,-1,-1,-1],"loss_changes":[1.3525981E3,1.5836694E2,1.0665112E2,2.8809448E1,5.222284E1,1.0704895E1,3.8465942E1,2.1716553E1,8.404476E0,0E0,2.7456486E1,4.315408E-1,0E0,1.8915838E1,2.6012207E1,1.9492615E1,2.7337573E0,0E0,0E0,1.5868317E1,0E0,0E0,0E0,1.8698597E0,7.7983017E0,1.6595093E1,1.4861919E1,2.242989E1,1.777594E1,0E0,0E0,0E0,3.3554726E0,0E0,0E0,0E0,0E0,1.2807434E1,1.6748865E0,0E0,0E0,0E0,0E0,0E0,0E0,0E0,0E0,0E0,0E0,0E0,0E0],"parents":[2147483647,0,0,1,1,2,2,3,3,4,4,5,5,6,6,7,7,8,8,10,10,11,11,13,13,14,14,15,15,16,16,19,19,23,23,24,24,25,25,26,26,27,27,28,28,32,32,37,37,38,38],"right_children":[2,4,6,8,10,12,14,16,18,-1,20,22,-1,24,26,28,30,-1,-1,32,-1,-1,-1,34,36,38,40,42,44,-1,-1,-1,46,-1,-1,-1,-1,48,50,-1,-1,-1,-1,-1,-1,-1,-1,-1,-1,-1,-1],"split_conditions":[1.0879687E-1,1.3692185E-1,9.147638E-2,1.6112563E-1,9.019072E-2,3.2164242E-2,1.4781347E-1,2.892284E-1,8.126402E-2,-4.9468002E-1,5.5867568E-2,1.08291276E-1,-5.391238E-1,2.2126028E-1,2.548522E-1,3.1446032E-2,1.8556559E-1,-3.2123965E-1,3.9828056E-1,1.1948172E-1,-4.1359437E-1,2.1556577E-1,-1.0080919E-2,1.5566474E-1,9.862249E-2,1.8761626E-1,1.4676308E-2,7.231234E-2,1.8430498E-1,-1.0275429E-1,3.232585E-1,-3.6231148E-1,-2.537581E-4,-5.357038E-1,-6.364779E-2,-3.0837095E-1,3.6185193E-1,8.3933294E-2,7.158585E-2,2.9796433E-1,-5.166466E-1,4.1183826E-1,-4.4705495E-1,-5.163023E-1,1.216993E-1,-3.9737314E-2,4.0633884E-1,-7.822267E-2,3.9643428E-1,-1.5974497E-2,-4.9091473E-1],"split_indices":[4441,10866,2859,7768,12366,15278,1875,14860,31,0,11447,28,0,544,9293,11448,6,0,0,13770,0,0,0,98,3071,2482,3988,5074,8725,0,0,0,5013,0,0,0,0,11344,43,0,0,0,0,0,0,0,0,0,0,0,0],"split_type":[0,0,0,0,0,0,0,0,0,0,0,0,0,0,0,0,0,0,0,0,0,0,0,0,0,0,0,0,0,0,0,0,0,0,0,0,0,0,0,0,0,0,0,0,0,0,0,0,0,0,0],"sum_hessian":[8.8814484E2,3.8964197E2,4.985029E2,3.4029147E2,4.935049E1,1.4522968E1,4.8397992E2,3.3521973E2,5.071732E0,9.744323E0,3.960617E1,2.1151333E0,1.2407835E1,1.2937019E1,4.710429E2,3.3116864E2,4.051091E0,1.230776E0,3.8409562E0,3.547052E1,4.135649E0,1.0297539E0,1.0853794E0,6.4300265E0,6.506993E0,4.6458243E2,6.460481E0,9.024343E0,3.221443E2,1.6096753E0,2.441416E0,1.97685E0,3.349367E1,5.2359796E0,1.194047E0,1.2380874E0,5.268905E0,4.624222E2,2.160202E0,2.5849633E0,3.8755178E0,4.094061E0,4.930281E0,3.185139E2,3.630406E0,1.4128392E0,3.208083E1,4.8683925E0,4.5755383E2,1.0893378E0,1.0708642E0],"tree_param":{"num_deleted":"0","num_feature":"16384","num_nodes":"51","size_leaf_vector":"1"}},{"base_weights":[4.756607E-2,-1.1191427E0,9.8199147E-1,-1.2750187E0,2.9887736E-1,-1.053384E0,1.0961622E0,-1.3203387E0,5.177605E-1,-1.1387601E0,7.765777E-1,2.5344437E-1,-1.4059702E0,1.1473795E0,-4.254536E-1,-1.3618696E0,2.1947277E-1,3.671218E-1,-2.873359E-1,-4.1944173E-1,1.321788E-1,1.0220209E0,-3.8910973E-1,-4.4397518E-1,-3.8808938E-2,-8.0583686E-1,1.1744634E0,3.1367746E-1,-1.3577434E0,-1.386214E0,8.255865E-1,3.8029394E-1,-3.419292E-1,1.1630187E0,-2.3944029E-1,-4.231429E-1,2.1728677E-1,1.2007664E0,-2.937484E-2,-5.2111894E-1,1.980143E-1,-1.2619871E-1,-4.2858157E-1,3.2564974E-1,8.7991364E-2,-1.328319E-2,3.662434E-1,3.6295542E-1,-3.1109652E-1,2.6245916E-1,-4.8098245E-1],"categories":[],"categories_nodes":[],"categories_segments":[],"categories_sizes":[],"default_left":[0,0,0,0,0,0,0,0,0,0,0,0,0,0,0,0,0,0,0,0,0,0,0,0,0,0,0,0,0,0,0,0,0,0,0,0,0,0,0,0,0,0,0,0,0,0,0,0,0,0,0],"id":2,"left_children":[1,3,5,7,9,11,13,15,17,19,21,-1,23,25,27,29,31,-1,-1,-1,-1,33,-1,-1,-1,35,37,-1,39,41,43,-1,-1,45,-1,-1,-1,47,49,-1,-1,-1,-1,-1,-1,-1,-1,-1,-1,-1,-1],"loss_changes":[8.241916E2,7.46998E1,9.869879E1,2.531186E1,2.4309563E1,1.6450739E1,3.1502075E1,1.9223389E1,9.705748E0,4.2671175E0,1.4658691E1,0E0,1.6595688E0,2.132727E1,2.0192495E1,1.6496887E1,1.3744673E1,0E0,0E0,0E0,0E0,7.083374E0,0E0,0E0,0E0,6.445181E0,1.2080688E1,0E0,7.892315E0,1.1084595E1,2.0732069E-1,0E0,0E0,1.6355495E0,0E0,0E0,0E0,8.823303E0,1.4367821E1,0E0,0E0,0E0,0E0,0E0,0E0,0E0,0E0,0E0,0E0,0E0,0E0],"parents":[2147483647,0,0,1,1,2,2,3,3,4,4,5,5,6,6,7,7,8,8,9,9,10,10,12,12,13,13,14,14,15,15,16,16,21,21,25,25,26,26,28,28,29,29,30,30,33,33,37,37,38,38],"right_children":[2,4,6,8,10,12,14,16,18,20,22,-1,24,26,28,30,32,-1,-1,-1,-1,34,-1,-1,-1,36,38,-1,40,42,44,-1,-1,46,-1,-1,-1,48,50,-1,-1,-1,-1,-1,-1,-1,-1,-1,-1,-1,-1],"split_conditions":[1.4340329E-1,1.9743723E-1,3.190721E-2,1.6255549E-1,7.7703245E-2,8.895378E-2,9.347949E-2,2.1801193E-1,4.533664E-2,8.6320326E-2,1.2727058E-1,2.5344437E-1,1.5599905E-1,3.1948745E-2,-3.9296664E-4,1.8081953E-1,2.0340082E-1,3.671218E-1,-2.873359E-1,-4.1944173E-1,1.321788E-1,2.6779237E-1,-3.8910973E-1,-4.4397518E-1,-3.8808938E-2,2.4099232E-1,1.9017477E-1,3.1367746E-1,1.5357305E-1,3.8798723E-2,2.3251265E-1,3.8029394E-1,-3.419292E-1,3.1328652E-2,-2.3944029E-1,-4.231429E-1,2.1728677E-1,2.0376755E-1,1.080956E-1,-5.2111894E-1,1.980143E-1,-1.2619871E-1,-4.2858157E-1,3.2564974E-1,8.7991364E-2,-1.328319E-2,3.662434E-1,3.6295542E-1,-3.1109652E-1,2.6245916E-1,-4.8098245E-1],"split_indices":[14227,5737,8488,7768,10510,9526,7347,11516,13824,3353,687,0,8016,5697,15510,8725,949,0,0,0,0,3185,0,0,0,1832,8669,0,1000,11448,13,0,0,1919,0,0,0,2055,2683,0,0,0,0,0,0,0,0,0,0,0,0],"split_type":[0,0,0,0,0,0,0,0,0,0,0,0,0,0,0,0,0,0,0,0,0,0,0,0,0,0,0,0,0,0,0,0,0,0,0,0,0,0,0,0,0,0,0,0,0,0,0,0,0,0,0],"sum_hessian":[7.539907E2,3.352301E2,4.1876065E2,3.0212033E2,3.310978E1,2.180507E1,3.9695557E2,2.9492828E2,7.1920214E0,7.9127E0,2.5197079E1,3.197081E0,1.8607988E1,3.8426715E2,1.268842E1,2.872951E2,7.633196E0,4.979988E0,2.212033E0,6.89506E0,1.0176404E0,2.2983734E1,2.213344E0,1.7438606E1,1.1693817E0,4.8622327E0,3.7940494E2,4.874886E0,7.8135343E0,2.844952E2,2.7998903E0,4.3477883E0,3.2854078E0,2.1666388E1,1.3173466E0,3.5411284E0,1.3211044E0,3.7129492E2,8.109995E0,6.694229E0,1.1193053E0,1.2424444E1,2.7207077E2,1.1829343E0,1.616956E0,1.0004603E0,2.0665928E1,3.702511E2,1.0438153E0,5.432851E0,2.6771443E0],"tree_param":{"num_deleted":"0","num_feature":"16384","num_nodes":"51","size_leaf_vector":"1"}},{"base_weights":[4.658167E-2,-9.1573405E-1,9.4457954E-1,-1.1065122E0,4.3600032E-1,-7.2757155E-1,1.031708E0,4.250794E-1,-1.1454625E0,-3.4827983E-1,7.6596177E-1,3.018657E-1,-1.1043416E0,1.0946908E0,-6.410296E-2,-2.8327918E-1,3.9164945E-1,-1.1769618E0,7.3977864E-1,-2.798503E-1,9.258584E-1,-3.8521293E-1,1.6305359E-1,-7.603649E-1,1.1222833E0,3.9707094E-1,-1.5325308E0,-1.2286438E0,-3.2965654E-1,3.8935468E-2,2.603763E-1,1.0487444E0,-2.8334108E-1,8.48788E-2,-3.3234766E-1,-3.4463772E-1,1.1359086E0,-1.0295124E0,8.0539185E-1,-1.2834758E-1,-5.2833736E-1,1.209342E-1,-3.7463608E-1,-3.610338E-1,1.6214988E-1,3.4562057E-1,-3.2913864E-2,-7.4610755E-2,3.4515196E-1,-4.741349E-2,-3.918274E-1,3.1647557E-1,-2.0900688E-1],"categories":[],"categories_nodes":[],"categories_segments":[],"categories_sizes":[],"default_left":[0,0,0,0,0,0,0,0,0,0,0,0,0,0,0,0,0,0,0,0,0,0,0,0,0,0,0,0,0,0,0,0,0,0,0,0,0,0,0,0,0,0,0,0,0,0,0,0,0,0,0,0,0],"id":3,"left_children":[1,3,5,7,9,11,13,15,17,-1,19,-1,21,23,25,-1,-1,27,29,-1,31,-1,-1,33,35,37,39,41,43,-1,-1,45,-1,-1,-1,-1,47,49,51,-1,-1,-1,-1,-1,-1,-1,-1,-1,-1,-1,-1,-1,-1],"loss_changes":[5.34943E2,7.75479E1,4.7400177E1,1.6126465E1,2.0742756E1,1.1853103E1,2.1103119E1,9.9505415E0,1.6068817E1,0E0,9.509304E0,0E0,4.839224E0,1.5607117E1,1.2465225E1,0E0,0E0,1.0635071E1,2.6411438E-1,0E0,7.791918E0,0E0,0E0,2.0609324E0,1.0106018E1,9.053022E0,3.5521793E-1,8.301575E0,1.2709621E1,0E0,0E0,3.5068264E0,0E0,0E0,0E0,0E0,6.0108643E0,6.566167E-1,5.059313E0,0E0,0E0,0E0,0E0,0E0,0E0,0E0,0E0,0E0,0E0,0E0,0E0,0E0,0E0],"parents":[2147483647,0,0,1,1,2,2,3,3,4,4,5,5,6,6,7,7,8,8,10,10,12,12,13,13,14,14,17,17,18,18,20,20,23,23,24,24,25,25,26,26,27,27,28,28,31,31,36,36,37,37,38,38],"right_children":[2,4,6,8,10,12,14,16,18,-1,20,-1,22,24,26,-1,-1,28,30,-1,32,-1,-1,34,36,38,40,42,44,-1,-1,46,-1,-1,-1,-1,48,50,52,-1,-1,-1,-1,-1,-1,-1,-1,-1,-1,-1,-1,-1,-1],"split_conditions":[1.9363809E-1,2.2587575E-1,1.608241E-1,-5.819719E-4,1.0085748E-1,-2.6150455E-4,1.4448196E-1,1.6221724E-1,3.1086895E-1,-3.4827983E-1,5.7816986E-2,3.018657E-1,1.4611296E-1,8.5011035E-2,1.3163388E-1,-2.8327918E-1,3.9164945E-1,1.3796444E-1,1.0001184E-2,-2.798503E-1,1.4835146E-1,-3.8521293E-1,1.6305359E-1,-1.10936984E-4,8.183391E-2,8.515017E-4,6.28245E-2,-1.20464334E-4,2.550026E-2,3.8935468E-2,2.603763E-1,5.255634E-2,-2.8334108E-1,8.48788E-2,-3.3234766E-1,-3.4463772E-1,1.1375233E-1,-2.826363E-4,2.5101113E-1,-1.2834758E-1,-5.2833736E-1,1.209342E-1,-3.7463608E-1,-3.610338E-1,1.6214988E-1,3.4562057E-1,-3.2913864E-2,-7.4610755E-2,3.4515196E-1,-4.741349E-2,-3.918274E-1,3.1647557E-1,-2.0900688E-1],"split_indices":[5706,1897,7065,3223,1105,746,4493,3186,12010,0,8591,0,4424,7088,16066,0,0,16083,244,0,2474,0,0,362,7045,2114,121,15795,2552,0,0,16049,0,0,0,0,1250,11,9983,0,0,0,0,0,0,0,0,0,0,0,0,0,0],"split_type":[0,0,0,0,0,0,0,0,0,0,0,0,0,0,0,0,0,0,0,0,0,0,0,0,0,0,0,0,0,0,0,0,0,0,0,0,0,0,0,0,0,0,0,0,0,0,0,0,0,0,0,0,0],"sum_hessian":[6.170333E2,2.9784058E2,3.1919275E2,2.6116257E2,3.667799E1,1.5444013E1,3.0374872E2,6.231121E0,2.5493146E2,5.849491E0,3.0828497E1,2.458775E0,1.2985237E1,2.8724033E2,1.6508404E1,2.4100995E0,3.8210213E0,2.511115E2,3.8199606E0,2.2362142E0,2.8592283E1,1.1907483E1,1.0777543E0,3.8206306E0,2.8341968E2,1.3118125E1,3.3902788E0,2.3625113E2,1.4860364E1,1.0125858E0,2.8073747E0,2.7241697E1,1.3505864E0,1.0009314E0,2.8196993E0,1.193382E0,2.8222632E2,2.5806324E0,1.0537493E1,1.0735886E0,2.3166902E0,2.6489966E0,2.3360213E2,7.2235894E0,7.636774E0,2.5016008E1,2.2256894E0,2.777143E0,2.7944916E2,1.0002841E0,1.5803485E0,9.291653E0,1.2458398E0],"tree_param":{"num_deleted":"0","num_feature":"16384","num_nodes":"53","size_leaf_vector":"1"}},{"base_weights":[4.3488227E-2,-7.920528E-1,8.956605E-1,-9.5502377E-1,3.7707335E-1,-6.6086984E-1,9.823996E-1,-1.0147027E0,5.703597E-1,-8.235154E-1,7.016743E-1,2.4122414E-1,-1.1979371E0,1.0449045E0,-8.248464E-2,-1.0482246E0,6.8689877E-1,-2.780036E-1,1.0049982E0,-3.327369E-1,1.2731045E-1,9.3564045E-1,-7.241286E-1,-3.8652092E-1,-6.153046E-2,1.0697707E0,-2.637269E-1,-7.653572E-1,2.6843894E-1,8.610985E-3,-1.088882E0,-6.70295E-2,3.284678E-1,1.3719571E-2,3.4715354E-1,-1.4124192E-1,1.0641233E0,5.256322E-2,-3.202669E-1,-1.0409699E-1,1.0840964E0,2.4276145E-1,-4.056932E-1,2.0790212E-1,-1.188467E0,3.4726864E-1,-1.9532125E-1,-3.3241025E-1,2.685094E-1,5.021952E-2,3.3076167E-1,-7.454925E-2,3.2886475E-1,1.5582991E-2,-4.348681E-1],"categories":[],"categories_nodes":[],"categories_segments":[],"categories_sizes":[],"default_left":[0,0,0,0,0,0,0,0,0,0,0,0,0,0,0,0,0,0,0,0,0,0,0,0,0,0,0,0,0,0,0,0,0,0,0,0,0,0,0,0,0,0,0,0,0,0,0,0,0,0,0,0,0,0,0],"id":4,"left_children":[1,3,5,7,9,11,13,15,17,19,21,-1,23,25,27,29,31,-1,33,-1,-1,35,37,-1,-1,39,41,43,-1,45,47,-1,-1,-1,-1,-1,49,-1,-1,-1,51,-1,-1,-1,53,-1,-1,-1,-1,-1,-1,-1,-1,-1,-1],"loss_changes":[3.5532858E2,4.837581E1,3.4002182E1,2.0738785E1,1.2872406E1,1.1692939E1,1.56879425E1,1.2897125E1,6.7731934E0,3.0276213E0,9.141873E0,0E0,6.681204E-1,7.489151E0,9.976103E0,9.022064E0,2.0008318E0,0E0,1.0328631E0,0E0,0E0,4.518608E0,1.4658585E0,0E0,0E0,4.7914886E0,6.8549824E0,6.213348E0,0E0,7.3951726E0,8.666565E0,0E0,0E0,0E0,0E0,0E0,5.2778244E-1,0E0,0E0,0E0,3.7545776E0,0E0,0E0,0E0,2.387271E0,0E0,0E0,0E0,0E0,0E0,0E0,0E0,0E0,0E0,0E0],"parents":[2147483647,0,0,1,1,2,2,3,3,4,4,5,5,6,6,7,7,8,8,9,9,10,10,12,12,13,13,14,14,15,15,16,16,18,18,21,21,22,22,25,25,26,26,27,27,29,29,30,30,36,36,40,40,44,44],"right_children":[2,4,6,8,10,12,14,16,18,20,22,-1,24,26,28,30,32,-1,34,-1,-1,36,38,-1,-1,40,42,44,-1,46,48,-1,-1,-1,-1,-1,50,-1,-1,-1,52,-1,-1,-1,54,-1,-1,-1,-1,-1,-1,-1,-1,-1,-1],"split_conditions":[2.0471263E-1,2.0732905E-1,6.299475E-2,1.6112563E-1,2.0265263E-2,4.347922E-2,1.4448196E-1,1.6682737E-1,9.883655E-3,2.096625E-1,1.7215276E-1,2.4122414E-1,9.478564E-2,-2.0580248E-4,1.03137806E-1,-3.6364933E-4,1.4481816E-1,-2.780036E-1,6.324712E-2,-3.327369E-1,1.2731045E-1,1.1819036E-2,-8.372596E-4,-3.8652092E-1,-6.153046E-2,8.544115E-2,9.869489E-2,3.4885123E-2,2.6843894E-1,-1.3259269E-4,1.7751373E-1,-6.70295E-2,3.284678E-1,1.3719571E-2,3.4715354E-1,-1.4124192E-1,-1.164829E-3,5.256322E-2,-3.202669E-1,-1.0409699E-1,-4.755743E-6,2.4276145E-1,-4.056932E-1,2.0790212E-1,-6.50315E-5,3.4726864E-1,-1.9532125E-1,-3.3241025E-1,2.685094E-1,5.021952E-2,3.3076167E-1,-7.454925E-2,3.2886475E-1,1.5582991E-2,-4.348681E-1],"split_indices":[7635,5737,15608,7768,12751,8808,4493,4905,974,1106,2467,0,4926,7579,1674,13419,20,0,14123,0,0,4432,19,0,0,16261,7463,7807,0,6007,9742,0,0,0,0,0,33,0,0,0,12767,0,0,0,15276,0,0,0,0,0,0,0,0,0,0],"split_type":[0,0,0,0,0,0,0,0,0,0,0,0,0,0,0,0,0,0,0,0,0,0,0,0,0,0,0,0,0,0,0,0,0,0,0,0,0,0,0,0,0,0,0,0,0,0,0,0,0,0,0,0,0,0,0],"sum_hessian":[4.9704327E2,2.5100629E2,2.46037E2,2.2045847E2,3.0547806E1,1.2637541E1,2.3339946E2,2.1248022E2,7.978252E0,6.1742687E0,2.4373537E1,3.2568126E0,9.380728E0,2.20477E2,1.2922451E1,2.0875175E2,3.728473E0,1.5404313E0,6.437821E0,5.114819E0,1.05945E0,2.1233088E1,3.1404502E0,8.324509E0,1.0562195E0,2.1654482E2,3.9321954E0,7.7347E0,5.1877513E0,7.762566E0,2.0098918E2,1.293882E0,2.4345908E0,1.0595387E0,5.378282E0,1.554314E0,1.9678774E1,1.0031924E0,2.1372576E0,1.9352345E0,2.1460957E2,2.1095862E0,1.8226093E0,1.5959455E0,6.1387544E0,2.5560424E0,5.2065234E0,1.995047E2,1.4844769E0,1.0284929E0,1.865028E1,1.7584238E0,2.1285115E2,1.206749E0,4.932006E0],"tree_param":{"num_deleted":"0","num_feature":"16384","num_nodes":"55","size_leaf_vector":"1"}},{"base_weights":[4.434707E-2,-7.352555E-1,8.2711613E-1,-8.978083E-1,3.0015558E-1,-5.5166644E-1,9.2081195E-1,-9.524231E-1,3.9268667E-1,6.1541903E-1,-8.290461E-1,-9.955649E-1,2.1578161E-1,9.956527E-1,-1.4149491E-1,6.781673E-2,-1.0080265E0,1.142677E0,-2.6837543E-1,8.087909E-1,-2.502093E-1,-3.5108042E-1,1.355183E-1,8.722515E-2,-3.5268345E-1,-2.9699185E-1,1.0164218E0,4.4882563E-1,-9.9478024E-1,1.1969314E0,-8.9092696E-1,-1.0697279E0,-1.7724277E-1,1.02073E-1,3.808571E-1,9.740958E-1,-2.0794445E-1,-2.5070998E-1,1.0491238E0,7.9978114E-1,-2.4364673E-1,2.9126548E-3,-3.6700422E-1,4.5395234E-1,2.2982221E-2,-2.9082465E-1,-7.793013E-2,-3.3175948E-1,4.0145606E-2,3.2929587E-1,-1.6874513E-1,3.1292018E-1,-3.197588E-2,-3.9627996E-1,2.5759476E-1,3.188159E-1,-1.5840659E-1,-1.6674768E-2,2.8481233E-1],"categories":[],"categories_nodes":[],"categories_segments":[],"categories_sizes":[],"default_left":[0,0,0,0,0,0,0,0,0,0,0,0,0,0,0,0,0,0,0,0,0,0,0,0,0,0,0,0,0,0,0,0,0,0,0,0,0,0,0,0,0,0,0,0,0,0,0,0,0,0,0,0,0,0,0,0,0,0,0],"id":5,"left_children":[1,3,5,7,9,11,13,15,17,19,21,23,-1,25,27,29,31,33,-1,35,-1,-1,-1,-1,-1,-1,37,39,41,43,45,47,49,-1,-1,51,-1,53,55,57,-1,-1,-1,-1,-1,-1,-1,-1,-1,-1,-1,-1,-1,-1,-1,-1,-1,-1,-1],"loss_changes":[2.441093E2,3.4005928E1,2.629042E1,1.2602005E1,1.0459518E1,8.233412E0,1.5028076E1,9.527496E0,8.506719E0,6.959055E0,3.3806162E0,2.7260742E0,0E0,8.225327E0,7.0951815E0,1.1409805E1,7.91922E0,1.1134386E-1,0E0,5.7128563E0,0E0,0E0,0E0,0E0,0E0,0E0,7.4621277E0,4.4072204E0,1.3224907E0,1.5897608E0,3.2557487E-2,6.5437317E0,6.577352E0,0E0,0E0,1.5045853E0,0E0,7.281866E0,4.1968536E0,9.6716547E-1,0E0,0E0,0E0,0E0,0E0,0E0,0E0,0E0,0E0,0E0,0E0,0E0,0E0,0E0,0E0,0E0,0E0,0E0,0E0],"parents":[2147483647,0,0,1,1,2,2,3,3,4,4,5,5,6,6,7,7,8,8,9,9,10,10,11,11,13,13,14,14,15,15,16,16,17,17,19,19,26,26,27,27,28,28,29,29,30,30,31,31,32,32,35,35,37,37,38,38,39,39],"right_children":[2,4,6,8,10,12,14,16,18,20,22,24,-1,26,28,30,32,34,-1,36,-1,-1,-1,-1,-1,-1,38,40,42,44,46,48,50,-1,-1,52,-1,54,56,58,-1,-1,-1,-1,-1,-1,-1,-1,-1,-1,-1,-1,-1,-1,-1,-1,-1,-1,-1],"split_conditions":[1.9363809E-1,1.9743723E-1,6.222687E-2,2.1560091E-1,1.2880905E-1,2.6464176E-1,1.4801238E-1,3.6886208E-2,-4.8614063E-5,6.1909128E-2,1.8671675E-1,1.7342368E-1,2.1578161E-1,8.183391E-2,1.1300446E-1,9.871018E-2,1.3796444E-1,-5.7211303E-4,-2.6837543E-1,1.2062116E-1,-2.502093E-1,-3.5108042E-1,1.355183E-1,8.722515E-2,-3.5268345E-1,-2.9699185E-1,1.381779E-1,1.1730403E-1,1.0323772E-1,4.3807633E-2,1.0606896E-1,3.746412E-1,-1.3147747E-4,1.02073E-1,3.808571E-1,2.7943805E-1,-2.0794445E-1,2.9121906E-2,1.0098248E-1,1.0237783E-1,-2.4364673E-1,2.9126548E-3,-3.6700422E-1,4.5395234E-1,2.2982221E-2,-2.9082465E-1,-7.793013E-2,-3.3175948E-1,4.0145606E-2,3.2929587E-1,-1.6874513E-1,3.1292018E-1,-3.197588E-2,-3.9627996E-1,2.5759476E-1,3.188159E-1,-1.5840659E-1,-1.6674768E-2,2.8481233E-1],"split_indices":[5706,5737,15608,11516,15454,544,4493,11448,4904,5199,8473,9520,0,7045,2879,3704,16083,36,0,15099,0,0,0,0,0,0,1241,15440,1311,30,38,14554,15825,0,0,11225,0,5820,8295,7937,0,0,0,0,0,0,0,0,0,0,0,0,0,0,0,0,0,0,0],"split_type":[0,0,0,0,0,0,0,0,0,0,0,0,0,0,0,0,0,0,0,0,0,0,0,0,0,0,0,0,0,0,0,0,0,0,0,0,0,0,0,0,0,0,0,0,0,0,0,0,0,0,0,0,0,0,0,0,0,0,0],"sum_hessian":[3.980195E2,1.994435E2,1.9857599E2,1.7249568E2,2.694781E1,1.2324641E1,1.8625136E2,1.6574327E2,6.752413E0,2.1421974E1,5.525835E0,9.294899E0,3.029743E0,1.7405194E2,1.2199409E1,8.55485E0,1.5718843E2,4.3375783E0,2.4148343E0,1.9290428E1,2.1315455E0,4.431485E0,1.0943499E0,1.0657744E0,8.229124E0,1.3186322E0,1.727333E2,7.490989E0,4.708419E0,3.8143013E0,4.7405486E0,1.4605357E2,1.1134861E1,1.0947152E0,3.2428632E0,1.7694407E1,1.5960221E0,4.1780057E0,1.6855531E2,6.146145E0,1.3448441E0,1.0502746E0,3.6581445E0,2.7011635E0,1.1131377E0,3.7395818E0,1.0009667E0,1.4187488E2,4.1786885E0,2.154758E0,8.980103E0,1.666558E1,1.0288256E0,2.0294414E0,2.148564E0,1.6743808E2,1.1172351E0,1.0084338E0,5.137711E0],"tree_param":{"num_deleted":"0","num_feature":"16384","num_nodes":"59","size_leaf_vector":"1"}},{"base_weights":[4.0725414E-2,-7.2148865E-1,7.2647136E-1,-8.179549E-1,6.2487763E-1,9.154237E-1,-1.2734197E-1,-3.6110717E-1,-1.0585514E0,8.9256585E-1,-2.1640986E-1,9.8300403E-1,-1.4384468E-1,3.9935842E-1,-7.536371E-1,-6.1353546E-1,5.8100677E-1,-1.103766E0,1.8917848E-1,3.2212996E-1,-4.2001277E-2,-1.9405846E-1,1.010377E0,6.439359E-1,-1.2698405E0,5.938347E-1,-2.7206606E-1,-1.0362076E0,3.0599755E-1,-9.766928E-1,1.9563492E-1,-5.9048885E-1,1.0700196E0,-1.9950065E-1,-3.3708632E-1,2.1698995E-1,-1.7591865E-1,-1.5192205E-1,1.0306857E0,-1.8587203E-1,3.095233E-1,-5.0943923E-1,5.794176E-3,-4.6842024E-1,8.718822E-1,-3.3169848E-1,-4.4774123E-2,-1.24266125E-1,2.1149623E-1,1.7632286E-1,-3.173445E-1,3.2720205E-1,-1.8435286E-1,-2.2783034E-1,-1.4694213E-2,3.0281842E-2,3.6274457E-1,-1.7643166E-1,9.227787E-2,-1.2575871E-1,3.1389135E-1,-2.5460827E-1,9.789073E-2,3.0520666E-1,-7.298181E-2],"categories":[],"categories_nodes":[],"categories_segments":[],"categories_sizes":[],"default_left":[0,0,0,0,0,0,0,0,0,0,0,0,0,0,0,0,0,0,0,0,0,0,0,0,0,0,0,0,0,0,0,0,0,0,0,0,0,0,0,0,0,0,0,0,0,0,0,0,0,0,0,0,0,0,0,0,0,0,0,0,0,0,0,0,0],"id":6,"left_children":[1,3,5,7,9,11,13,15,17,19,-1,21,23,25,27,29,31,33,35,-1,-1,-1,37,39,41,43,-1,45,47,49,51,53,55,57,-1,-1,-1,-1,59,-1,-1,-1,-1,61,63,-1,-1,-1,-1,-1,-1,-1,-1,-1,-1,-1,-1,-1,-1,-1,-1,-1,-1,-1,-1],"loss_changes":[1.6633643E2,2.0089195E1,2.7137848E1,1.5126404E1,4.4801464E0,9.967491E0,1.0602056E1,1.2292781E1,5.3936386E0,1.8953629E0,0E0,6.415886E0,8.893643E0,5.013652E0,4.6920776E0,1.19663E1,7.0021896E0,1.3708344E0,2.1091437E0,0E0,0E0,0E0,4.4468384E0,3.5891483E0,2.2878056E0,5.1157074E0,0E0,5.5963993E-1,1.3978196E0,4.1530247E0,1.0275202E1,3.2134926E-1,9.836359E-1,7.9662156E-1,0E0,0E0,0E0,0E0,3.293335E0,0E0,0E0,0E0,0E0,1.4727236E0,2.3533163E0,0E0,0E0,0E0,0E0,0E0,0E0,0E0,0E0,0E0,0E0,0E0,0E0,0E0,0E0,0E0,0E0,0E0,0E0,0E0,0E0],"parents":[2147483647,0,0,1,1,2,2,3,3,4,4,5,5,6,6,7,7,8,8,9,9,11,11,12,12,13,13,14,14,15,15,16,16,17,17,18,18,22,22,23,23,24,24,25,25,27,27,28,28,29,29,30,30,31,31,32,32,33,33,38,38,43,43,44,44],"right_children":[2,4,6,8,10,12,14,16,18,20,-1,22,24,26,28,30,32,34,36,-1,-1,-1,38,40,42,44,-1,46,48,50,52,54,56,58,-1,-1,-1,-1,60,-1,-1,-1,-1,62,64,-1,-1,-1,-1,-1,-1,-1,-1,-1,-1,-1,-1,-1,-1,-1,-1,-1,-1,-1,-1],"split_conditions":[1.4173141E-1,1.6112563E-1,1.0575819E-1,3.244595E-2,6.484231E-2,5.7847068E-2,-2.3428607E-4,1.5729047E-1,1.7811465E-1,9.322289E-2,-2.1640986E-1,7.4971125E-2,8.601487E-2,2.8618586E-1,2.3882818E-1,1.8965939E-1,8.054043E-2,-6.2029826E-4,1.8025802E-1,3.2212996E-1,-4.2001277E-2,-1.9405846E-1,5.8824014E-2,5.1068276E-2,8.518847E-2,8.710433E-3,-2.7206606E-1,2.6643133E-1,8.622954E-2,-3.0017903E-4,1.0217858E-1,1.8829402E-1,2.4740551E-1,1.1266089E-1,-3.3708632E-1,2.1698995E-1,-1.7591865E-1,-1.5192205E-1,-5.0816877E-4,-1.8587203E-1,3.095233E-1,-5.0943923E-1,5.794176E-3,4.7678173E-2,1.8467155E-1,-3.3169848E-1,-4.4774123E-2,-1.24266125E-1,2.1149623E-1,1.7632286E-1,-3.173445E-1,3.2720205E-1,-1.8435286E-1,-2.2783034E-1,-1.4694213E-2,3.0281842E-2,3.6274457E-1,-1.7643166E-1,9.227787E-2,-1.2575871E-1,3.1389135E-1,-2.5460827E-1,9.789073E-2,3.0520666E-1,-7.298181E-2],"split_indices":[14251,7768,11221,12539,11074,13368,5233,12695,6870,7334,0,9336,16032,909,6507,12597,10679,16098,15761,0,0,0,4307,10736,11457,2374,0,3017,7256,9600,3499,12064,15348,2497,0,0,0,0,12647,0,0,0,0,2467,10925,0,0,0,0,0,0,0,0,0,0,0,0,0,0,0,0,0,0,0,0],"split_type":[0,0,0,0,0,0,0,0,0,0,0,0,0,0,0,0,0,0,0,0,0,0,0,0,0,0,0,0,0,0,0,0,0,0,0,0,0,0,0,0,0,0,0,0,0,0,0,0,0,0,0,0,0,0,0,0,0,0,0,0,0,0,0,0,0],"sum_hessian":[3.1623163E2,1.4974089E2,1.6649074E2,1.400956E2,9.645285E0,1.3626303E2,3.0227718E1,4.9191334E1,9.090427E1,8.32661E0,1.3186746E0,1.2815862E2,8.1044035E0,1.6616205E1,1.3611514E1,3.907139E1,1.0119948E1,8.783667E1,3.0675955E0,7.0496116E0,1.2769984E0,1.7430187E0,1.264156E2,5.020223E0,3.0841806E0,1.4937647E1,1.6785575E0,1.0763376E1,2.8481379E0,2.6825167E1,1.2246221E1,2.919171E0,7.200777E0,2.1245694E0,8.57121E1,1.8564787E0,1.2111168E0,1.3539996E0,1.250616E2,1.0386373E0,3.9815857E0,2.0769281E0,1.0072526E0,2.9567974E0,1.198085E1,9.753083E0,1.0102935E0,1.0017332E0,1.8464048E0,1.0145466E0,2.5810621E1,5.65375E0,6.5924706E0,1.9182512E0,1.0009199E0,1.1206412E0,6.080136E0,1.1123649E0,1.0122044E0,1.0574834E0,1.2400412E2,1.953931E0,1.0028663E0,1.0675871E1,1.3049792E0],"tree_param":{"num_deleted":"0","num_feature":"16384","num_nodes":"65","size_leaf_vector":"1"}},{"base_weights":[3.481254E-2,-6.27436E-1,7.304312E-1,-7.4636346E-1,4.3512374E-1,8.595425E-1,-1.815881E-1,1.3294482E-1,-8.312283E-1,7.104873E-1,-5.1905423E-1,9.3340546E-1,-3.18652E-1,-7.8096884E-1,4.8023576E-1,-7.499592E-1,8.497057E-1,-9.5079523E-1,-1.719947E-1,8.858338E-1,-1.0613424E-1,-2.4789576E-1,4.2903673E-2,-4.3182904E-1,9.782109E-1,2.1230124E-1,-8.9140385E-1,1.2689559E-1,-1.0007334E0,8.110588E-1,-1.8186778E-1,-1.5970513E-2,-2.6819533E-1,3.457958E-1,-1.16045475E-1,-1.0257657E0,-8.182073E-2,8.462814E-1,-8.788285E-1,2.8818053E-1,3.7136786E-2,-3.8551348E-1,2.0380554E-1,-1.5368159E-1,1.0062603E0,-3.47513E-1,2.0639319E-2,-3.4182113E-1,-3.5443734E-2,2.8056398E-1,1.5001056E-2,-3.177078E-1,1.9150068E-1,1.3492142E-1,-2.5102845E-1,3.5055944E-1,-1.7463112E-1,3.815479E-2,-2.986307E-1,3.0751723E-1,-5.0102863E-2],"categories":[],"categories_nodes":[],"categories_segments":[],"categories_sizes":[],"default_left":[0,0,0,0,0,0,0,0,0,0,0,0,0,0,0,0,0,0,0,0,0,0,0,0,0,0,0,0,0,0,0,0,0,0,0,0,0,0,0,0,0,0,0,0,0,0,0,0,0,0,0,0,0,0,0,0,0,0,0,0,0],"id":7,"left_children":[1,3,5,7,9,11,13,15,17,19,21,23,25,27,29,31,33,35,37,39,-1,-1,-1,41,43,-1,45,-1,47,49,-1,-1,-1,-1,-1,51,53,55,57,-1,-1,-1,-1,-1,59,-1,-1,-1,-1,-1,-1,-1,-1,-1,-1,-1,-1,-1,-1,-1,-1],"loss_changes":[1.157896E2,1.6599808E1,1.4588112E1,8.781288E0,3.9410033E0,9.65593E0,6.7317953E0,7.6549916E0,8.20002E0,2.3611317E0,8.551383E-1,6.6280365E0,4.798248E0,2.7489624E0,3.451517E0,5.04313E-1,2.9142742E0,5.7529755E0,1.3347316E1,4.3411732E-1,0E0,0E0,0E0,4.5869775E0,4.6347885E0,0E0,1.3595793E0,0E0,8.114648E-1,5.901284E-1,0E0,0E0,0E0,0E0,0E0,5.2363205E0,3.6679678E0,4.217251E0,1.3966675E0,0E0,0E0,0E0,0E0,0E0,2.3115005E0,0E0,0E0,0E0,0E0,0E0,0E0,0E0,0E0,0E0,0E0,0E0,0E0,0E0,0E0,0E0,0E0],"parents":[2147483647,0,0,1,1,2,2,3,3,4,4,5,5,6,6,7,7,8,8,9,9,10,10,11,11,12,12,13,13,14,14,15,15,16,16,17,17,18,18,19,19,23,23,24,24,26,26,28,28,29,29,35,35,36,36,37,37,38,38,44,44],"right_children":[2,4,6,8,10,12,14,16,18,20,22,24,26,28,30,32,34,36,38,40,-1,-1,-1,42,44,-1,46,-1,48,50,-1,-1,-1,-1,-1,52,54,56,58,-1,-1,-1,-1,-1,60,-1,-1,-1,-1,-1,-1,-1,-1,-1,-1,-1,-1,-1,-1,-1,-1],"split_conditions":[1.9363809E-1,1.9235088E-1,8.5226014E-2,-2.703683E-4,4.414763E-2,4.7323365E-2,1.221258E-1,7.834554E-2,1.20034605E-1,7.947955E-2,9.15772E-2,1.3459302E-1,2.177039E-2,-4.4056226E-4,7.0280656E-2,4.4774584E-2,1.1684372E-1,1.3796444E-1,3.093712E-3,2.1885289E-1,-1.0613424E-1,-2.4789576E-1,4.2903673E-2,9.6378095E-2,6.403718E-2,2.1230124E-1,2.9355568E-1,1.2689559E-1,2.0213433E-1,7.213317E-2,-1.8186778E-1,-1.5970513E-2,-2.6819533E-1,3.457958E-1,-1.16045475E-1,2.6692024E-1,1.7231402E-1,5.4976903E-2,9.0677276E-2,2.8818053E-1,3.7136786E-2,-3.8551348E-1,2.0380554E-1,-1.5368159E-1,1.5800849E-1,-3.47513E-1,2.0639319E-2,-3.4182113E-1,-3.5443734E-2,2.8056398E-1,1.5001056E-2,-3.177078E-1,1.9150068E-1,1.3492142E-1,-2.5102845E-1,3.5055944E-1,-1.7463112E-1,3.815479E-2,-2.986307E-1,3.0751723E-1,-5.0102863E-2],"split_indices":[5706,1641,5589,3782,5199,4792,5504,7771,11387,7474,4923,1241,8736,12527,7319,15282,12522,16083,1755,11024,0,0,0,2122,10510,0,283,0,7211,14354,0,0,0,0,0,7104,7024,1518,3535,0,0,0,0,0,3989,0,0,0,0,0,0,0,0,0,0,0,0,0,0,0,0],"split_type":[0,0,0,0,0,0,0,0,0,0,0,0,0,0,0,0,0,0,0,0,0,0,0,0,0,0,0,0,0,0,0,0,0,0,0,0,0,0,0,0,0,0,0,0,0,0,0,0,0,0,0,0,0,0,0,0,0,0,0,0,0],"sum_hessian":[2.4935423E2,1.2779131E2,1.2156291E2,1.1519558E2,1.2595732E1,1.0653822E2,1.5024691E1,1.0089449E1,1.0510613E2,9.973035E0,2.622697E0,1.0044869E2,6.0895324E0,7.7898173E0,7.2348733E0,4.50002E0,5.5894294E0,8.859513E1,1.6511003E1,8.706268E0,1.2667669E0,1.6218882E0,1.0008088E0,2.9173813E0,9.753131E1,2.096758E0,3.9927747E0,1.0596931E0,6.7301245E0,5.740424E0,1.4944495E0,1.0055041E0,3.494516E0,4.5439863E0,1.0454429E0,8.139258E1,7.202547E0,6.684263E0,9.826741E0,7.6910987E0,1.0151695E0,1.5617385E0,1.3556429E0,1.4826607E0,9.6048645E1,2.9626548E0,1.0301199E0,5.564812E0,1.165312E0,4.738563E0,1.0018609E0,8.0154144E1,1.238434E0,4.4638176E0,2.7387297E0,5.6022844E0,1.0819788E0,1.0112908E0,8.815451E0,9.465844E1,1.3902102E0],"tree_param":{"num_deleted":"0","num_feature":"16384","num_nodes":"61","size_leaf_vector":"1"}},{"base_weights":[3.008542E-2,-6.0330325E-1,6.6902703E-1,-7.9255474E-1,-3.3981077E-2,7.999736E-1,-4.3176994E-1,-9.083036E-1,2.1460904E-1,8.137846E-1,-3.7773296E-1,-5.1431435E-1,8.894438E-1,-9.7165126E-1,2.4506769E-1,-9.72929E-1,6.1034173E-2,6.560422E-1,-2.2810961E-1,1.0709969E0,-1.332329E-1,-7.370915E-1,7.054363E-1,1.5472487E-1,-1.0086209E0,9.4602007E-1,-1.6126359E-1,-2.229187E-2,-3.4215403E-1,-1.9203618E-1,2.3387255E-1,9.650809E-2,-1.0328108E0,-2.2384073E-1,2.9501832E-1,-7.407595E-2,2.6934108E-1,3.5046187E-1,7.640182E-2,1.4062782E-1,-8.769754E-1,-9.75799E-3,2.658022E-1,-2.5403032E-2,-3.7255645E-1,-9.391641E-2,9.7369206E-1,-2.6227677E-1,1.626579E-1,-7.269521E-2,1.8128195E-1,-3.1783938E-1,2.9910697E-2,-2.9378432E-1,5.956475E-2,-4.6892565E-2,2.9962078E-1],"categories":[],"categories_nodes":[],"categories_segments":[],"categories_sizes":[],"default_left":[0,0,0,0,0,0,0,0,0,0,0,0,0,0,0,0,0,0,0,0,0,0,0,0,0,0,0,0,0,0,0,0,0,0,0,0,0,0,0,0,0,0,0,0,0,0,0,0,0,0,0,0,0,0,0,0,0],"id":8,"left_children":[1,3,5,7,9,11,13,15,17,19,21,23,25,27,29,31,33,35,-1,37,-1,39,41,-1,43,45,47,-1,-1,-1,-1,49,51,-1,-1,-1,-1,-1,-1,-1,53,-1,-1,-1,-1,-1,55,-1,-1,-1,-1,-1,-1,-1,-1,-1,-1],"loss_changes":[8.089215E1,1.0790932E1,1.4685413E1,8.974304E0,7.911597E0,1.0953175E1,4.340042E0,4.302704E0,4.1879554E0,3.0138507E0,8.012393E0,3.7394233E0,5.142082E0,8.9198923E-1,3.233551E0,4.170208E0,4.5863347E0,1.6269071E0,0E0,2.4259853E-1,0E0,2.9315672E0,7.358837E-1,0E0,8.884196E-1,3.0848465E0,3.053524E0,0E0,0E0,0E0,0E0,8.8362086E-1,1.9251556E0,0E0,0E0,0E0,0E0,0E0,0E0,0E0,1.706008E0,0E0,0E0,0E0,0E0,0E0,2.3725052E0,0E0,0E0,0E0,0E0,0E0,0E0,0E0,0E0,0E0,0E0],"parents":[2147483647,0,0,1,1,2,2,3,3,4,4,5,5,6,6,7,7,8,8,9,9,10,10,11,11,12,12,13,13,14,14,15,15,16,16,17,17,19,19,21,21,22,22,24,24,25,25,26,26,31,31,32,32,40,40,46,46],"right_children":[2,4,6,8,10,12,14,16,18,20,22,24,26,28,30,32,34,36,-1,38,-1,40,42,-1,44,46,48,-1,-1,-1,-1,50,52,-1,-1,-1,-1,-1,-1,-1,54,-1,-1,-1,-1,-1,56,-1,-1,-1,-1,-1,-1,-1,-1,-1,-1],"split_conditions":[1.5783636E-1,1.8009688E-1,3.3138748E-3,3.0069494E-1,9.211584E-2,4.9446203E-2,1.6080844E-1,2.3434114E-1,1.3818689E-1,1.2635328E-1,2.0298204E-1,2.2772567E-2,1.2629396E-1,1.896667E-2,7.567701E-2,-1.497165E-4,5.1547676E-2,1.4826463E-1,-2.2810961E-1,1.2673502E-1,-1.332329E-1,6.4049505E-2,1.6844954E-1,1.5472487E-1,6.796812E-2,-7.350486E-4,-5.5373454E-4,-2.229187E-2,-3.4215403E-1,-1.9203618E-1,2.3387255E-1,-1.4435219E-3,2.0314664E-1,-2.2384073E-1,2.9501832E-1,-7.407595E-2,2.6934108E-1,3.5046187E-1,7.640182E-2,1.4062782E-1,1.0225108E-1,-9.75799E-3,2.658022E-1,-2.5403032E-2,-3.7255645E-1,-9.391641E-2,1.5224082E-2,-2.6227677E-1,1.626579E-1,-7.269521E-2,1.8128195E-1,-3.1783938E-1,2.9910697E-2,-2.9378432E-1,5.956475E-2,-4.6892565E-2,2.9962078E-1],"split_indices":[8466,317,8303,545,6958,2885,1180,7147,12327,14129,10071,13399,15099,14904,2630,13274,7529,13740,0,11903,0,4498,11555,0,14879,14977,7583,0,0,0,0,609,13948,0,0,0,0,0,0,0,2137,0,0,0,0,0,2032,0,0,0,0,0,0,0,0,0,0],"split_type":[0,0,0,0,0,0,0,0,0,0,0,0,0,0,0,0,0,0,0,0,0,0,0,0,0,0,0,0,0,0,0,0,0,0,0,0,0,0,0,0,0,0,0,0,0,0,0,0,0,0,0,0,0,0,0,0,0],"sum_hessian":[1.9788521E2,9.940244E1,9.848277E1,7.4308914E1,2.5093527E1,8.82573E1,1.0225472E1,6.673725E1,7.5716615E0,6.8449802E0,1.8248547E1,5.322535E0,8.293477E1,5.445934E0,4.779538E0,6.2562527E1,4.1747246E0,5.437071E0,2.1345906E0,5.8062973E0,1.0386829E0,1.39424305E1,4.306116E0,1.7118678E0,3.6106672E0,7.879179E1,4.1429806E0,1.0905766E0,4.355357E0,1.7250779E0,3.0544603E0,3.2849274E0,5.92776E1,2.3282764E0,1.8464482E0,1.1437831E0,4.2932878E0,4.8032594E0,1.0030382E0,1.2048783E0,1.2737552E1,1.0076973E0,3.298419E0,1.0024741E0,2.6081932E0,1.4726596E0,7.731912E1,1.936962E0,2.2060184E0,2.2837713E0,1.0011562E0,5.7977592E1,1.300008E0,1.1712889E1,1.0246632E0,1.5628015E0,7.5756325E1],"tree_param":{"num_deleted":"0","num_feature":"16384","num_nodes":"57","size_leaf_vector":"1"}},{"base_weights":[2.6422119E-2,-4.8301944E-1,7.3100936E-1,1.3266318E-1,-7.2332424E-1,-5.3175205E-1,8.1053895E-1,5.7750946E-1,-4.229956E-1,-8.5555524E-1,-2.5902675E-2,-3.2335097E-1,1.7462847E-1,8.9726806E-1,-5.74426E-2,7.845458E-1,-1.9887021E-1,7.226096E-2,-9.843565E-1,-1.8202437E-1,-9.42751E-1,4.5971414E-1,-6.482513E-1,-1.16312414E-1,9.37216E-1,-5.9253794E-1,5.2605826E-1,9.3184125E-1,-1.1681945E-1,-4.0242246E-1,8.091262E-1,-8.7563425E-2,-3.199846E-1,-6.3334703E-1,1.878576E-1,-9.816911E-1,1.3459875E-1,7.200449E-1,-1.516732E-1,-2.520151E-1,2.9008323E-2,9.652985E-1,-9.101768E-2,1.5318904E-3,-2.4048501E-1,1.0852752E-3,2.1501613E-1,1.759243E-2,3.024569E-1,4.596352E-2,-2.2592922E-1,3.061021E-1,4.8834074E-2,5.1403675E-2,-2.5665697E-1,-3.0686992E-1,6.0242444E-2,2.7198482E-1,-2.821405E-2,2.982682E-1,-4.9223434E-3],"categories":[],"categories_nodes":[],"categories_segments":[],"categories_sizes":[],"default_left":[0,0,0,0,0,0,0,0,0,0,0,0,0,0,0,0,0,0,0,0,0,0,0,0,0,0,0,0,0,0,0,0,0,0,0,0,0,0,0,0,0,0,0,0,0,0,0,0,0,0,0,0,0,0,0,0,0,0,0,0,0],"id":9,"left_children":[1,3,5,7,9,11,13,15,17,19,21,-1,-1,23,25,27,-1,29,31,33,35,37,39,-1,41,43,45,47,-1,49,51,-1,-1,53,-1,55,-1,57,-1,-1,-1,59,-1,-1,-1,-1,-1,-1,-1,-1,-1,-1,-1,-1,-1,-1,-1,-1,-1,-1,-1],"loss_changes":[5.7245544E1,1.3794811E1,7.150421E0,6.878231E0,6.1337547E0,3.405981E0,4.8197594E0,4.456497E0,3.5491533E0,3.1220245E0,3.8250208E0,0E0,0E0,3.3224754E0,2.4017308E0,2.7134285E0,0E0,2.9762187E0,2.6584625E-2,3.1934264E0,3.1177979E0,2.1583595E0,8.713441E-1,0E0,2.2508774E0,4.9917114E-1,3.6913264E-1,7.657471E-1,0E0,1.1435475E0,2.8457975E-1,0E0,0E0,1.1150932E0,0E0,2.563057E0,0E0,1.0020709E0,0E0,0E0,0E0,1.5838623E0,0E0,0E0,0E0,0E0,0E0,0E0,0E0,0E0,0E0,0E0,0E0,0E0,0E0,0E0,0E0,0E0,0E0,0E0,0E0],"parents":[2147483647,0,0,1,1,2,2,3,3,4,4,5,5,6,6,7,7,8,8,9,9,10,10,13,13,14,14,15,15,17,17,18,18,19,19,20,20,21,21,22,22,24,24,25,25,26,26,27,27,29,29,30,30,33,33,35,35,37,37,41,41],"right_children":[2,4,6,8,10,12,14,16,18,20,22,-1,-1,24,26,28,-1,30,32,34,36,38,40,-1,42,44,46,48,-1,50,52,-1,-1,54,-1,56,-1,58,-1,-1,-1,60,-1,-1,-1,-1,-1,-1,-1,-1,-1,-1,-1,-1,-1,-1,-1,-1,-1,-1,-1],"split_conditions":[1.9148488E-1,3.5331845E-2,7.742786E-2,8.309449E-2,6.535648E-2,9.4927326E-2,1.5622585E-1,7.408124E-2,8.934516E-2,-2.5313345E-4,1.21526554E-1,-3.2335097E-1,1.7462847E-1,1.865973E-2,8.737692E-2,2.3242879E-1,-1.9887021E-1,2.2164889E-1,2.0129682E-2,1.5161961E-1,4.565128E-1,7.168274E-2,1.535715E-1,-1.16312414E-1,1.950987E-1,5.1121835E-2,2.1159087E-1,-2.0979176E-5,-1.1681945E-1,-6.8319496E-4,8.64441E-2,-8.7563425E-2,-3.199846E-1,-9.260209E-5,1.878576E-1,1.5060034E-1,1.3459875E-1,8.0511086E-2,-1.516732E-1,-2.520151E-1,2.9008323E-2,1.1263556E-1,-9.101768E-2,1.5318904E-3,-2.4048501E-1,1.0852752E-3,2.1501613E-1,1.759243E-2,3.024569E-1,4.596352E-2,-2.2592922E-1,3.061021E-1,4.8834074E-2,5.1403675E-2,-2.5665697E-1,-3.0686992E-1,6.0242444E-2,2.7198482E-1,-2.821405E-2,2.982682E-1,-4.9223434E-3],"split_indices":[13593,14439,16256,15476,1159,1208,8669,8701,10065,6714,5251,0,0,10459,7129,14680,0,4969,12956,351,9910,7341,14055,0,15831,11017,14536,10914,0,2785,6625,0,0,8293,0,2147,0,7804,0,0,0,15119,0,0,0,0,0,0,0,0,0,0,0,0,0,0,0,0,0,0,0],"split_type":[0,0,0,0,0,0,0,0,0,0,0,0,0,0,0,0,0,0,0,0,0,0,0,0,0,0,0,0,0,0,0,0,0,0,0,0,0,0,0,0,0,0,0,0,0,0,0,0,0,0,0,0,0,0,0,0,0,0,0,0,0],"sum_hessian":[1.5749864E2,9.159017E1,6.590848E1,2.5838228E1,6.575194E1,3.5681174E0,6.234036E1,1.4328151E1,1.15100765E1,5.5081715E1,1.0670227E1,2.4159715E0,1.1521459E0,5.6646473E1,5.693882E0,1.2593659E1,1.7344916E0,6.5779786E0,4.932098E0,6.667455E0,4.8414257E1,6.140296E0,4.529931E0,1.4454775E0,5.5200996E1,2.962059E0,2.731823E0,1.1372922E1,1.2207375E0,4.2767797E0,2.301199E0,1.0065929E0,3.9255052E0,4.417184E0,2.250271E0,4.738267E1,1.0315872E0,5.0361533E0,1.1041424E0,3.5008984E0,1.029033E0,5.4196125E1,1.004874E0,1.0205189E0,1.9415401E0,1.0028498E0,1.7289733E0,1.0566003E0,1.0316322E1,1.872675E0,2.4041047E0,1.2983072E0,1.0028918E0,1.0052149E0,3.4119692E0,4.5917473E1,1.4651983E0,4.0047126E0,1.031441E0,5.2632404E1,1.5637196E0],"tree_param":{"num_deleted":"0","num_feature":"16384","num_nodes":"61","size_leaf_vector":"1"}},{"base_weights":[2.0701585E-2,-4.540392E-1,6.767339E-1,7.457315E-1,-5.6578606E-1,8.2172054E-1,-1.8849103E-1,-7.6704465E-2,2.8979534E-1,-6.8323195E-1,2.7898848E-1,9.243726E-1,-1.3665861E-1,1.6529329E-1,-3.7279946E-1,-8.393944E-1,-7.7010445E-2,5.9080833E-1,-4.322325E-1,-1.3126361E-1,9.708172E-1,4.1352993E-1,-1.8653584E-1,-5.626132E-1,2.1521752E-1,-8.857049E-1,1.6058435E-1,4.5449573E-1,-5.906742E-1,2.3929445E-1,-8.9279376E-2,1.348184E-2,-1.9672264E-1,3.6307395E-2,2.989084E-1,1.7583738E-1,7.198519E-3,-1.0645117E-2,-2.2430433E-1,-2.8653458E-1,1.1788762E-2,-9.510412E-2,2.9407346E-1,-2.4715595E-1,1.149269E-1],"categories":[],"categories_nodes":[],"categories_segments":[],"categories_sizes":[],"default_left":[0,0,0,0,0,0,0,0,0,0,0,0,0,0,0,0,0,0,0,0,0,0,0,0,0,0,0,0,0,0,0,0,0,0,0,0,0,0,0,0,0,0,0,0,0],"id":10,"left_children":[1,3,5,7,9,11,13,-1,-1,15,17,19,21,23,-1,25,27,29,31,-1,33,35,-1,37,-1,39,-1,41,43,-1,-1,-1,-1,-1,-1,-1,-1,-1,-1,-1,-1,-1,-1,-1,-1],"loss_changes":[4.0187344E1,1.0462122E1,6.949173E0,1.7494946E0,7.043936E0,4.708292E0,3.4078016E0,0E0,0E0,5.703926E0,2.282634E0,3.0939102E0,1.6923519E0,3.3419914E0,0E0,3.5522575E0,3.9766657E0,1.4827921E0,3.8821667E-1,0E0,7.719345E-1,1.9571203E-1,0E0,3.358034E-1,0E0,3.064949E0,0E0,3.2476115E0,1.982691E0,0E0,0E0,0E0,0E0,0E0,0E0,0E0,0E0,0E0,0E0,0E0,0E0,0E0,0E0,0E0,0E0],"parents":[2147483647,0,0,1,1,2,2,3,3,4,4,5,5,6,6,9,9,10,10,11,11,12,12,13,13,15,15,16,16,17,17,18,18,20,20,21,21,23,23,25,25,27,27,28,28],"right_children":[2,4,6,8,10,12,14,-1,-1,16,18,20,22,24,-1,26,28,30,32,-1,34,36,-1,38,-1,40,-1,42,44,-1,-1,-1,-1,-1,-1,-1,-1,-1,-1,-1,-1,-1,-1,-1,-1],"split_conditions":[1.8612726E-1,-4.5609623E-4,1.4111623E-1,1.6406056E-2,2.1920627E-1,1.183682E-1,8.3579294E-2,-7.6704465E-2,2.8979534E-1,1.8965939E-1,7.892826E-2,8.771162E-2,1.0710439E-1,1.7855161E-1,-3.7279946E-1,3.4043226E-1,6.984921E-3,1.4696072E-1,7.776359E-2,-1.3126361E-1,5.9701588E-2,2.014198E-2,-1.8653584E-1,4.5362804E-2,2.1521752E-1,1.7886533E-1,1.6058435E-1,-3.1878204E-5,1.8826957E-1,2.3929445E-1,-8.9279376E-2,1.348184E-2,-1.9672264E-1,3.6307395E-2,2.989084E-1,1.7583738E-1,7.198519E-3,-1.0645117E-2,-2.2430433E-1,-2.8653458E-1,1.1788762E-2,-9.510412E-2,2.9407346E-1,-2.4715595E-1,1.149269E-1],"split_indices":[4202,652,4537,15418,9688,9365,1687,0,0,12597,12510,15296,7463,13593,0,375,12195,4491,7690,0,1859,3144,0,16031,0,2760,0,13495,9237,0,0,0,0,0,0,0,0,0,0,0,0,0,0,0,0],"split_type":[0,0,0,0,0,0,0,0,0,0,0,0,0,0,0,0,0,0,0,0,0,0,0,0,0,0,0,0,0,0,0,0,0,0,0,0,0,0,0,0,0,0,0,0,0],"sum_hessian":[1.2704842E2,7.388738E1,5.316104E1,5.812122E0,6.8075264E1,4.557438E1,7.5866632E0,1.0188615E0,4.79326E0,5.9934074E1,8.141189E0,4.1197224E1,4.377155E0,6.311652E0,1.275011E0,4.735167E1,1.2582406E1,5.777478E0,2.36371E0,1.0808916E0,4.011633E1,2.1201987E0,2.256956E0,2.7141602E0,3.5974922E0,4.615257E1,1.1991019E0,6.240415E0,6.341991E0,4.7692537E0,1.0082247E0,1.0088491E0,1.3548608E0,1.3381196E0,3.877821E1,1.1194956E0,1.0007031E0,1.0149653E0,1.6991949E0,4.290081E1,3.2517576E0,2.690002E0,3.550413E0,5.240938E0,1.1010528E0],"tree_param":{"num_deleted":"0","num_feature":"16384","num_nodes":"45","size_leaf_vector":"1"}},{"base_weights":[2.0693563E-2,6.447791E-1,-4.0400693E-1,8.3082706E-1,-1.3158743E-1,7.4693274E-1,-5.1135737E-1,3.026324E-2,9.3516845E-1,-5.8773154E-1,1.8654868E-1,-8.565711E-4,2.7449206E-1,-6.683026E-1,5.8705322E-2,-2.2887266E-1,4.4691533E-1,-2.9234353E-2,9.744413E-1,4.8115715E-2,-9.343052E-1,-1.6623074E-1,-9.253424E-1,5.433374E-1,-4.4772422E-1,2.0679618E-1,-3.913154E-2,2.9958466E-1,4.658996E-2,-6.434333E-2,-3.2956746E-1,3.5300085E-1,-4.998715E-1,7.58396E-2,-1.0016413E0,7.4976957E-1,-1.0250269E-1,1.543112E-1,-6.995175E-1,1.7110464E-1,-1.0737509E-1,1.451254E-1,-2.198352E-1,1.6651392E-1,-1.3050772E-1,-3.0762282E-1,-5.6021433E-2,5.6693433E-3,2.659263E-1,-2.7422526E-1,5.565775E-2],"categories":[],"categories_nodes":[],"categories_segments":[],"categories_sizes":[],"default_left":[0,0,0,0,0,0,0,0,0,0,0,0,0,0,0,0,0,0,0,0,0,0,0,0,0,0,0,0,0,0,0,0,0,0,0,0,0,0,0,0,0,0,0,0,0,0,0,0,0,0,0],"id":11,"left_children":[1,3,5,7,9,11,13,15,17,19,-1,-1,-1,21,23,-1,25,-1,27,-1,29,31,33,35,37,-1,-1,-1,-1,-1,-1,39,41,43,45,47,-1,-1,49,-1,-1,-1,-1,-1,-1,-1,-1,-1,-1,-1,-1],"loss_changes":[2.7970943E1,6.280073E0,8.144437E0,2.861868E0,3.5003664E0,7.291527E-1,5.2338076E0,2.0009391E0,1.3349533E0,1.7563331E0,0E0,0E0,0E0,5.7318897E0,3.5451143E0,0E0,6.390523E-1,0E0,4.3001175E-1,0E0,2.8235292E-1,3.0628963E0,2.3634567E0,1.5946603E0,2.0862956E0,0E0,0E0,0E0,0E0,0E0,0E0,1.3018465E0,2.7732275E0,9.881565E-1,3.488121E-1,6.078334E-1,0E0,0E0,1.322725E0,0E0,0E0,0E0,0E0,0E0,0E0,0E0,0E0,0E0,0E0,0E0,0E0],"parents":[2147483647,0,0,1,1,2,2,3,3,4,4,5,5,6,6,7,7,8,8,9,9,13,13,14,14,16,16,18,18,20,20,21,21,22,22,23,23,24,24,31,31,32,32,33,33,34,34,35,35,38,38],"right_children":[2,4,6,8,10,12,14,16,18,20,-1,-1,-1,22,24,-1,26,-1,28,-1,30,32,34,36,38,-1,-1,-1,-1,-1,-1,40,42,44,46,48,-1,-1,50,-1,-1,-1,-1,-1,-1,-1,-1,-1,-1,-1,-1],"split_conditions":[5.71521E-4,7.222496E-2,-4.5609623E-4,3.8491856E-2,2.347883E-1,7.7248365E-2,2.4424353E-1,7.8902304E-2,7.874039E-2,6.579409E-2,1.8654868E-1,-8.565711E-4,2.7449206E-1,-9.481751E-4,2.468574E-2,-2.2887266E-1,3.631065E-2,-2.9234353E-2,6.6618696E-2,4.8115715E-2,3.383279E-2,2.3299111E-2,-2.3191831E-5,1.5534781E-1,-1.6629124E-4,2.0679618E-1,-3.913154E-2,2.9958466E-1,4.658996E-2,-6.434333E-2,-3.2956746E-1,4.5874037E-2,5.9096675E-2,8.80223E-2,2.1122625E-1,7.6973975E-2,-1.0250269E-1,1.543112E-1,2.1465842E-1,1.7110464E-1,-1.0737509E-1,1.451254E-1,-2.198352E-1,1.6651392E-1,-1.3050772E-1,-3.0762282E-1,-5.6021433E-2,5.6693433E-3,2.659263E-1,-2.7422526E-1,5.565775E-2],"split_indices":[755,4247,652,1429,5337,6748,12881,8962,8121,248,0,0,0,2301,6116,0,14355,0,15959,0,65,13417,5616,12522,5270,0,0,0,0,0,0,136,3533,6915,5332,2976,0,0,551,0,0,0,0,0,0,0,0,0,0,0,0],"split_type":[0,0,0,0,0,0,0,0,0,0,0,0,0,0,0,0,0,0,0,0,0,0,0,0,0,0,0,0,0,0,0,0,0,0,0,0,0,0,0,0,0,0,0,0,0,0,0,0,0,0,0],"sum_hessian":[1.0354822E2,4.1721474E1,6.1826744E1,3.3599556E1,8.121922E0,4.766425E0,5.7060318E1,4.0229955E0,2.957656E1,5.195997E0,2.9259238E0,1.0526356E0,3.7137892E0,4.4607105E1,1.2453213E1,1.0992776E0,2.9237177E0,1.0293789E0,2.854718E1,1.8151094E0,3.380888E0,1.5661824E1,2.8945282E1,6.326314E0,6.1268992E0,1.9225806E0,1.0011373E0,2.7516035E1,1.0311443E0,1.0565237E0,2.3243644E0,6.104152E0,9.557672E0,2.0501068E0,2.6895176E1,5.253689E0,1.0726247E0,1.0545739E0,5.072325E0,4.826333E0,1.2778195E0,1.6236784E0,7.933993E0,1.0132065E0,1.0369003E0,2.588196E1,1.0132154E0,1.0068586E0,4.2468305E0,4.056154E0,1.0161717E0],"tree_param":{"num_deleted":"0","num_feature":"16384","num_nodes":"51","size_leaf_vector":"1"}},{"base_weights":[1.9862445E-2,6.58982E-1,-3.1778827E-1,-3.002652E-1,8.313481E-1,-5.2911276E-1,2.0144394E-1,-1.0050399E0,1.5160334E-1,-9.82615E-2,9.0965533E-1,-7.0944107E-1,9.859554E-3,5.493547E-1,-5.305296E-1,-3.7193054E-1,-7.5269915E-2,2.916984E-1,-5.9645552E-2,-8.1047237E-1,5.31855E-2,4.2414212E-1,-5.145253E-1,7.783239E-1,-2.383164E-1,7.423715E-2,-2.301472E-1,-8.45606E-2,-9.379934E-1,1.9884506E-1,-1.4073147E-1,-1.3198625E-1,6.516197E-1,-2.3661718E-1,9.242524E-2,8.762501E-1,-5.024824E-3,8.908026E-2,-1.9189553E-1,-1.0929539E-1,1.3305748E-1,-2.9294935E-1,-1.8853005E-2,2.5006145E-1,-2.821582E-2,2.8140312E-1,6.112125E-2],"categories":[],"categories_nodes":[],"categories_segments":[],"categories_sizes":[],"default_left":[0,0,0,0,0,0,0,0,0,0,0,0,0,0,0,0,0,0,0,0,0,0,0,0,0,0,0,0,0,0,0,0,0,0,0,0,0,0,0,0,0,0,0,0,0,0,0],"id":12,"left_children":[1,3,5,7,9,11,13,15,-1,-1,17,19,21,23,25,-1,-1,-1,-1,27,29,31,33,35,37,-1,-1,39,41,-1,-1,-1,43,-1,-1,45,-1,-1,-1,-1,-1,-1,-1,-1,-1,-1,-1],"loss_changes":[1.8818932E1,5.2322397E0,6.3719783E0,3.5311866E0,2.6402206E0,3.9781408E0,4.682148E0,2.5092888E-1,0E0,0E0,1.8912907E0,2.403061E0,2.6577828E0,2.3818007E0,1.3060734E0,0E0,0E0,0E0,0E0,2.4300213E0,1.7505795E0,1.6275384E0,1.4628232E0,7.675357E-1,9.4357145E-1,0E0,0E0,9.2235833E-1,7.122593E-1,0E0,0E0,0E0,8.655832E-1,0E0,0E0,1.6725159E-1,0E0,0E0,0E0,0E0,0E0,0E0,0E0,0E0,0E0,0E0,0E0],"parents":[2147483647,0,0,1,1,2,2,3,3,4,4,5,5,6,6,7,7,10,10,11,11,12,12,13,13,14,14,19,19,20,20,21,21,22,22,23,23,24,24,27,27,28,28,32,32,35,35],"right_children":[2,4,6,8,10,12,14,16,-1,-1,18,20,22,24,26,-1,-1,-1,-1,28,30,32,34,36,38,-1,-1,40,42,-1,-1,-1,44,-1,-1,46,-1,-1,-1,-1,-1,-1,-1,-1,-1,-1,-1],"split_conditions":[4.275938E-2,9.86723E-2,1.0312468E-1,2.2878726E-1,3.3282153E-2,7.668233E-2,1.756434E-1,-3.8230795E-5,1.5160334E-1,-9.82615E-2,1.3426045E-1,2.607688E-1,1.1936932E-1,9.2674926E-2,2.8049199E-2,-3.7193054E-1,-7.5269915E-2,2.916984E-1,-5.9645552E-2,-2.3111915E-4,-2.7012313E-4,5.1255614E-2,1.08929135E-1,8.112695E-2,2.1983841E-2,7.423715E-2,-2.301472E-1,1.4060229E-2,9.091287E-2,1.9884506E-1,-1.4073147E-1,-1.3198625E-1,1.03413396E-1,-2.3661718E-1,9.242524E-2,9.500635E-2,-5.024824E-3,8.908026E-2,-1.9189553E-1,-1.0929539E-1,1.3305748E-1,-2.9294935E-1,-1.8853005E-2,2.5006145E-1,-2.821582E-2,2.8140312E-1,6.112125E-2],"split_indices":[13362,6063,9090,544,8399,2047,9493,9592,0,0,4550,12905,13755,248,15212,0,0,0,0,13430,12460,13885,8456,2088,9359,0,0,2547,7551,0,0,0,2365,0,0,8834,0,0,0,0,0,0,0,0,0,0,0],"split_type":[0,0,0,0,0,0,0,0,0,0,0,0,0,0,0,0,0,0,0,0,0,0,0,0,0,0,0,0,0,0,0,0,0,0,0,0,0,0,0,0,0,0,0,0,0,0,0],"sum_hessian":[8.5235344E1,2.913525E1,5.6100094E1,4.324827E0,2.4810423E1,3.985878E1,1.6241318E1,2.1747391E0,2.150088E0,1.3689082E0,2.3441515E1,2.962921E1,1.0229569E1,1.1177896E1,5.0634217E0,1.1674252E0,1.007314E0,2.2303318E1,1.1381963E0,2.6107763E1,3.5214453E0,5.8215227E0,4.4080462E0,8.669587E0,2.508308E0,1.1702143E0,3.8932073E0,4.149559E0,2.1958204E1,1.500714E0,2.0207314E0,1.0185195E0,4.8030033E0,3.3369431E0,1.0711031E0,7.6279783E0,1.0416092E0,1.1863018E0,1.322006E0,2.9152818E0,1.2342774E0,2.0921886E1,1.0363181E0,3.766317E0,1.0366864E0,6.624804E0,1.0031744E0],"tree_param":{"num_deleted":"0","num_feature":"16384","num_nodes":"47","size_leaf_vector":"1"}},{"base_weights":[1.4362741E-2,-3.3701822E-1,5.504685E-1,1.1512623E-1,-5.515045E-1,8.210937E-1,1.08431466E-1,5.6071293E-1,-2.5027937E-1,-7.628401E-1,-8.1875175E-2,-2.9359644E-2,9.045797E-1,4.4149232E-1,-5.009471E-1,-1.2152029E-1,8.005807E-1,1.9896697E-1,-5.8965707E-1,-8.794125E-1,6.643847E-2,3.5758677E-1,-5.02823E-1,2.8168154E-1,5.815808E-2,-2.9443598E-1,7.5292325E-1,9.3222916E-2,-2.8641546E-1,3.848174E-2,2.856901E-1,1.755655E-1,-4.32366E-2,-2.5888136E-1,3.6011215E-2,-9.435029E-1,-3.7856176E-3,6.075286E-1,-1.1484719E-1,8.3242826E-2,-2.1839653E-1,8.714021E-2,-2.081946E-1,2.4746545E-1,5.74872E-2,-6.778172E-2,-2.9218066E-1,2.2367045E-1,3.520129E-2],"categories":[],"categories_nodes":[],"categories_segments":[],"categories_sizes":[],"default_left":[0,0,0,0,0,0,0,0,0,0,0,0,0,0,0,0,0,0,0,0,0,0,0,0,0,0,0,0,0,0,0,0,0,0,0,0,0,0,0,0,0,0,0,0,0,0,0,0,0],"id":13,"left_children":[1,3,5,7,9,11,13,15,17,19,21,-1,23,25,27,-1,29,31,33,35,-1,37,39,-1,-1,41,43,-1,-1,-1,-1,-1,-1,-1,-1,45,-1,47,-1,-1,-1,-1,-1,-1,-1,-1,-1,-1,-1],"loss_changes":[1.3692595E1,4.3241153E0,3.352458E0,2.576573E0,2.9121227E0,1.445858E0,2.6722567E0,1.9575658E0,1.4761517E0,2.552618E0,2.107697E0,0E0,2.1640873E-1,2.1332116E0,2.0411916E0,0E0,4.8818874E-1,6.916888E-1,1.1371899E0,1.0199642E0,0E0,1.2842827E0,1.210236E0,0E0,0E0,9.49139E-1,8.999753E-2,0E0,0E0,0E0,0E0,0E0,0E0,0E0,0E0,1.57341E-1,0E0,2.2617066E-1,0E0,0E0,0E0,0E0,0E0,0E0,0E0,0E0,0E0,0E0,0E0],"parents":[2147483647,0,0,1,1,2,2,3,3,4,4,5,5,6,6,7,7,8,8,9,9,10,10,12,12,13,13,14,14,16,16,17,17,18,18,19,19,21,21,22,22,25,25,26,26,35,35,37,37],"right_children":[2,4,6,8,10,12,14,16,18,20,22,-1,24,26,28,-1,30,32,34,36,-1,38,40,-1,-1,42,44,-1,-1,-1,-1,-1,-1,-1,-1,46,-1,48,-1,-1,-1,-1,-1,-1,-1,-1,-1,-1,-1],"split_conditions":[1.9148488E-1,3.5331845E-2,1.11489676E-1,6.08036E-2,7.874275E-2,1.2819396E-1,1.5052328E-1,5.6955587E-2,4.1144364E-2,1.8787187E-1,8.250456E-2,-2.9359644E-2,1.675794E-2,8.403666E-2,-6.896915E-4,-1.2152029E-1,-1.1132194E-4,5.0688278E-2,7.836348E-2,1.3035384E-1,6.643847E-2,1.5627976E-1,7.640295E-2,2.8168154E-1,5.815808E-2,5.1485226E-2,1.1299943E-1,9.3222916E-2,-2.8641546E-1,3.848174E-2,2.856901E-1,1.755655E-1,-4.32366E-2,-2.5888136E-1,3.6011215E-2,-9.002303E-4,-3.7856176E-3,4.7328528E-2,-1.1484719E-1,8.3242826E-2,-2.1839653E-1,8.714021E-2,-2.081946E-1,2.4746545E-1,5.74872E-2,-6.778172E-2,-2.9218066E-1,2.2367045E-1,3.520129E-2],"split_indices":[13593,14439,6918,9539,8006,10747,2511,11186,15257,9367,5496,0,2233,9928,5305,0,1028,9790,2518,4801,0,12500,14667,0,0,15267,10655,0,0,0,0,0,0,0,0,7590,0,760,0,0,0,0,0,0,0,0,0,0,0],"split_type":[0,0,0,0,0,0,0,0,0,0,0,0,0,0,0,0,0,0,0,0,0,0,0,0,0,0,0,0,0,0,0,0,0,0,0,0,0,0,0,0,0,0,0,0,0,0,0,0,0],"sum_hessian":[7.0702225E1,4.293355E1,2.7768675E1,1.3962779E1,2.8970774E1,1.6691956E1,1.1076719E1,6.0503287E0,7.91245E0,1.9549192E1,9.421582E0,1.3758011E0,1.5316154E1,7.3403144E0,3.7364047E0,1.0667114E0,4.9836173E0,3.5831013E0,4.3293486E0,1.7574392E1,1.9748E0,4.683066E0,4.738517E0,1.4303558E1,1.0125952E0,2.1988597E0,5.1414547E0,1.4528301E0,2.2835746E0,1.2573658E0,3.7262516E0,1.3535426E0,2.2295587E0,2.969832E0,1.3595167E0,1.6282007E1,1.2923836E0,3.635346E0,1.0477198E0,1.0091251E0,3.7293916E0,1.003225E0,1.1956347E0,4.1409626E0,1.0004923E0,1.005185E0,1.5276823E1,2.4300582E0,1.2052878E0],"tree_param":{"num_deleted":"0","num_feature":"16384","num_nodes":"49","size_leaf_vector":"1"}},{"base_weights":[1.4409116E-2,-2.4730934E-1,6.4156157E-1,-4.1040042E-1,4.0702382E-1,7.622214E-1,-1.5688804E-1,-5.105385E-1,3.9114168E-1,-1.3171045E-1,6.626432E-1,8.862852E-1,-1.0242998E-1,-7.55808E-1,-1.1360123E-1,2.1446739E-1,-9.932391E-2,2.4010761E-1,-3.6418422E-3,2.8015032E-1,3.6242194E-2,1.0668937E-1,-1.5268594E-1,-4.058883E-3,-9.285708E-1,2.4393253E-1,-4.9739105E-1,-1.17709406E-1,1.7746067E-1,-1.7942099E-2,-2.957753E-1,1.6434471E-1,-6.975911E-2,-2.543645E-1,7.8075774E-2],"categories":[],"categories_nodes":[],"categories_segments":[],"categories_sizes":[],"default_left":[0,0,0,0,0,0,0,0,0,0,0,0,0,0,0,0,0,0,0,0,0,0,0,0,0,0,0,0,0,0,0,0,0,0,0],"id":14,"left_children":[1,3,5,7,9,11,-1,13,15,-1,17,19,21,23,25,-1,-1,-1,-1,-1,-1,-1,-1,27,29,31,33,-1,-1,-1,-1,-1,-1,-1,-1],"loss_changes":[1.0104335E1,4.806434E0,2.9445796E0,3.0329041E0,2.2754006E0,1.8956461E0,0E0,3.01124E0,1.2856758E0,0E0,7.016027E-1,4.265108E-1,7.41055E-1,2.5269003E0,1.9499487E0,0E0,0E0,0E0,0E0,0E0,0E0,0E0,0E0,1.3065066E0,7.301922E-1,1.2234577E0,2.014765E0,0E0,0E0,0E0,0E0,0E0,0E0,0E0,0E0],"parents":[2147483647,0,0,1,1,2,2,3,3,4,4,5,5,7,7,8,8,10,10,11,11,12,12,13,13,14,14,23,23,24,24,25,25,26,26],"right_children":[2,4,6,8,10,12,-1,14,16,-1,18,20,22,24,26,-1,-1,-1,-1,-1,-1,-1,-1,28,30,32,34,-1,-1,-1,-1,-1,-1,-1,-1],"split_conditions":[1.9593526E-1,2.2184399E-1,4.0081897E-1,3.8077375E-1,5.0256684E-2,1.19355485E-1,-1.5688804E-1,8.643654E-2,4.7718804E-2,-1.3171045E-1,4.973738E-2,1.2002736E-1,1.1336772E-1,8.1004076E-2,3.244595E-2,2.1446739E-1,-9.932391E-2,2.4010761E-1,-3.6418422E-3,2.8015032E-1,3.6242194E-2,1.0668937E-1,-1.5268594E-1,2.8981704E-2,-2.6782855E-4,5.7228334E-2,1.6491644E-1,-1.17709406E-1,1.7746067E-1,-1.7942099E-2,-2.957753E-1,1.6434471E-1,-6.975911E-2,-2.543645E-1,7.8075774E-2],"split_indices":[5544,410,2769,8137,13512,7156,0,6027,6672,0,760,14801,5390,4542,12539,0,0,0,0,0,0,0,0,9023,16096,7359,552,0,0,0,0,0,0,0,0],"split_type":[0,0,0,0,0,0,0,0,0,0,0,0,0,0,0,0,0,0,0,0,0,0,0,0,0,0,0,0,0,0,0,0,0,0,0],"sum_hessian":[5.9593582E1,4.2474228E1,1.7119356E1,3.429826E1,8.175968E0,1.5825128E1,1.2942277E0,3.0811924E1,3.486335E0,1.7305604E0,6.445408E0,1.38175125E1,2.0076149E0,1.8485529E1,1.2326395E1,2.4142504E0,1.0720845E0,5.1983795E0,1.2470284E0,1.2802334E1,1.015179E0,1.002833E0,1.0047818E0,3.6456356E0,1.4839892E1,6.570143E0,5.756252E0,2.4134054E0,1.2322303E0,1.0454206E0,1.3794472E1,3.9201539E0,2.6499894E0,3.854181E0,1.9020708E0],"tree_param":{"num_deleted":"0","num_feature":"16384","num_nodes":"35","size_leaf_vector":"1"}},{"base_weights":[1.2171186E-2,-2.7984202E-1,4.5890084E-1,-4.0928465E-1,4.0011442E-1,7.296286E-1,-9.177072E-2,-1.093095E-1,-7.136464E-1,6.1951435E-1,-8.985246E-2,8.646196E-1,-5.1636893E-2,1.722244E-1,-3.8700536E-1,2.805323E-1,-3.741575E-1,-8.6519176E-1,7.878092E-2,2.0237949E-2,2.4364154E-1,2.8000283E-1,1.4093139E-2,5.7094675E-2,-2.0512557E-1,-6.417173E-2,6.0860544E-1,1.6374116E-1,-2.3457423E-1,-2.878932E-1,7.4894843E-3,4.7174476E-2,-1.1182306E-1,2.1559422E-1,5.093304E-2,1.6684991E-1,-9.642936E-2],"categories":[],"categories_nodes":[],"categories_segments":[],"categories_sizes":[],"default_left":[0,0,0,0,0,0,0,0,0,0,0,0,0,0,0,0,0,0,0,0,0,0,0,0,0,0,0,0,0,0,0,0,0,0,0,0,0],"id":15,"left_children":[1,3,5,7,9,11,13,15,17,19,-1,21,-1,-1,23,25,27,29,-1,-1,-1,-1,-1,-1,-1,31,33,35,-1,-1,-1,-1,-1,-1,-1,-1,-1],"loss_changes":[6.8387494E0,2.9562654E0,3.1547484E0,2.4006128E0,1.0420117E0,1.8526773E0,1.738771E0,1.6385496E0,2.1940722E0,4.3155658E-1,0E0,6.4958954E-1,0E0,0E0,1.1481414E0,7.8320414E-1,2.1619058E0,1.0111027E0,0E0,0E0,0E0,0E0,0E0,0E0,0E0,3.3965793E-1,4.5402408E-2,1.097475E0,0E0,0E0,0E0,0E0,0E0,0E0,0E0,0E0,0E0],"parents":[2147483647,0,0,1,1,2,2,3,3,4,4,5,5,6,6,7,7,8,8,9,9,11,11,14,14,15,15,16,16,17,17,25,25,26,26,27,27],"right_children":[2,4,6,8,10,12,14,16,18,20,-1,22,-1,-1,24,26,28,30,-1,-1,-1,-1,-1,-1,-1,32,34,36,-1,-1,-1,-1,-1,-1,-1,-1,-1],"split_conditions":[7.5830914E-2,2.1409206E-1,1.15698375E-1,1.3170451E-1,1.0669508E-1,-1.7289631E-4,4.1596245E-2,3.9850257E-2,2.373564E-1,6.257181E-2,-8.985246E-2,1.1844891E-1,-5.1636893E-2,1.722244E-1,2.424928E-2,4.9841322E-2,1.527061E-2,1.6671221E-1,7.878092E-2,2.0237949E-2,2.4364154E-1,2.8000283E-1,1.4093139E-2,5.7094675E-2,-2.0512557E-1,-5.6118035E-4,4.639812E-2,1.23387985E-2,-2.3457423E-1,-2.878932E-1,7.4894843E-3,4.7174476E-2,-1.1182306E-1,2.1559422E-1,5.093304E-2,1.6684991E-1,-9.642936E-2],"split_indices":[8397,8905,9870,14201,14876,8891,14839,15253,3488,3352,0,15250,0,0,15528,2551,7346,5672,0,0,0,0,0,0,0,9602,7123,4026,0,0,0,0,0,0,0,0,0],"split_type":[0,0,0,0,0,0,0,0,0,0,0,0,0,0,0,0,0,0,0,0,0,0,0,0,0,0,0,0,0,0,0,0,0,0,0,0,0],"sum_hessian":[5.0439484E1,3.0727472E1,1.9712011E1,2.6147812E1,4.579661E0,1.2997195E1,6.7148166E0,1.3853308E1,1.2294504E1,3.5735168E0,1.0061442E0,1.1340687E1,1.6565084E0,1.7725765E0,4.9422398E0,5.5802555E0,8.273052E0,1.0740926E1,1.5535781E0,1.2736088E0,2.299908E0,1.0330869E1,1.0098176E0,1.7996593E0,3.1425807E0,3.1134133E0,2.4668422E0,3.8252914E0,4.4477606E0,9.63999E0,1.100936E0,2.098212E0,1.0152013E0,1.4624621E0,1.0043802E0,2.033884E0,1.7914072E0],"tree_param":{"num_deleted":"0","num_feature":"16384","num_nodes":"37","size_leaf_vector":"1"}},{"base_weights":[1.6411282E-2,-2.2947477E-1,4.745034E-1,-2.9909218E-2,-5.9142166E-1,6.976767E-1,-1.7399767E-1,2.729996E-1,-3.237943E-1,-7.7627087E-1,9.9446945E-2,8.2983553E-1,4.8467804E-2,-5.1677495E-1,9.335279E-2,6.891194E-1,-3.9598543E-2,3.3759248E-1,-5.25615E-1,-3.2923433E-3,-2.6681724E-1,2.673935E-1,4.238162E-2,1.1322446E-1,-9.372021E-2,-2.899103E-2,-1.9876002E-1,6.096995E-2,2.3650758E-1,-1.8469806E-1,2.487092E-1,-1.2025705E-2,1.6073374E-1,-7.226727E-1,3.838316E-2,1.7960845E-1,-6.001826E-3,-3.0940665E-2,-2.4974422E-1],"categories":[],"categories_nodes":[],"categories_segments":[],"categories_sizes":[],"default_left":[0,0,0,0,0,0,0,0,0,0,0,0,0,0,0,0,0,0,0,0,0,0,0,0,0,0,0,0,0,0,0,0,0,0,0,0,0,0,0],"id":16,"left_children":[1,3,5,7,9,11,13,15,17,19,-1,21,23,25,-1,27,29,31,33,-1,-1,-1,-1,-1,-1,-1,-1,-1,-1,-1,35,-1,-1,37,-1,-1,-1,-1,-1],"loss_changes":[5.13103E0,2.1266854E0,2.4224477E0,1.8856692E0,2.0482447E0,9.9177694E-1,9.708898E-1,1.3911133E0,1.6063383E0,7.732935E-1,0E0,2.9449272E-1,4.8547265E-1,1.3378948E-1,0E0,5.926919E-2,1.304526E0,2.5439236E-1,1.1991546E0,0E0,0E0,0E0,0E0,0E0,0E0,0E0,0E0,0E0,0E0,0E0,5.13489E-1,0E0,0E0,3.735342E-1,0E0,0E0,0E0,0E0,0E0],"parents":[2147483647,0,0,1,1,2,2,3,3,4,4,5,5,6,6,7,7,8,8,9,9,11,11,12,12,13,13,15,15,16,16,17,17,18,18,30,30,33,33],"right_children":[2,4,6,8,10,12,14,16,18,20,-1,22,24,26,-1,28,30,32,34,-1,-1,-1,-1,-1,-1,-1,-1,-1,-1,-1,36,-1,-1,38,-1,-1,-1,-1,-1],"split_conditions":[1.21956326E-1,6.257838E-2,7.222496E-2,1.158041E-1,4.2419434E-1,9.043222E-2,2.7536625E-1,-7.2752526E-5,5.1435623E-3,-4.7826393E-6,9.9446945E-2,5.7154894E-2,3.616681E-2,8.239933E-2,9.335279E-2,1.0809593E-1,1.1441918E-1,1.0036375E-1,1.3958843E-1,-3.2923433E-3,-2.6681724E-1,2.673935E-1,4.238162E-2,1.1322446E-1,-9.372021E-2,-2.899103E-2,-1.9876002E-1,6.096995E-2,2.3650758E-1,-1.8469806E-1,1.3730136E-1,-1.2025705E-2,1.6073374E-1,-4.898154E-4,3.838316E-2,1.7960845E-1,-6.001826E-3,-3.0940665E-2,-2.4974422E-1],"split_indices":[11890,8360,4247,6925,5292,13323,13981,9576,9404,16015,0,3439,14447,4604,0,8911,10788,3272,11498,0,0,0,0,0,0,0,0,0,0,0,9534,0,0,15127,0,0,0,0,0],"split_type":[0,0,0,0,0,0,0,0,0,0,0,0,0,0,0,0,0,0,0,0,0,0,0,0,0,0,0,0,0,0,0,0,0,0,0,0,0,0,0],"sum_hessian":[4.3586403E1,2.8687262E1,1.4899142E1,1.918946E1,9.497799E0,1.1028125E1,3.8710172E0,9.484651E0,9.704811E0,8.045301E0,1.4524976E0,8.9316845E0,2.0964403E0,2.2302217E0,1.6407955E0,3.5519407E0,5.93271E0,2.1117284E0,7.593082E0,1.1773214E0,6.8679805E0,7.9292936E0,1.002391E0,1.0727403E0,1.0237001E0,1.002778E0,1.2274436E0,1.1193564E0,2.4325845E0,1.6001189E0,4.3325915E0,1.0013068E0,1.1104217E0,5.7527823E0,1.8402996E0,1.3483962E0,2.984195E0,1.1580869E0,4.5946956E0],"tree_param":{"num_deleted":"0","num_feature":"16384","num_nodes":"39","size_leaf_vector":"1"}},{"base_weights":[1.8588368E-2,-2.3950802E-1,3.814318E-1,6.827838E-2,-5.6822866E-1,7.2248787E-1,2.290172E-2,-4.3981102E-1,2.493237E-1,-7.9718286E-1,9.720227E-2,-2.8583847E-2,2.53844E-1,5.19457E-1,-2.6626465E-1,3.8681716E-2,-2.0766224E-1,-1.3077374E-1,5.2649593E-1,-2.7549306E-1,1.7526306E-2,1.3020152E-1,-1.1388171E-1,2.0378696E-2,2.0825115E-1,1.5344463E-1,-5.568934E-1,1.6702285E-1,-1.7075703E-1,-8.258505E-3,6.6017133E-1,-7.023592E-2,1.5233296E-1,-2.0690292E-2,-2.1153048E-1,-1.299936E-2,1.1129039E-1,2.2374222E-1,4.9562432E-2],"categories":[],"categories_nodes":[],"categories_segments":[],"categories_sizes":[],"default_left":[0,0,0,0,0,0,0,0,0,0,0,0,0,0,0,0,0,0,0,0,0,0,0,0,0,0,0,0,0,0,0,0,0,0,0,0,0,0,0],"id":17,"left_children":[1,3,5,7,9,11,13,15,17,19,21,-1,-1,23,25,-1,-1,27,29,-1,-1,-1,-1,-1,-1,31,33,35,-1,-1,37,-1,-1,-1,-1,-1,-1,-1,-1],"loss_changes":[3.7636666E0,2.4193268E0,2.023687E0,1.3095343E0,1.827215E0,9.4201374E-1,1.4545617E0,6.331118E-1,1.1492782E0,9.5045996E-1,7.8001845E-1,0E0,0E0,2.4572074E-1,8.727524E-1,0E0,0E0,7.642788E-1,4.721285E-1,0E0,0E0,0E0,0E0,0E0,0E0,5.891863E-1,2.4277174E-1,1.8019198E-1,0E0,0E0,8.7794065E-2,0E0,0E0,0E0,0E0,0E0,0E0,0E0,0E0],"parents":[2147483647,0,0,1,1,2,2,3,3,4,4,5,5,6,6,7,7,8,8,9,9,10,10,13,13,14,14,17,17,18,18,25,25,26,26,27,27,30,30],"right_children":[2,4,6,8,10,12,14,16,18,20,22,-1,-1,24,26,-1,-1,28,30,-1,-1,-1,-1,-1,-1,32,34,36,-1,-1,38,-1,-1,-1,-1,-1,-1,-1,-1],"split_conditions":[2.8709254E-1,3.244595E-2,7.6168135E-2,6.813143E-2,1.7577921E-1,1.3691153E-1,1.05481826E-1,3.5305873E-2,1.2225872E-1,1.5592203E-1,1.600338E-1,-2.8583847E-2,2.53844E-1,3.99481E-2,5.8499373E-2,3.8681716E-2,-2.0766224E-1,1.7760793E-2,2.0142794E-1,-2.7549306E-1,1.7526306E-2,1.3020152E-1,-1.1388171E-1,2.0378696E-2,2.0825115E-1,3.267637E-1,3.4082517E-2,-3.4287132E-4,-1.7075703E-1,-8.258505E-3,1.1490628E-1,-7.023592E-2,1.5233296E-1,-2.0690292E-2,-2.1153048E-1,-1.299936E-2,1.1129039E-1,2.2374222E-1,4.9562432E-2],"split_indices":[13144,12539,1366,5005,1248,9265,11063,9376,326,463,14204,0,0,12231,15977,0,0,8322,8170,0,0,0,0,0,0,523,6186,5813,0,0,5389,0,0,0,0,0,0,0,0],"split_type":[0,0,0,0,0,0,0,0,0,0,0,0,0,0,0,0,0,0,0,0,0,0,0,0,0,0,0,0,0,0,0,0,0,0,0,0,0,0,0],"sum_hessian":[3.8213737E1,2.2528656E1,1.5685082E1,1.2043977E1,1.0484678E1,7.518182E0,8.166902E0,2.7886274E0,9.255349E0,7.653389E0,2.8312893E0,1.0176777E0,6.500504E0,2.7125416E0,5.4543595E0,1.00749E0,1.7811373E0,4.125741E0,5.129608E0,6.64007E0,1.0133191E0,1.7118558E0,1.1194336E0,1.1442231E0,1.5683184E0,2.4247298E0,3.02963E0,2.825522E0,1.300219E0,1.1514463E0,3.978162E0,1.320092E0,1.1046379E0,1.0472506E0,1.9823792E0,1.7785825E0,1.0469394E0,2.9593558E0,1.0188062E0],"tree_param":{"num_deleted":"0","num_feature":"16384","num_nodes":"39","size_leaf_vector":"1"}},{"base_weights":[1.7120034E-2,2.9694498E-1,-2.790549E-1,4.8749197E-1,-1.4024371E-1,-5.019896E-1,1.5943626E-1,1.1884519E-2,7.8556305E-1,-3.8291654E-1,1.15444995E-1,-7.398619E-1,6.0388006E-2,-1.1447967E-1,4.180526E-1,2.2472747E-1,-1.2569425E-1,5.074724E-2,2.554792E-1,4.0525183E-2,-1.8024954E-1,2.6645532E-3,-2.5529203E-1,-1.2636799E-1,1.3468353E-1,5.688327E-1,-2.52348E-2,1.6345248E-1,-1.6741615E-2,5.034982E-2,1.9544508E-1],"categories":[],"categories_nodes":[],"categories_segments":[],"categories_sizes":[],"default_left":[0,0,0,0,0,0,0,0,0,0,0,0,0,0,0,0,0,0,0,0,0,0,0,0,0,0,0,0,0,0,0],"id":18,"left_children":[1,3,5,7,9,11,13,15,17,19,-1,21,23,-1,25,27,-1,-1,-1,-1,-1,-1,-1,-1,-1,29,-1,-1,-1,-1,-1],"loss_changes":[2.9445264E0,1.587769E0,1.7702134E0,1.8231213E0,9.517391E-1,1.6102903E0,1.0811235E0,6.43966E-1,1.7875767E-1,6.25104E-1,0E0,6.980729E-1,1.0131266E0,0E0,4.2140514E-1,4.4922963E-1,0E0,0E0,0E0,0E0,0E0,0E0,0E0,0E0,0E0,2.06846E-2,0E0,0E0,0E0,0E0,0E0],"parents":[2147483647,0,0,1,1,2,2,3,3,4,4,5,5,6,6,7,7,8,8,9,9,11,11,12,12,14,14,15,15,25,25],"right_children":[2,4,6,8,10,12,14,16,18,20,-1,22,24,-1,26,28,-1,-1,-1,-1,-1,-1,-1,-1,-1,30,-1,-1,-1,-1,-1],"split_conditions":[6.8977475E-2,1.21299066E-1,8.7815024E-2,9.985115E-2,1.919258E-1,1.6663525E-1,6.0763586E-2,4.0925212E-2,8.71203E-2,-5.4422085E-4,1.15444995E-1,1.3669239E-2,9.810626E-2,-1.1447967E-1,2.418727E-1,6.7106225E-2,-1.2569425E-1,5.074724E-2,2.554792E-1,4.0525183E-2,-1.8024954E-1,2.6645532E-3,-2.5529203E-1,-1.2636799E-1,1.3468353E-1,1.312817E-1,-2.52348E-2,1.6345248E-1,-1.6741615E-2,5.034982E-2,1.9544508E-1],"split_indices":[13365,7439,6027,12259,325,12896,4041,144,13048,8888,0,481,7778,0,11324,12340,0,0,0,0,0,0,0,0,0,889,0,0,0,0,0],"split_type":[0,0,0,0,0,0,0,0,0,0,0,0,0,0,0,0,0,0,0,0,0,0,0,0,0,0,0,0,0,0,0],"sum_hessian":[3.3528976E1,1.723902E1,1.6289959E1,1.192604E1,5.3129797E0,1.0703399E1,5.58656E0,4.9953084E0,6.9307313E0,3.818747E0,1.4942325E0,7.3000536E0,3.403345E0,1.6529617E0,3.9335983E0,3.6638384E0,1.3314701E0,1.0152644E0,5.915467E0,1.2433416E0,2.5754054E0,1.0622127E0,6.2378407E0,1.4821494E0,1.9211959E0,2.923148E0,1.0104505E0,1.2711596E0,2.3926787E0,1.017437E0,1.9057108E0],"tree_param":{"num_deleted":"0","num_feature":"16384","num_nodes":"31","size_leaf_vector":"1"}},{"base_weights":[1.964633E-2,5.273496E-1,-1.23912916E-1,6.8628675E-1,-2.5408078E-2,-3.3011636E-1,1.6235454E-1,3.1472232E-2,2.3705699E-1,2.7823396E-2,-6.7152935E-1,-1.3768704E-1,2.8564724E-1,2.117184E-1,-1.6705456E-1,-2.4430646E-1,2.674222E-2,4.375466E-1,-1.006045E-1,-9.3367964E-2,5.191541E-1,-4.11451E-2,5.636751E-1,4.139551E-2,-1.2409531E-1,1.9002406E-1,3.5277616E-2,2.0010248E-1,2.718291E-2],"categories":[],"categories_nodes":[],"categories_segments":[],"categories_sizes":[],"default_left":[0,0,0,0,0,0,0,0,0,0,0,0,0,0,0,0,0,0,0,0,0,0,0,0,0,0,0,0,0],"id":19,"left_children":[1,3,5,7,-1,9,11,-1,-1,13,15,-1,17,19,-1,-1,-1,21,-1,23,25,-1,27,-1,-1,-1,-1,-1,-1],"loss_changes":[2.314026E0,7.3819256E-1,1.5211328E0,2.5899172E-1,0E0,1.8250201E0,9.798616E-1,0E0,0E0,9.969799E-1,8.988247E-1,0E0,1.0769749E0,6.998154E-1,0E0,0E0,0E0,6.8310344E-1,0E0,3.781513E-1,9.121019E-2,0E0,2.8414392E-1,0E0,0E0,0E0,0E0,0E0,0E0],"parents":[2147483647,0,0,1,1,2,2,3,3,5,5,6,6,9,9,10,10,12,12,13,13,17,17,19,19,20,20,22,22],"right_children":[2,4,6,8,-1,10,12,-1,-1,14,16,-1,18,20,-1,-1,-1,22,-1,24,26,-1,28,-1,-1,-1,-1,-1,-1],"split_conditions":[1.8088447E-2,1.8243007E-1,2.1928756E-1,1.1011298E-1,-2.5408078E-2,-3.020694E-4,7.967742E-2,3.1472232E-2,2.3705699E-1,8.234219E-2,2.7896997E-1,-1.3768704E-1,2.53532E-1,7.087231E-2,-1.6705456E-1,-2.4430646E-1,2.674222E-2,1.2506379E-1,-1.006045E-1,-6.879355E-4,3.5021668E-3,-4.11451E-2,1.17954366E-1,4.139551E-2,-1.2409531E-1,1.9002406E-1,3.5277616E-2,2.0010248E-1,2.718291E-2],"split_indices":[4365,14205,12881,13513,0,2143,8937,0,0,232,7066,0,909,13183,0,0,0,12865,0,2106,6340,0,2511,0,0,0,0,0,0],"split_type":[0,0,0,0,0,0,0,0,0,0,0,0,0,0,0,0,0,0,0,0,0,0,0,0,0,0,0,0,0],"sum_hessian":[2.985224E1,5.991094E0,2.3861145E1,4.6597357E0,1.3313583E0,1.378116E1,1.0079985E1,1.0112209E0,3.6485147E0,7.1761456E0,6.6050153E0,1.2182642E0,8.861721E0,5.944368E0,1.2317779E0,5.501469E0,1.1035461E0,7.3574533E0,1.5042676E0,3.333069E0,2.6112986E0,1.3084036E0,6.04905E0,2.265667E0,1.0674022E0,1.5833905E0,1.0279081E0,4.62814E0,1.4209098E0],"tree_param":{"num_deleted":"0","num_feature":"16384","num_nodes":"29","size_leaf_vector":"1"}},{"base_weights":[1.3856832E-2,-2.4666193E-1,2.5864765E-1,-6.6820216E-1,-1.426963E-2,5.410721E-1,-1.09360985E-1,-2.275732E-1,-4.655765E-2,-2.2725959E-1,3.6787605E-1,-9.931866E-3,6.779904E-1,-4.335867E-1,2.6246735E-1,-3.6734012E-1,8.6917765E-2,1.6032213E-1,-1.2838884E-2,2.354134E-1,2.16121E-2,2.3255015E-2,-1.867639E-1,1.4846301E-1,-4.414458E-2,2.9961923E-2,-6.1897814E-1,-4.6305872E-2,-2.169162E-1],"categories":[],"categories_nodes":[],"categories_segments":[],"categories_sizes":[],"default_left":[0,0,0,0,0,0,0,0,0,0,0,0,0,0,0,0,0,0,0,0,0,0,0,0,0,0,0,0,0],"id":20,"left_children":[1,3,5,7,9,11,13,-1,-1,15,17,-1,19,21,23,25,-1,-1,-1,-1,-1,-1,-1,-1,-1,-1,27,-1,-1],"loss_changes":[1.8438874E0,1.3652726E0,1.6056232E0,1.1249328E-1,9.031075E-1,6.974838E-1,9.9296E-1,0E0,0E0,6.1939406E-1,2.9541796E-1,0E0,3.948369E-1,4.609059E-1,4.5550054E-1,7.68889E-1,0E0,0E0,0E0,0E0,0E0,0E0,0E0,0E0,0E0,0E0,8.412933E-2,0E0,0E0],"parents":[2147483647,0,0,1,1,2,2,3,3,4,4,5,5,6,6,9,9,10,10,12,12,13,13,14,14,15,15,26,26],"right_children":[2,4,6,8,10,12,14,-1,-1,16,18,-1,20,22,24,26,-1,-1,-1,-1,-1,-1,-1,-1,-1,-1,28,-1,-1],"split_conditions":[2.1978502E-1,6.1898373E-2,9.396729E-2,1.9908185E-1,1.296465E-1,8.1319585E-2,8.0286056E-2,-2.275732E-1,-4.655765E-2,2.1404003E-1,3.0252114E-2,-9.931866E-3,2.6707456E-2,2.8942905E-2,3.7467446E-2,4.019463E-2,8.6917765E-2,1.6032213E-1,-1.2838884E-2,2.354134E-1,2.16121E-2,2.3255015E-2,-1.867639E-1,1.4846301E-1,-4.414458E-2,2.9961923E-2,8.0701075E-2,-4.6305872E-2,-2.169162E-1],"split_indices":[12906,9264,4365,12386,15102,7507,9935,0,0,15586,10627,0,9359,1394,2120,9289,0,0,0,0,0,0,0,0,0,0,5501,0,0],"split_type":[0,0,0,0,0,0,0,0,0,0,0,0,0,0,0,0,0,0,0,0,0,0,0,0,0,0,0,0,0],"sum_hessian":[2.6913067E1,1.3033991E1,1.3879076E1,3.9655304E0,9.06846E0,7.5865707E0,6.2925057E0,2.9645898E0,1.0009406E0,6.0832505E0,2.9852102E0,1.6067473E0,5.979823E0,3.2726965E0,3.0198092E0,5.0141044E0,1.0691463E0,1.9095669E0,1.0756433E0,4.833525E0,1.1462982E0,1.0425497E0,2.230147E0,1.7938566E0,1.2259526E0,1.9663377E0,3.0477664E0,1.0121795E0,2.035587E0],"tree_param":{"num_deleted":"0","num_feature":"16384","num_nodes":"29","size_leaf_vector":"1"}},{"base_weights":[7.676718E-3,-1.7557849E-1,3.2033154E-1,1.3903213E-1,-3.4562382E-1,4.9376607E-1,-2.2494838E-1,1.3765544E-1,-8.3288066E-2,7.684757E-2,-4.948423E-1,6.2612E-1,-5.7170518E-2,3.553602E-2,-1.353909E-1,1.13770954E-1,-1.1624188E-1,5.1472098E-2,-6.1426365E-1,2.2268696E-1,-3.781204E-3,1.4328839E-3,6.02026E-2,-8.131192E-3,-7.1653163E-1,-4.6069957E-2,-2.3656812E-1],"categories":[],"categories_nodes":[],"categories_segments":[],"categories_sizes":[],"default_left":[0,0,0,0,0,0,0,0,0,0,0,0,0,0,0,0,0,0,0,0,0,0,0,0,0,0,0],"id":21,"left_children":[1,3,5,7,9,11,13,-1,15,-1,17,19,-1,-1,-1,21,-1,-1,23,-1,-1,-1,-1,-1,25,-1,-1],"loss_changes":[1.5144763E0,9.410415E-1,1.0339894E0,5.053336E-1,1.125511E0,8.1828666E-1,2.899141E-1,0E0,3.271275E-1,0E0,8.4182453E-1,5.0648165E-1,0E0,0E0,0E0,3.350656E-2,0E0,0E0,4.6489978E-1,0E0,0E0,0E0,0E0,0E0,1.5585184E-1,0E0,0E0],"parents":[2147483647,0,0,1,1,2,2,3,3,4,4,5,5,6,6,8,8,10,10,11,11,15,15,18,18,24,24],"right_children":[2,4,6,8,10,12,14,-1,16,-1,18,20,-1,-1,-1,22,-1,-1,24,-1,-1,-1,-1,-1,26,-1,-1],"split_conditions":[1.1166618E-1,-6.951197E-4,2.7306053E-1,8.719579E-2,-1.3528122E-3,1.6797607E-1,1.0610756E-1,1.3765544E-1,4.495228E-2,7.684757E-2,6.456713E-2,8.361238E-2,-5.7170518E-2,3.553602E-2,-1.353909E-1,6.898048E-2,-1.1624188E-1,5.1472098E-2,-1.480671E-4,2.2268696E-1,-3.781204E-3,1.4328839E-3,6.02026E-2,-8.131192E-3,3.2047726E-2,-4.6069957E-2,-2.3656812E-1],"split_indices":[15818,579,13046,8318,8394,4372,6836,0,13306,0,12152,14460,0,0,0,273,0,0,16094,0,0,0,0,0,7119,0,0],"split_type":[0,0,0,0,0,0,0,0,0,0,0,0,0,0,0,0,0,0,0,0,0,0,0,0,0,0,0],"sum_hessian":[2.4451038E1,1.5691982E1,8.759056E0,5.569645E0,1.0122337E1,6.7170644E0,2.0419917E0,1.8477039E0,3.721941E0,1.8688388E0,8.253498E0,5.6997666E0,1.0172976E0,1.0006301E0,1.0413615E0,2.6385798E0,1.0833611E0,1.1878945E0,7.0656037E0,4.6854424E0,1.0143243E0,1.6385214E0,1.0000584E0,1.2357454E0,5.8298583E0,1.0165654E0,4.813293E0],"tree_param":{"num_deleted":"0","num_feature":"16384","num_nodes":"27","size_leaf_vector":"1"}},{"base_weights":[4.776299E-3,2.1076575E-1,-2.3815544E-1,5.0233555E-1,-4.243545E-2,-4.568677E-1,1.7510578E-1,6.448042E-1,-3.4503005E-2,1.7161216E-1,-3.3855915E-1,1.5061937E-2,-6.279743E-1,3.926492E-1,-8.845872E-2,2.2445005E-1,3.7774995E-2,-3.83595E-2,1.3050841E-1,-1.5437418E-1,1.4234822E-2,-2.2500984E-1,-8.610053E-3,1.6526358E-1,-7.90215E-5],"categories":[],"categories_nodes":[],"categories_segments":[],"categories_sizes":[],"default_left":[0,0,0,0,0,0,0,0,0,0,0,0,0,0,0,0,0,0,0,0,0,0,0,0,0],"id":22,"left_children":[1,3,5,7,9,11,13,15,-1,17,19,-1,21,23,-1,-1,-1,-1,-1,-1,-1,-1,-1,-1,-1],"loss_changes":[1.2230548E0,9.968342E-1,1.0944877E0,6.211746E-1,5.6481713E-1,6.9238293E-1,5.868223E-1,1.84937E-1,0E0,4.740289E-1,2.751691E-1,0E0,4.0045834E-1,2.2261202E-1,0E0,0E0,0E0,0E0,0E0,0E0,0E0,0E0,0E0,0E0,0E0],"parents":[2147483647,0,0,1,1,2,2,3,3,4,4,5,5,6,6,7,7,9,9,10,10,12,12,13,13],"right_children":[2,4,6,8,10,12,14,16,-1,18,20,-1,22,24,-1,-1,-1,-1,-1,-1,-1,-1,-1,-1,-1],"split_conditions":[4.8348147E-2,1.4132375E-1,1.5967023E-1,3.2776558E-1,1.1634559E-1,6.837465E-2,8.834565E-2,-8.40749E-5,-3.4503005E-2,-6.639624E-6,1.8153109E-1,1.5061937E-2,1.4173646E-1,1.835595E-2,-8.845872E-2,2.2445005E-1,3.7774995E-2,-3.83595E-2,1.3050841E-1,-1.5437418E-1,1.4234822E-2,-2.2500984E-1,-8.610053E-3,1.6526358E-1,-7.90215E-5],"split_indices":[14439,9476,3720,10734,13699,5659,7334,2190,0,417,15709,0,11361,16102,0,0,0,0,0,0,0,0,0,0,0],"split_type":[0,0,0,0,0,0,0,0,0,0,0,0,0,0,0,0,0,0,0,0,0,0,0,0,0],"sum_hessian":[2.24378E1,1.2213769E1,1.02240305E1,5.219453E0,6.994316E0,6.616716E0,3.607315E0,4.2046432E0,1.01481E0,4.3038373E0,2.6904788E0,1.8476841E0,4.7690315E0,2.5783453E0,1.0289698E0,3.1377373E0,1.0669059E0,2.2548687E0,2.0489686E0,1.6190875E0,1.0713913E0,3.7530515E0,1.01598E0,1.5515027E0,1.0268426E0],"tree_param":{"num_deleted":"0","num_feature":"16384","num_nodes":"25","size_leaf_vector":"1"}},{"base_weights":[5.4122205E-3,1.1372574E-1,-4.179214E-1,8.386788E-3,5.216759E-1,-1.7835997E-1,3.3233356E-2,3.2674608E-1,-1.1867141E-1,1.843408E-1,4.597299E-2,5.131757E-1,-5.248304E-2,-4.7092977E-1,5.4501623E-2,1.8216963E-1,4.1742064E-2,-1.8777777E-1,-1.0270489E-2,3.533478E-1,-1.17973745E-1,1.5019499E-1,-5.9471913E-5,5.0015472E-2,-1.1236935E-1],"categories":[],"categories_nodes":[],"categories_segments":[],"categories_sizes":[],"default_left":[0,0,0,0,0,0,0,0,0,0,0,0,0,0,0,0,0,0,0,0,0,0,0,0,0],"id":23,"left_children":[1,3,5,7,9,-1,-1,11,13,-1,-1,15,-1,17,19,-1,-1,-1,-1,21,23,-1,-1,-1,-1],"loss_changes":[1.0394093E0,7.6960593E-1,4.9734622E-1,6.589145E-1,3.1646013E-2,0E0,0E0,5.23725E-1,7.388529E-1,0E0,0E0,4.345721E-2,0E0,2.4640268E-1,4.918831E-1,0E0,0E0,0E0,0E0,1.7958814E-1,5.21764E-1,0E0,0E0,0E0,0E0],"parents":[2147483647,0,0,1,1,2,2,3,3,4,4,7,7,8,8,11,11,13,13,14,14,19,19,20,20],"right_children":[2,4,6,8,10,-1,-1,12,14,-1,-1,16,-1,18,20,-1,-1,-1,-1,22,24,-1,-1,-1,-1],"split_conditions":[1.6782606E-1,1.739465E-1,2.7227157E-1,1.8225601E-2,3.638972E-2,-1.7835997E-1,3.3233356E-2,1.8056828E-1,1.6182947E-1,1.843408E-1,4.597299E-2,8.45908E-2,-5.248304E-2,1.421507E-1,2.1580372E-2,1.8216963E-1,4.1742064E-2,-1.8777777E-1,-1.0270489E-2,8.237113E-2,6.967742E-3,1.5019499E-1,-5.9471913E-5,5.0015472E-2,-1.1236935E-1],"split_indices":[4530,92,10424,8736,8215,0,0,6932,16144,0,0,13335,0,13784,7483,0,0,0,0,5404,13260,0,0,0,0],"split_type":[0,0,0,0,0,0,0,0,0,0,0,0,0,0,0,0,0,0,0,0,0,0,0,0,0],"sum_hessian":[2.0631868E1,1.7010853E1,3.6210153E0,1.4330944E1,2.67991E0,2.6209629E0,1.0000525E0,3.6396773E0,1.0691266E1,1.6073016E0,1.0726082E0,2.6369004E0,1.0027769E0,2.956965E0,7.7343016E0,1.6088679E0,1.0280325E0,1.8625605E0,1.0944046E0,2.4465337E0,5.287768E0,1.4332855E0,1.0132482E0,2.6726604E0,2.6151075E0],"tree_param":{"num_deleted":"0","num_feature":"16384","num_nodes":"25","size_leaf_vector":"1"}},{"base_weights":[1.1133926E-2,-1.15960605E-1,3.6102915E-1,1.3016233E-1,-3.3112642E-1,5.229528E-1,-1.9029357E-2,2.7105933E-1,-1.0688723E-1,7.638616E-2,-4.467314E-1,2.8800303E-2,1.8822235E-1,-7.353301E-2,1.6854706E-1,-6.087904E-1,-1.6297236E-2,3.2585416E-2,-8.774498E-2,-2.1374016E-1,-3.1332806E-2,8.717143E-2,-9.1402166E-2],"categories":[],"categories_nodes":[],"categories_segments":[],"categories_sizes":[],"default_left":[0,0,0,0,0,0,0,0,0,0,0,0,0,0,0,0,0,0,0,0,0,0,0],"id":24,"left_children":[1,3,5,7,9,11,-1,13,-1,-1,15,-1,-1,17,-1,19,21,-1,-1,-1,-1,-1,-1],"loss_changes":[9.432194E-1,8.705642E-1,4.2107028E-1,6.4531195E-1,6.973874E-1,1.2678635E-1,0E0,7.202276E-1,0E0,0E0,5.17529E-1,0E0,0E0,1.9070667E-1,0E0,2.1138406E-1,3.6247978E-1,0E0,0E0,0E0,0E0,0E0,0E0],"parents":[2147483647,0,0,1,1,2,2,3,3,4,4,5,5,7,7,10,10,13,13,15,15,16,16],"right_children":[2,4,6,8,10,12,-1,14,-1,-1,16,-1,-1,18,-1,20,22,-1,-1,-1,-1,-1,-1],"split_conditions":[2.7743432E-1,3.252188E-2,1.4114185E-1,1.7726114E-1,-3.5480477E-4,-6.000527E-4,-1.9029357E-2,1.0247286E-1,-1.0688723E-1,7.638616E-2,1.8887457E-1,2.8800303E-2,1.8822235E-1,-7.758265E-5,1.6854706E-1,1.543392E-1,2.5409105E-1,3.2585416E-2,-8.774498E-2,-2.1374016E-1,-3.1332806E-2,8.717143E-2,-9.1402166E-2],"split_indices":[12900,5597,11311,16128,2175,8892,0,327,0,0,3720,0,0,8363,0,13727,15310,0,0,0,0,0,0],"split_type":[0,0,0,0,0,0,0,0,0,0,0,0,0,0,0,0,0,0,0,0,0,0,0],"sum_hessian":[1.9268923E1,1.46251335E1,4.64379E0,7.006094E0,7.6190395E0,3.193491E0,1.4502987E0,5.775929E0,1.2301649E0,1.0576477E0,6.561392E0,1.0049402E0,2.188551E0,2.985197E0,2.7907321E0,4.46569E0,2.0957017E0,1.9046108E0,1.0805864E0,3.361939E0,1.103751E0,1.0116109E0,1.0840908E0],"tree_param":{"num_deleted":"0","num_feature":"16384","num_nodes":"23","size_leaf_vector":"1"}},{"base_weights":[9.432206E-3,-9.2075355E-2,3.889254E-1,-2.0677643E-1,2.4004783E-1,-1.822938E-2,1.850764E-1,-4.1658875E-1,2.8872909E-2,1.5068358E-1,-8.647883E-2,3.482731E-2,-5.863759E-1,2.9667744E-1,-1.8271962E-1,-2.4739122E-2,-2.1981205E-1,1.3232441E-1,-4.7596376E-3,1.8549668E-2,-1.3311167E-1],"categories":[],"categories_nodes":[],"categories_segments":[],"categories_sizes":[],"default_left":[0,0,0,0,0,0,0,0,0,0,0,0,0,0,0,0,0,0,0,0,0],"id":25,"left_children":[1,3,5,7,9,-1,-1,11,13,-1,-1,-1,15,17,19,-1,-1,-1,-1,-1,-1],"loss_changes":[7.6451635E-1,6.4899683E-1,4.6641433E-1,6.16794E-1,7.6843214E-1,0E0,0E0,6.591524E-1,4.3366075E-1,0E0,0E0,0E0,3.1719565E-1,1.5759262E-1,3.0568668E-1,0E0,0E0,0E0,0E0,0E0,0E0],"parents":[2147483647,0,0,1,1,2,2,3,3,4,4,7,7,8,8,12,12,13,13,14,14],"right_children":[2,4,6,8,10,-1,-1,12,14,-1,-1,-1,16,18,20,-1,-1,-1,-1,-1,-1],"split_conditions":[3.1194502E-1,1.4761354E-1,4.500714E-2,5.7600185E-2,1.1252946E-1,-1.822938E-2,1.850764E-1,1.0446973E-1,4.3448724E-2,1.5068358E-1,-8.647883E-2,3.482731E-2,5.5284437E-2,1.0151971E-1,-1.8037863E-4,-2.4739122E-2,-2.1981205E-1,1.3232441E-1,-4.7596376E-3,1.8549668E-2,-1.3311167E-1],"split_indices":[10739,8912,2887,9767,3974,0,0,14666,8415,0,0,0,15805,16350,2056,0,0,0,0,0,0],"split_type":[0,0,0,0,0,0,0,0,0,0,0,0,0,0,0,0,0,0,0,0,0],"sum_hessian":[1.7916897E1,1.4733362E1,3.183535E0,1.1231794E1,3.501568E0,1.3178145E0,1.8657205E0,5.535438E0,5.6963563E0,2.372991E0,1.1285771E0,1.4143618E0,4.121076E0,2.33673E0,3.3596263E0,1.2792685E0,2.8418076E0,1.3169802E0,1.0197496E0,2.128365E0,1.2312613E0],"tree_param":{"num_deleted":"0","num_feature":"16384","num_nodes":"21","size_leaf_vector":"1"}}]},"name":"gbtree"},"learner_model_param":{"base_score":"6.305319E-1","boost_from_average":"1","num_class":"0","num_feature":"16384","num_target":"1"},"objective":{"name":"binary:logistic","reg_loss_param":{"scale_pos_weight":"1"}}},"version":[2,0,2]}